{"learner":{"attributes":{"best_iteration":"566","best_score":"0.8426650119595184"},"feature_names":["artist_prior_lots_total","artist_prior_lots_sold","artist_sell_through_rate","artist_avg_price","artist_median_price","artist_max_price","artist_min_price","artist_price_std","artist_price_trend","artist_years_in_market","artist_days_since_last_sale","artist_desirability_score","height_cm","width_cm","surface_area_cm2","year_created","artwork_age","artist_age_at_creation","artist_deceased","is_signed","is_dated","provenance_count","literature_count","exhibition_count","has_provenance","has_literature","has_exhibitions","is_live_auction","is_spring_sale","is_fall_sale","auction_year","market_index","artist_recent_avg_price","artist_recent_median_price","artist_recent_max_price","artist_momentum","artist_price_velocity","artist_price_per_cm2","artist_recent_lots_12m","artist_premium_trend","auction_house_prestige","provenance_quality","artist_rarity","comp_price","comp_price_best","comp_price_same_medium","comp_price_size_adj","log_comp_price","log_comp_best","log_comp_same_med","log_comp_size_adj","comp_recency_days","comp_count","comp_spread","color_richness","brightness","subject_score","palette_score","style_score","medium_category","artist_name_clean","subject","palette","style","title_subject","creation_period"],"feature_types":["float","float","float","float","float","float","float","float","float","float","float","float","float","float","float","float","float","float","int","i","i","int","int","int","int","int","int","int","int","int","float","float","float","float","float","float","float","float","float","float","int","int","float","float","float","float","float","float","float","float","float","float","float","float","float","float","float","float","float","int","int","int","int","int","int","int"],"gradient_booster":{"model":{"cats":{"enc":[],"feature_segments":[],"sorted_idx":[]},"gbtree_model_param":{"num_parallel_tree":"1","num_trees":"667"},"iteration_indptr":[0,1,2,3,4,5,6,7,8,9,10,11,12,13,14,15,16,17,18,19,20,21,22,23,24,25,26,27,28,29,30,31,32,33,34,35,36,37,38,39,40,41,42,43,44,45,46,47,48,49,50,51,52,53,54,55,56,57,58,59,60,61,62,63,64,65,66,67,68,69,70,71,72,73,74,75,76,77,78,79,80,81,82,83,84,85,86,87,88,89,90,91,92,93,94,95,96,97,98,99,100,101,102,103,104,105,106,107,108,109,110,111,112,113,114,115,116,117,118,119,120,121,122,123,124,125,126,127,128,129,130,131,132,133,134,135,136,137,138,139,140,141,142,143,144,145,146,147,148,149,150,151,152,153,154,155,156,157,158,159,160,161,162,163,164,165,166,167,168,169,170,171,172,173,174,175,176,177,178,179,180,181,182,183,184,185,186,187,188,189,190,191,192,193,194,195,196,197,198,199,200,201,202,203,204,205,206,207,208,209,210,211,212,213,214,215,216,217,218,219,220,221,222,223,224,225,226,227,228,229,230,231,232,233,234,235,236,237,238,239,240,241,242,243,244,245,246,247,248,249,250,251,252,253,254,255,256,257,258,259,260,261,262,263,264,265,266,267,268,269,270,271,272,273,274,275,276,277,278,279,280,281,282,283,284,285,286,287,288,289,290,291,292,293,294,295,296,297,298,299,300,301,302,303,304,305,306,307,308,309,310,311,312,313,314,315,316,317,318,319,320,321,322,323,324,325,326,327,328,329,330,331,332,333,334,335,336,337,338,339,340,341,342,343,344,345,346,347,348,349,350,351,352,353,354,355,356,357,358,359,360,361,362,363,364,365,366,367,368,369,370,371,372,373,374,375,376,377,378,379,380,381,382,383,384,385,386,387,388,389,390,391,392,393,394,395,396,397,398,399,400,401,402,403,404,405,406,407,408,409,410,411,412,413,414,415,416,417,418,419,420,421,422,423,424,425,426,427,428,429,430,431,432,433,434,435,436,437,438,439,440,441,442,443,444,445,446,447,448,449,450,451,452,453,454,455,456,457,458,459,460,461,462,463,464,465,466,467,468,469,470,471,472,473,474,475,476,477,478,479,480,481,482,483,484,485,486,487,488,489,490,491,492,493,494,495,496,497,498,499,500,501,502,503,504,505,506,507,508,509,510,511,512,513,514,515,516,517,518,519,520,521,522,523,524,525,526,527,528,529,530,531,532,533,534,535,536,537,538,539,540,541,542,543,544,545,546,547,548,549,550,551,552,553,554,555,556,557,558,559,560,561,562,563,564,565,566,567,568,569,570,571,572,573,574,575,576,577,578,579,580,581,582,583,584,585,586,587,588,589,590,591,592,593,594,595,596,597,598,599,600,601,602,603,604,605,606,607,608,609,610,611,612,613,614,615,616,617,618,619,620,621,622,623,624,625,626,627,628,629,630,631,632,633,634,635,636,637,638,639,640,641,642,643,644,645,646,647,648,649,650,651,652,653,654,655,656,657,658,659,660,661,662,663,664,665,666,667],"tree_info":[0,0,0,0,0,0,0,0,0,0,0,0,0,0,0,0,0,0,0,0,0,0,0,0,0,0,0,0,0,0,0,0,0,0,0,0,0,0,0,0,0,0,0,0,0,0,0,0,0,0,0,0,0,0,0,0,0,0,0,0,0,0,0,0,0,0,0,0,0,0,0,0,0,0,0,0,0,0,0,0,0,0,0,0,0,0,0,0,0,0,0,0,0,0,0,0,0,0,0,0,0,0,0,0,0,0,0,0,0,0,0,0,0,0,0,0,0,0,0,0,0,0,0,0,0,0,0,0,0,0,0,0,0,0,0,0,0,0,0,0,0,0,0,0,0,0,0,0,0,0,0,0,0,0,0,0,0,0,0,0,0,0,0,0,0,0,0,0,0,0,0,0,0,0,0,0,0,0,0,0,0,0,0,0,0,0,0,0,0,0,0,0,0,0,0,0,0,0,0,0,0,0,0,0,0,0,0,0,0,0,0,0,0,0,0,0,0,0,0,0,0,0,0,0,0,0,0,0,0,0,0,0,0,0,0,0,0,0,0,0,0,0,0,0,0,0,0,0,0,0,0,0,0,0,0,0,0,0,0,0,0,0,0,0,0,0,0,0,0,0,0,0,0,0,0,0,0,0,0,0,0,0,0,0,0,0,0,0,0,0,0,0,0,0,0,0,0,0,0,0,0,0,0,0,0,0,0,0,0,0,0,0,0,0,0,0,0,0,0,0,0,0,0,0,0,0,0,0,0,0,0,0,0,0,0,0,0,0,0,0,0,0,0,0,0,0,0,0,0,0,0,0,0,0,0,0,0,0,0,0,0,0,0,0,0,0,0,0,0,0,0,0,0,0,0,0,0,0,0,0,0,0,0,0,0,0,0,0,0,0,0,0,0,0,0,0,0,0,0,0,0,0,0,0,0,0,0,0,0,0,0,0,0,0,0,0,0,0,0,0,0,0,0,0,0,0,0,0,0,0,0,0,0,0,0,0,0,0,0,0,0,0,0,0,0,0,0,0,0,0,0,0,0,0,0,0,0,0,0,0,0,0,0,0,0,0,0,0,0,0,0,0,0,0,0,0,0,0,0,0,0,0,0,0,0,0,0,0,0,0,0,0,0,0,0,0,0,0,0,0,0,0,0,0,0,0,0,0,0,0,0,0,0,0,0,0,0,0,0,0,0,0,0,0,0,0,0,0,0,0,0,0,0,0,0,0,0,0,0,0,0,0,0,0,0,0,0,0,0,0,0,0,0,0,0,0,0,0,0,0,0,0,0,0,0,0,0,0,0,0,0,0,0,0,0,0,0,0,0,0,0,0,0,0,0,0,0,0,0,0,0,0,0,0,0,0,0,0,0,0,0,0,0,0,0,0,0,0,0,0,0,0,0,0,0,0,0,0,0,0,0,0,0,0,0,0,0,0,0,0,0,0,0,0,0,0,0,0,0,0,0,0,0,0,0,0,0,0,0,0,0,0,0,0,0,0,0,0,0,0,0,0,0,0,0,0,0],"trees":[{"base_weights":[4.6359372E-7,-6.131172E-1,1.8560907E0,-1.0127822E0,-1.7081061E-2,1.5358728E0,3.3388739E0,-1.2216896E0,-7.1751606E-1,-2.502926E-1,4.098894E-1,8.089212E-1,1.8998299E0,2.5067844E0,3.6785624E0,-1.4971187E0,-8.8322926E-1,-4.7341195E-1,-1.2055293E0,-4.814812E-1,-9.275291E-3,9.731122E-2,7.4488986E-1,-6.1905377E-2,9.8426276E-1,1.4918026E0,2.1158102E0,2.7086906E0,7.60182E-2,3.3557732E0,2.0328282E-1,-1.6130756E0,-8.405088E-1,-1.0155442E0,-6.4332485E-1,-9.3342954E-1,-3.3258137E-1,-1.8367305E0,-9.221979E-1,-8.4613365E-1,-3.202759E-1,-1.7661247E-1,3.703204E-1,1.868916E-1,-2.717718E-1,6.99946E-1,2.81593E0,-8.109046E-1,3.2264334E-1,5.385999E-1,1.1756057E0,1.5906327E0,2.37559E-1,1.7988907E0,2.2526448E0,2.8227947E0,1.4170878E0,3.993144E-2,-1.8881239E-1,7.505616E-2,3.409141E0,-6.914992E-2,-9.064494E-2,-1.8540306E-2,-6.216848E-2,-2.38453E-2,-5.243767E-2,-2.5148818E-2,-5.2720644E-2,-4.9314614E-2,-1.2231482E-2,1.2066759E-2,-2.403388E-2,-1.3057122E-1,-7.165246E-2,-5.154952E-2,3.2442044E-2,-6.400629E-2,-3.1639446E-2,-2.18466E-2,3.3555601E-3,-3.9173793E-2,-5.402865E-3,1.2006832E-2,5.9337247E-2,1.6462512E-2,-3.3306126E-3,-4.1509405E-2,-7.2157704E-3,4.0411044E-2,1.2010578E-2,3.859514E-2,1.5994845E-1,-6.9059424E-2,3.2380081E-3,3.207149E-2,-2.5404854E-2,-8.95835E-3,4.4161525E-2,5.389412E-2,8.3053574E-2,7.045423E-2,1.052648E-1,-1.5188622E-2,5.6459803E-2,7.387157E-2,1.0701046E-1,8.440221E-3,1.13001585E-1,2.9296866E-2,1.4251302E-1,1.981231E-2,7.981842E-2,-1.9054843E-2,4.953857E-3,1.4084785E-1,1.8100812E-1],"categories":[],"categories_nodes":[],"categories_segments":[],"categories_sizes":[],"default_left":[1,1,0,0,1,0,1,1,0,0,0,0,0,0,0,0,1,0,0,0,0,0,0,0,1,1,1,0,0,0,0,0,1,0,0,0,0,0,1,1,1,0,1,1,0,0,0,1,0,0,0,0,1,1,0,0,0,0,0,0,0,0,0,0,0,0,0,0,0,0,0,0,0,0,0,0,0,0,0,0,0,0,0,0,0,0,0,0,0,0,0,0,0,0,0,0,0,0,0,0,0,0,0,0,0,0,0,0,0,0,0,0,0,0,0,0,0],"id":0,"left_children":[1,3,5,7,9,11,13,15,17,19,21,23,25,27,29,31,33,35,37,39,41,43,45,47,49,51,53,55,57,59,-1,61,63,65,67,69,71,73,75,77,79,81,83,85,87,89,91,93,95,97,99,101,103,105,107,109,111,-1,113,-1,115,-1,-1,-1,-1,-1,-1,-1,-1,-1,-1,-1,-1,-1,-1,-1,-1,-1,-1,-1,-1,-1,-1,-1,-1,-1,-1,-1,-1,-1,-1,-1,-1,-1,-1,-1,-1,-1,-1,-1,-1,-1,-1,-1,-1,-1,-1,-1,-1,-1,-1,-1,-1,-1,-1,-1,-1],"loss_changes":[6.6254463E3,1.0424976E3,6.812793E2,1.6071631E2,1.7511948E2,3.1350757E2,6.3108154E1,1.4156787E2,1.2902875E2,6.3370544E1,6.498354E1,6.0985687E1,6.67041E1,3.7742493E1,8.794434E0,6.2878418E1,2.1254028E1,4.677684E1,6.306189E1,3.3853317E1,3.5501568E1,1.07149105E1,2.5928162E1,1.9794268E1,2.7694061E1,3.405371E1,1.832251E1,6.51709E0,1.482504E0,5.1413574E0,0E0,3.0407715E1,2.3894844E1,7.42572E0,1.3781563E1,5.9416504E0,4.754518E1,3.1024048E1,4.3726227E1,1.5610649E1,1.8293552E1,1.6051868E1,1.7890465E1,9.410013E0,4.3927884E0,1.4475128E1,2.2561913E0,1.1720218E1,1.2382187E1,2.5297386E1,9.195099E0,2.1075073E1,1.0703184E1,1.445459E1,5.104492E0,2.2963867E0,7.951145E-1,0E0,3.6443383E-1,0E0,2.2938232E0,0E0,0E0,0E0,0E0,0E0,0E0,0E0,0E0,0E0,0E0,0E0,0E0,0E0,0E0,0E0,0E0,0E0,0E0,0E0,0E0,0E0,0E0,0E0,0E0,0E0,0E0,0E0,0E0,0E0,0E0,0E0,0E0,0E0,0E0,0E0,0E0,0E0,0E0,0E0,0E0,0E0,0E0,0E0,0E0,0E0,0E0,0E0,0E0,0E0,0E0,0E0,0E0,0E0,0E0,0E0,0E0],"parents":[2147483647,0,0,1,1,2,2,3,3,4,4,5,5,6,6,7,7,8,8,9,9,10,10,11,11,12,12,13,13,14,14,15,15,16,16,17,17,18,18,19,19,20,20,21,21,22,22,23,23,24,24,25,25,26,26,27,27,28,28,29,29,31,31,32,32,33,33,34,34,35,35,36,36,37,37,38,38,39,39,40,40,41,41,42,42,43,43,44,44,45,45,46,46,47,47,48,48,49,49,50,50,51,51,52,52,53,53,54,54,55,55,56,56,58,58,60,60],"right_children":[2,4,6,8,10,12,14,16,18,20,22,24,26,28,30,32,34,36,38,40,42,44,46,48,50,52,54,56,58,60,-1,62,64,66,68,70,72,74,76,78,80,82,84,86,88,90,92,94,96,98,100,102,104,106,108,110,112,-1,114,-1,116,-1,-1,-1,-1,-1,-1,-1,-1,-1,-1,-1,-1,-1,-1,-1,-1,-1,-1,-1,-1,-1,-1,-1,-1,-1,-1,-1,-1,-1,-1,-1,-1,-1,-1,-1,-1,-1,-1,-1,-1,-1,-1,-1,-1,-1,-1,-1,-1,-1,-1,-1,-1,-1,-1,-1,-1],"split_conditions":[5.4328703E4,9.7658415E0,4.12013E5,5.95E1,2.64E4,1.1467217E1,4.57E5,5.2422383E3,2.02E2,1E0,1.0530195E1,4.43E1,5.91804E3,2.75E4,1.27E2,1E0,1.054E4,1.002399E4,1E0,1.2541039E4,4.20336E3,7.885853E-2,3.5019144E5,1E0,3E4,1.3901E2,1.1726177E5,6E0,1.9931554E0,8.94E3,2.0328282E-1,1.79E2,1.1373E2,5.7428118E-2,9.5953757E-1,4.832064E0,1.967E3,3E0,1.83E2,6.151E1,7.6E1,8.75E3,1.1582818E0,1.1688E2,3.2E4,1.8509923E-1,7.3333335E-1,1.0885E2,2E1,4.455E3,1.235075E5,1.2356582E1,6.25E4,7.5E4,1.984E4,2.55325E4,6.2E1,3.993144E-2,3E0,7.505616E-2,1.9154545E1,-6.914992E-2,-9.064494E-2,-1.8540306E-2,-6.216848E-2,-2.38453E-2,-5.243767E-2,-2.5148818E-2,-5.2720644E-2,-4.9314614E-2,-1.2231482E-2,1.2066759E-2,-2.403388E-2,-1.3057122E-1,-7.165246E-2,-5.154952E-2,3.2442044E-2,-6.400629E-2,-3.1639446E-2,-2.18466E-2,3.3555601E-3,-3.9173793E-2,-5.402865E-3,1.2006832E-2,5.9337247E-2,1.6462512E-2,-3.3306126E-3,-4.1509405E-2,-7.2157704E-3,4.0411044E-2,1.2010578E-2,3.859514E-2,1.5994845E-1,-6.9059424E-2,3.2380081E-3,3.207149E-2,-2.5404854E-2,-8.95835E-3,4.4161525E-2,5.389412E-2,8.3053574E-2,7.045423E-2,1.052648E-1,-1.5188622E-2,5.6459803E-2,7.387157E-2,1.0701046E-1,8.440221E-3,1.13001585E-1,2.9296866E-2,1.4251302E-1,1.981231E-2,7.981842E-2,-1.9054843E-2,4.953857E-3,1.4084785E-1,1.8100812E-1],"split_indices":[46,47,43,12,45,47,45,46,60,27,47,12,14,6,12,22,45,46,21,46,14,8,43,27,45,55,3,41,9,33,0,60,55,42,2,11,15,40,13,54,12,45,53,54,34,36,2,54,59,14,46,47,45,33,45,34,0,0,0,0,37,0,0,0,0,0,0,0,0,0,0,0,0,0,0,0,0,0,0,0,0,0,0,0,0,0,0,0,0,0,0,0,0,0,0,0,0,0,0,0,0,0,0,0,0,0,0,0,0,0,0,0,0,0,0,0,0],"split_type":[0,0,0,0,0,0,0,0,0,0,0,0,0,0,0,0,0,0,0,0,0,0,0,0,0,0,0,0,0,0,0,0,0,0,0,0,0,0,0,0,0,0,0,0,0,0,0,0,0,0,0,0,0,0,0,0,0,0,0,0,0,0,0,0,0,0,0,0,0,0,0,0,0,0,0,0,0,0,0,0,0,0,0,0,0,0,0,0,0,0,0,0,0,0,0,0,0,0,0,0,0,0,0,0,0,0,0,0,0,0,0,0,0,0,0,0,0],"sum_hessian":[5.82E3,4.3753657E3,1.4446342E3,2.618717E3,1.7566489E3,1.1897374E3,2.5489667E2,1.5317983E3,1.0869186E3,1.1363744E3,6.2027454E2,3.9800418E2,7.917333E2,7.632159E1,1.7857507E2,8.426506E2,6.891478E2,7.258291E2,3.6108948E2,5.795044E2,5.5686993E2,3.2154327E2,2.9873126E2,6.681536E1,3.3118884E2,2.7677002E2,5.1496326E2,7.036273E1,5.9588614E0,1.0264812E2,7.592696E1,7.149365E2,1.2771407E2,4.420887E2,2.4705908E2,1.6880527E2,5.5702386E2,1.1017057E2,2.509189E2,1.7634856E2,4.0315585E2,3.868636E2,1.7000633E2,2.5914072E2,6.2402576E1,2.936957E2,5.035553E0,2.2290548E1,4.452481E1,1.0062793E2,2.305609E2,2.563058E2,2.0464231E1,1.5955898E2,3.554043E2,6.3561977E1,6.8007517E0,1.0575725E0,4.901289E0,3.6858215E0,9.8962296E1,3.3599323E2,3.789433E2,5.9851986E1,6.786208E1,2.6565735E1,4.1552298E2,1.8583662E2,6.122245E1,1.5637239E2,1.2432868E1,1.14125244E2,4.428986E2,3.58681E1,7.430247E1,2.349899E2,1.5929001E1,5.6471752E1,1.198768E2,3.0975092E2,9.340494E1,3.820827E1,3.486553E2,1.4774211E2,2.2264233E1,1.657581E2,9.33826E1,1.0571751E1,5.1830826E1,2.3709743E2,5.659828E1,1.2705693E0,3.764984E0,1.3149517E1,9.141031E0,3.2341892E1,1.2182921E1,3.279839E1,6.782954E1,1.946072E2,3.5953705E1,1.9223318E2,6.407261E1,1.3143717E1,7.3205156E0,8.491407E1,7.46449E1,1.3396348E0,3.5406467E2,1.0418904E0,6.2520084E1,1.4954888E0,5.305263E0,2.7444682E0,2.1568205E0,2.9769602E1,6.9192696E1],"tree_param":{"num_deleted":"0","num_feature":"66","num_nodes":"117","size_leaf_vector":"1"}},{"base_weights":[1.6670827E-4,-5.8258975E-1,1.7643442E0,-9.875567E-1,-5.029568E-2,1.4596101E0,3.1754372E0,-1.1850188E0,-7.0819825E-1,-2.6338464E-1,3.755946E-1,7.687584E-1,1.8054932E0,2.3852894E0,3.4979768E0,-1.4378008E0,-8.661077E-1,-4.718723E-1,-1.1539916E0,-6.02339E-1,-1.0612834E-1,7.449436E-2,7.084827E-1,-5.968217E-2,9.3556786E-1,1.4179934E0,2.0106053E0,2.5770595E0,7.592919E-2,3.1918137E0,1.9325082E-1,-1.5512611E0,-7.7838147E-1,-1.2771293E0,-7.796452E-1,-9.135215E-1,-3.344095E-1,-1.746713E0,-8.8209826E-1,-7.9062784E-1,-3.5696295E-1,-3.1386286E-1,9.364489E-2,-4.7397563E-1,1.4568679E-1,6.651266E-1,2.7080293E0,-7.731854E-1,3.066579E-1,5.1201624E-1,1.1174167E0,1.5117837E0,2.2760373E-1,1.8146988E0,2.217125E0,2.684316E0,1.3590051E0,3.8905226E-2,-1.8176126E-1,7.210423E-2,3.2419035E0,-8.494162E-2,-6.2310755E-2,-1.6177973E-2,-5.923588E-2,-2.6758311E-2,-6.73048E-2,-4.5922395E-2,-2.6225498E-2,1.1318876E-2,-4.727645E-2,1.1552859E-2,-2.3915842E-2,-1.24219716E-1,-6.811741E-2,-4.9281936E-2,3.539407E-2,-5.5830777E-2,-3.2068353E-2,1.3404836E-2,-2.4286805E-2,-2.4738256E-2,-3.429218E-3,-1.0622631E-2,1.2213316E-2,-4.7836315E-2,-5.506116E-3,-9.653141E-3,1.4033603E-2,3.6059014E-2,-6.7552957E-3,3.751528E-2,1.536294E-1,-6.585049E-2,3.092085E-3,3.0516027E-2,-2.4230963E-2,-8.523663E-3,4.1985516E-2,5.3349853E-2,1.03543855E-1,6.1560374E-2,9.0496026E-2,-1.4482905E-2,5.3976115E-2,9.3774095E-2,5.250455E-2,1.3127997E-2,1.118428E-1,2.8549422E-2,1.3549954E-1,1.921865E-2,7.6460436E-2,-1.8356558E-2,4.784643E-3,1.3403432E-1,1.7208664E-1],"categories":[],"categories_nodes":[],"categories_segments":[],"categories_sizes":[],"default_left":[1,1,0,0,1,0,1,1,0,0,0,0,0,0,0,0,0,0,0,0,0,0,0,0,1,1,0,0,0,0,0,1,1,0,1,0,0,0,1,1,0,0,0,1,0,1,0,1,0,0,0,1,1,1,0,0,0,0,0,0,0,0,0,0,0,0,0,0,0,0,0,0,0,0,0,0,0,0,0,0,0,0,0,0,0,0,0,0,0,0,0,0,0,0,0,0,0,0,0,0,0,0,0,0,0,0,0,0,0,0,0,0,0,0,0,0,0],"id":1,"left_children":[1,3,5,7,9,11,13,15,17,19,21,23,25,27,29,31,33,35,37,39,41,43,45,47,49,51,53,55,57,59,-1,61,63,65,67,69,71,73,75,77,79,81,83,85,87,89,91,93,95,97,99,101,103,105,107,109,111,-1,113,-1,115,-1,-1,-1,-1,-1,-1,-1,-1,-1,-1,-1,-1,-1,-1,-1,-1,-1,-1,-1,-1,-1,-1,-1,-1,-1,-1,-1,-1,-1,-1,-1,-1,-1,-1,-1,-1,-1,-1,-1,-1,-1,-1,-1,-1,-1,-1,-1,-1,-1,-1,-1,-1,-1,-1,-1,-1],"loss_changes":[5.9855156E3,9.4332654E2,6.17E2,1.3626172E2,1.718001E2,2.8314355E2,5.687256E1,1.1602136E2,1.0815222E2,6.718376E1,6.3229446E1,5.5194885E1,6.015625E1,3.4047424E1,7.8430176E0,5.9390625E1,2.1951447E1,4.07334E1,5.5954285E1,1.8180435E1,3.584401E1,1.3056913E1,2.4183273E1,1.7963009E1,2.5013885E1,3.0668213E1,1.6851562E1,5.67511E0,1.4005926E0,4.4089355E0,0E0,2.8945435E1,2.1961807E1,4.9420013E0,1.850174E1,6.047241E0,4.218945E1,2.8136566E1,4.129373E1,1.024556E1,1.4242407E1,1.8748642E1,2.0370476E1,6.6483545E0,1.3551294E1,1.3316315E1,2.002224E0,1.0657869E1,1.1234533E1,2.2872004E1,8.922241E0,1.9295227E1,9.771226E0,1.0592529E1,8.925659E0,1.9557495E0,7.062483E-1,0E0,3.386448E-1,0E0,1.9842529E0,0E0,0E0,0E0,0E0,0E0,0E0,0E0,0E0,0E0,0E0,0E0,0E0,0E0,0E0,0E0,0E0,0E0,0E0,0E0,0E0,0E0,0E0,0E0,0E0,0E0,0E0,0E0,0E0,0E0,0E0,0E0,0E0,0E0,0E0,0E0,0E0,0E0,0E0,0E0,0E0,0E0,0E0,0E0,0E0,0E0,0E0,0E0,0E0,0E0,0E0,0E0,0E0,0E0,0E0,0E0,0E0],"parents":[2147483647,0,0,1,1,2,2,3,3,4,4,5,5,6,6,7,7,8,8,9,9,10,10,11,11,12,12,13,13,14,14,15,15,16,16,17,17,18,18,19,19,20,20,21,21,22,22,23,23,24,24,25,25,26,26,27,27,28,28,29,29,31,31,32,32,33,33,34,34,35,35,36,36,37,37,38,38,39,39,40,40,41,41,42,42,43,43,44,44,45,45,46,46,47,47,48,48,49,49,50,50,51,51,52,52,53,53,54,54,55,55,56,56,58,58,60,60],"right_children":[2,4,6,8,10,12,14,16,18,20,22,24,26,28,30,32,34,36,38,40,42,44,46,48,50,52,54,56,58,60,-1,62,64,66,68,70,72,74,76,78,80,82,84,86,88,90,92,94,96,98,100,102,104,106,108,110,112,-1,114,-1,116,-1,-1,-1,-1,-1,-1,-1,-1,-1,-1,-1,-1,-1,-1,-1,-1,-1,-1,-1,-1,-1,-1,-1,-1,-1,-1,-1,-1,-1,-1,-1,-1,-1,-1,-1,-1,-1,-1,-1,-1,-1,-1,-1,-1,-1,-1,-1,-1,-1,-1,-1,-1,-1,-1,-1,-1],"split_conditions":[5.4328703E4,1.5971021E4,4.12013E5,5.95E1,2.64E4,1.1467217E1,4.57E5,4.943048E3,2.02E2,1.3072827E4,1.0530195E1,4.43E1,5.91804E3,2.75E4,1.27E2,1E0,1E0,1.002399E4,1E0,1E0,1E0,2.76E1,3.5019144E5,1E0,3E4,1.3901E2,1.9200069E5,6E0,1.9931554E0,8.94E3,1.9325082E-1,1.9E1,1.1373E2,5.459859E-2,1.054E4,1.26E3,1.967E3,3E0,1.83E2,6.151E1,1E0,4.374E3,4.1E1,1.3500378E4,4.5174537E0,8.94E-1,7.3333335E-1,1.0885E2,2E1,4.455E3,1.638E5,6E1,6.25E4,1.4691E2,3.187E-1,2.55325E4,6.2E1,3.8905226E-2,3E0,7.210423E-2,1.9154545E1,-8.494162E-2,-6.2310755E-2,-1.6177973E-2,-5.923588E-2,-2.6758311E-2,-6.73048E-2,-4.5922395E-2,-2.6225498E-2,1.1318876E-2,-4.727645E-2,1.1552859E-2,-2.3915842E-2,-1.24219716E-1,-6.811741E-2,-4.9281936E-2,3.539407E-2,-5.5830777E-2,-3.2068353E-2,1.3404836E-2,-2.4286805E-2,-2.4738256E-2,-3.429218E-3,-1.0622631E-2,1.2213316E-2,-4.7836315E-2,-5.506116E-3,-9.653141E-3,1.4033603E-2,3.6059014E-2,-6.7552957E-3,3.751528E-2,1.536294E-1,-6.585049E-2,3.092085E-3,3.0516027E-2,-2.4230963E-2,-8.523663E-3,4.1985516E-2,5.3349853E-2,1.03543855E-1,6.1560374E-2,9.0496026E-2,-1.4482905E-2,5.3976115E-2,9.3774095E-2,5.250455E-2,1.3127997E-2,1.118428E-1,2.8549422E-2,1.3549954E-1,1.921865E-2,7.6460436E-2,-1.8356558E-2,4.784643E-3,1.3403432E-1,1.7208664E-1],"split_indices":[46,43,43,12,45,47,45,46,60,46,47,12,14,6,12,22,21,46,21,27,27,12,43,27,45,55,46,41,9,33,0,17,55,42,45,6,15,40,13,54,19,14,12,46,9,56,2,54,59,14,44,16,45,55,56,34,0,0,0,0,37,0,0,0,0,0,0,0,0,0,0,0,0,0,0,0,0,0,0,0,0,0,0,0,0,0,0,0,0,0,0,0,0,0,0,0,0,0,0,0,0,0,0,0,0,0,0,0,0,0,0,0,0,0,0,0,0],"split_type":[0,0,0,0,0,0,0,0,0,0,0,0,0,0,0,0,0,0,0,0,0,0,0,0,0,0,0,0,0,0,0,0,0,0,0,0,0,0,0,0,0,0,0,0,0,0,0,0,0,0,0,0,0,0,0,0,0,0,0,0,0,0,0,0,0,0,0,0,0,0,0,0,0,0,0,0,0,0,0,0,0,0,0,0,0,0,0,0,0,0,0,0,0,0,0,0,0,0,0,0,0,0,0,0,0,0,0,0,0,0,0,0,0,0,0,0,0],"sum_hessian":[5.82E3,4.3753657E3,1.4446342E3,2.4843943E3,1.8909716E3,1.1897374E3,2.5489667E2,1.4536515E3,1.0307429E3,1.2606183E3,6.303533E2,3.9800418E2,7.917333E2,7.632159E1,1.7857507E2,8.089423E2,6.447091E2,6.7497864E2,3.5576422E2,3.9861105E2,8.620072E2,3.31622E2,2.9873126E2,6.681536E1,3.3118884E2,2.7677002E2,5.1496326E2,7.036273E1,5.9588614E0,1.0264812E2,7.592696E1,6.8903406E2,1.1990827E2,1.09656715E2,5.350524E2,1.5887842E2,5.161002E2,1.1017057E2,2.4559366E2,2.2428464E2,1.7432642E2,4.2230334E2,4.3970386E2,3.744973E1,2.941723E2,2.936957E2,5.035553E0,2.2290548E1,4.452481E1,1.0062793E2,2.305609E2,2.563058E2,2.0464231E1,2.6929462E2,2.4566864E2,6.3561977E1,6.8007517E0,1.0575725E0,4.901289E0,3.6858215E0,9.8962296E1,4.6130215E2,2.277319E2,5.74261E1,6.248217E1,1.0070891E1,9.958582E1,3.448448E2,1.9020763E2,4.1734695E0,1.5470494E2,1.0457594E2,4.1152426E2,3.58681E1,7.430247E1,2.3093512E2,1.4658539E1,6.840537E1,1.5587927E2,2.9594414E1,1.4473201E2,2.4246155E2,1.7984178E2,1.4487465E2,2.9482922E2,1.5394844E1,2.2054888E1,8.369839E1,2.1047389E2,2.745623E2,1.9133406E1,1.2705693E0,3.764984E0,1.3149517E1,9.141031E0,3.2341892E1,1.2182921E1,3.279839E1,6.782954E1,2.2099367E2,9.56724E0,1.346842E2,1.2162159E2,1.3143717E1,7.3205156E0,2.4811751E2,2.1177122E1,2.598174E0,2.4307047E2,1.0418904E0,6.2520084E1,1.4954888E0,5.305263E0,2.7444682E0,2.1568205E0,2.9769602E1,6.9192696E1],"tree_param":{"num_deleted":"0","num_feature":"66","num_nodes":"117","size_leaf_vector":"1"}},{"base_weights":[3.054625E-4,-5.535967E-1,1.6771322E0,-9.150529E-1,-1.4543279E-2,1.1601126E0,2.431224E0,-1.1574632E0,-6.9786435E-1,-2.2505507E-1,3.7086645E-1,5.133109E-1,1.5031369E0,1.9689285E0,3.1175036E0,-1.4639611E0,-9.0972024E-1,-4.8982814E-1,-1.14917E0,-4.342331E-1,-6.986632E-3,8.821404E-2,6.737937E-1,9.82555E-2,9.1169304E-1,9.760664E-1,1.6520454E0,2.081239E0,1.3628657E0,3.0276847E-1,3.16295E0,-1.6111058E0,-7.405647E-1,-1.1838965E0,-8.086858E-1,-8.8263166E-1,-3.510206E-1,-1.6972446E0,-9.262346E-1,-7.780824E-1,-2.8642803E-1,-1.6171287E-1,3.4399253E-1,-1.029193E-1,2.490969E-1,6.267229E-1,1.2038758E-1,-4.442614E-1,3.776017E-1,2.1886455E-1,1.0372332E0,7.903892E-1,1.2088412E0,1.3642024E0,1.748634E0,9.56383E-1,2.1163695E0,4.4508734E-1,1.6007118E0,-1.6427071E-1,4.3079156E-2,2.9243584E0,3.6732984E0,-8.477485E-2,-4.6953924E-2,1.4677678E-2,-4.5818873E-2,-1.4788057E-2,-6.1159283E-2,-5.7696432E-2,-3.6499064E-2,-5.69559E-2,-3.584733E-2,1.0798661E-3,-2.3211548E-2,-1.1955201E-1,-6.652633E-2,-5.0949156E-2,3.204679E-2,-6.1921384E-2,-2.8505191E-2,-2.8000971E-2,-8.995003E-3,3.0571306E-2,-1.0576292E-2,1.4755184E-2,1.2727879E-1,-7.9669984E-4,-3.2966577E-2,-2.9100373E-2,1.5418649E-2,3.4208756E-2,-1.2269264E-2,-4.7127616E-2,1.4720625E-2,3.8272362E-2,-4.6837484E-3,2.3756808E-2,-3.4085643E-2,6.2467035E-2,3.9334506E-2,1.4610091E-2,4.3670394E-2,6.779775E-2,3.0310532E-2,1.0794355E-1,6.277928E-2,9.045689E-2,6.5556556E-2,8.4963135E-2,1.7632404E-2,9.792918E-2,1.2001804E-1,-3.0329013E-2,4.609447E-2,8.769914E-2,3.108109E-2,-1.48373125E-2,3.488152E-3,1.0524595E-1,1.5166809E-1,4.0259544E-2,1.8523327E-1],"categories":[],"categories_nodes":[],"categories_segments":[],"categories_sizes":[],"default_left":[1,1,0,0,1,1,1,1,0,0,0,0,0,0,0,0,0,0,0,0,0,0,0,0,0,0,0,0,0,0,1,1,0,0,0,0,0,0,1,1,0,0,1,0,0,1,0,1,0,0,0,0,0,0,1,0,0,0,0,0,0,0,0,0,0,0,0,0,0,0,0,0,0,0,0,0,0,0,0,0,0,0,0,0,0,0,0,0,0,0,0,0,0,0,0,0,0,0,0,0,0,0,0,0,0,0,0,0,0,0,0,0,0,0,0,0,0,0,0,0,0,0,0],"id":2,"left_children":[1,3,5,7,9,11,13,15,17,19,21,23,25,27,29,31,33,35,37,39,41,43,45,47,49,51,53,55,57,59,61,63,65,67,69,71,73,75,77,79,81,83,85,87,89,91,-1,93,95,97,99,101,103,105,107,109,111,113,115,117,-1,119,121,-1,-1,-1,-1,-1,-1,-1,-1,-1,-1,-1,-1,-1,-1,-1,-1,-1,-1,-1,-1,-1,-1,-1,-1,-1,-1,-1,-1,-1,-1,-1,-1,-1,-1,-1,-1,-1,-1,-1,-1,-1,-1,-1,-1,-1,-1,-1,-1,-1,-1,-1,-1,-1,-1,-1,-1,-1,-1,-1,-1],"loss_changes":[5.4074614E3,8.5269617E2,5.6080396E2,1.3711694E2,1.426873E2,1.899336E2,1.8012549E2,9.2555786E1,1.2940228E2,5.187844E1,5.3136E1,4.941517E1,4.242932E1,2.1225708E1,2.9050781E1,5.7462646E1,1.8057007E1,5.144655E1,5.1703125E1,2.9279907E1,3.0351137E1,9.943868E0,2.2954712E1,2.2559067E1,1.3049622E1,4.4928436E0,9.738892E0,9.686279E0,1.1984215E1,1.4029672E0,1.7355713E1,2.4328857E1,1.753973E1,6.0125732E0,1.2872345E1,9.688019E0,2.9667458E1,2.8589691E1,4.6024567E1,1.5946678E1,1.1777969E1,1.5066867E1,1.7654688E1,7.158476E0,8.821615E0,1.4856606E1,0E0,1.8930885E1,1.7997252E1,6.020661E0,5.8703613E0,2.76445E0,3.9694443E0,7.139282E0,6.177307E0,4.2442465E0,8.13855E0,7.2565384E0,5.7838974E0,1.2836915E-1,0E0,8.098267E0,3.2791138E0,0E0,0E0,0E0,0E0,0E0,0E0,0E0,0E0,0E0,0E0,0E0,0E0,0E0,0E0,0E0,0E0,0E0,0E0,0E0,0E0,0E0,0E0,0E0,0E0,0E0,0E0,0E0,0E0,0E0,0E0,0E0,0E0,0E0,0E0,0E0,0E0,0E0,0E0,0E0,0E0,0E0,0E0,0E0,0E0,0E0,0E0,0E0,0E0,0E0,0E0,0E0,0E0,0E0,0E0,0E0,0E0,0E0,0E0,0E0,0E0],"parents":[2147483647,0,0,1,1,2,2,3,3,4,4,5,5,6,6,7,7,8,8,9,9,10,10,11,11,12,12,13,13,14,14,15,15,16,16,17,17,18,18,19,19,20,20,21,21,22,22,23,23,24,24,25,25,26,26,27,27,28,28,29,29,30,30,31,31,32,32,33,33,34,34,35,35,36,36,37,37,38,38,39,39,40,40,41,41,42,42,43,43,44,44,45,45,47,47,48,48,49,49,50,50,51,51,52,52,53,53,54,54,55,55,56,56,57,57,58,58,59,59,61,61,62,62],"right_children":[2,4,6,8,10,12,14,16,18,20,22,24,26,28,30,32,34,36,38,40,42,44,46,48,50,52,54,56,58,60,62,64,66,68,70,72,74,76,78,80,82,84,86,88,90,92,-1,94,96,98,100,102,104,106,108,110,112,114,116,118,-1,120,122,-1,-1,-1,-1,-1,-1,-1,-1,-1,-1,-1,-1,-1,-1,-1,-1,-1,-1,-1,-1,-1,-1,-1,-1,-1,-1,-1,-1,-1,-1,-1,-1,-1,-1,-1,-1,-1,-1,-1,-1,-1,-1,-1,-1,-1,-1,-1,-1,-1,-1,-1,-1,-1,-1,-1,-1,-1,-1,-1,-1],"split_conditions":[5.4328703E4,9.7658415E0,1.9200069E5,2.16398E3,2.64E4,6.25E4,1.2934519E1,3.3611826E3,2.02E2,1E0,1.0530195E1,7.54E1,1.1414389E1,7E0,4.32E1,1E0,7.2E3,1.002399E4,1E0,3.8E1,4.20336E3,1E0,2.88288E5,1E0,2.8691266E4,5.80644E3,9.750885E4,7.212E4,6.568331E4,6E0,1.1288375E6,2.24244E4,2.018E3,5.7428118E-2,1E0,2.8E1,1.967E3,3E0,1.83E2,4.262E-1,1.3960991E4,4.23E-1,8.872218E0,1.38E2,5.7759897E3,8.94E-1,1.2038758E-1,4.3E1,1.966E3,1E0,4.55255E3,5.251198E0,1.9241818E0,3.5E1,1.0761E2,2.016E4,1.014049E4,4.55E1,3.5019144E5,3E0,4.3079156E-2,6.63E1,1.212288E4,-8.477485E-2,-4.6953924E-2,1.4677678E-2,-4.5818873E-2,-1.4788057E-2,-6.1159283E-2,-5.7696432E-2,-3.6499064E-2,-5.69559E-2,-3.584733E-2,1.0798661E-3,-2.3211548E-2,-1.1955201E-1,-6.652633E-2,-5.0949156E-2,3.204679E-2,-6.1921384E-2,-2.8505191E-2,-2.8000971E-2,-8.995003E-3,3.0571306E-2,-1.0576292E-2,1.4755184E-2,1.2727879E-1,-7.9669984E-4,-3.2966577E-2,-2.9100373E-2,1.5418649E-2,3.4208756E-2,-1.2269264E-2,-4.7127616E-2,1.4720625E-2,3.8272362E-2,-4.6837484E-3,2.3756808E-2,-3.4085643E-2,6.2467035E-2,3.9334506E-2,1.4610091E-2,4.3670394E-2,6.779775E-2,3.0310532E-2,1.0794355E-1,6.277928E-2,9.045689E-2,6.5556556E-2,8.4963135E-2,1.7632404E-2,9.792918E-2,1.2001804E-1,-3.0329013E-2,4.609447E-2,8.769914E-2,3.108109E-2,-1.48373125E-2,3.488152E-3,1.0524595E-1,1.5166809E-1,4.0259544E-2,1.8523327E-1],"split_indices":[46,47,46,14,45,45,47,46,60,27,47,12,47,59,12,22,45,46,21,12,14,27,45,27,43,14,46,45,3,0,45,32,30,42,21,16,15,40,13,57,46,57,11,60,7,56,0,17,15,28,6,9,39,17,55,33,14,12,43,0,0,12,4,0,0,0,0,0,0,0,0,0,0,0,0,0,0,0,0,0,0,0,0,0,0,0,0,0,0,0,0,0,0,0,0,0,0,0,0,0,0,0,0,0,0,0,0,0,0,0,0,0,0,0,0,0,0,0,0,0,0,0,0],"split_type":[0,0,0,0,0,0,0,0,0,0,0,0,0,0,0,0,0,0,0,0,0,0,0,0,0,0,0,0,0,0,0,0,0,0,0,0,0,0,0,0,0,0,0,0,0,0,0,0,0,0,0,0,0,0,0,0,0,0,0,0,0,0,0,0,0,0,0,0,0,0,0,0,0,0,0,0,0,0,0,0,0,0,0,0,0,0,0,0,0,0,0,0,0,0,0,0,0,0,0,0,0,0,0,0,0,0,0,0,0,0,0,0,0,0,0,0,0,0,0,0,0,0,0],"sum_hessian":[5.82E3,4.3753657E3,1.4446342E3,2.618717E3,1.7566489E3,8.5854083E2,5.860933E2,1.2354583E3,1.3832588E3,1.1363744E3,6.2027454E2,2.983925E2,5.601483E2,3.525055E2,2.3358786E2,5.500492E2,6.85409E2,9.48239E2,4.3501978E2,5.795044E2,5.5686993E2,3.2154327E2,2.9873126E2,1.4674866E2,1.5164383E2,1.2505693E2,4.350914E2,2.9534125E2,5.716423E1,3.8332975E0,2.2975456E2,4.560565E2,9.39927E1,1.816768E2,5.0373224E2,2.4619292E2,7.020461E2,1.2387261E2,3.1114716E2,1.729333E2,4.065711E2,3.868636E2,1.7000633E2,1.471204E2,1.7442288E2,2.9216156E2,6.56971E0,4.9678303E1,9.707036E1,2.3683458E1,1.27960365E2,7.201128E1,5.304565E1,1.1311675E2,3.2197464E2,9.799248E0,2.85542E2,1.2356283E1,4.480795E1,2.4727175E0,1.36058E0,1.6114716E2,6.8607414E1,4.0382266E2,5.2233833E1,1.356058E1,8.043211E1,8.057787E0,1.7361902E2,9.0980125E1,4.127521E2,9.431493E1,1.5187798E2,1.6378314E2,5.3826294E2,4.0925457E1,8.294715E1,2.9409195E2,1.705521E1,5.2274006E1,1.20659294E2,1.1274802E2,2.938231E2,2.2734264E1,3.6412933E2,1.6742256E2,2.5837808E0,1.2811977E2,1.9000645E1,1.10249195E1,1.6339796E2,2.7430646E2,1.7855103E1,2.9501396E1,2.0176907E1,5.2906124E1,4.416423E1,1.8804726E1,4.8787327E0,6.713663E1,6.082374E1,1.0931579E1,6.10797E1,4.163233E1,1.1413319E1,1.1332116E1,1.0178464E2,2.8010312E2,4.1871536E1,3.5798068E0,6.2194414E0,1.8863362E2,9.690838E1,3.7696025E0,8.586681E0,3.8058647E1,6.749302E0,1.4078411E0,1.0648764E0,2.1303974E1,1.3984319E2,1.0307196E0,6.757669E1],"tree_param":{"num_deleted":"0","num_feature":"66","num_nodes":"123","size_leaf_vector":"1"}},{"base_weights":[4.657055E-4,-5.2603644E-1,1.5943444E0,-8.9226735E-1,-4.4657964E-2,1.0900984E0,2.2932236E0,-1.5162795E0,-8.1589735E-1,-2.3691294E-1,3.3959132E-1,4.498757E-1,1.4003528E0,1.8596625E0,2.957996E0,-6.5000004E-1,-1.6683458E0,-9.507239E-1,-4.9469036E-1,-5.4874885E-1,-9.224439E-2,6.73451E-2,6.405792E-1,4.0337227E-2,8.138845E-1,9.254267E-1,1.5565925E0,1.9586858E0,1.2970357E0,2.2983274E0,3.1741478E0,-9.045125E-1,9.170554E-1,-2.7577748E0,-1.537516E0,-7.5443184E-1,-1.274608E0,-7.77065E-2,-6.279936E-1,-9.6228486E-1,-4.554534E-1,-1.9976376E-1,2.3542637E-1,-4.5270622E-1,1.3485986E-1,5.995652E-1,2.537022E0,-5.115108E-1,3.3255243E-1,1.5027545E-1,9.587259E-1,4.4837606E-1,9.9840343E-1,1.4773054E0,1.9285605E0,1.9757708E0,6.2808186E-2,4.24013E-1,1.5232694E0,2.517625E0,8.71386E-1,2.835275E0,3.4501781E0,1.3700845E-2,-5.0650198E-2,-1.3417016E-2,5.9427977E-2,-1.5372698E-1,-6.9810376E-2,-7.764491E-2,-1.7925026E-2,-5.392605E-2,-3.221568E-2,-1.6532074E-1,-6.185109E-2,-2.6316646E-2,6.3406364E-3,3.6833005E-3,-3.542616E-2,-6.675001E-2,-2.623724E-2,-1.43708205E-2,-3.225561E-2,-1.9502359E-2,-4.6463925E-4,7.960192E-3,5.1041897E-2,-4.5459833E-2,-5.4224827E-3,-8.879622E-3,1.2968193E-2,3.5106163E-2,8.2602715E-3,3.550851E-2,1.4375539E-1,-4.2699605E-2,1.1715835E-2,3.8058303E-2,-7.7047893E-3,2.3497975E-2,-3.9501037E-2,3.5375636E-2,5.9110433E-2,1.3073932E-3,3.183579E-2,4.5042194E-2,6.527018E-2,6.311857E-2,8.10247E-2,1.0901621E-2,9.892572E-2,9.2119984E-2,1.1058301E-1,-4.1665616E-3,8.817657E-3,5.322404E-2,-1.6403345E-2,8.3484195E-2,2.934049E-2,1.1129103E-1,1.5514855E-1,-7.966271E-3,6.2028587E-2,3.0025816E-2,1.4316408E-1,2.8799433E-2,1.7434764E-1],"categories":[],"categories_nodes":[],"categories_segments":[],"categories_sizes":[],"default_left":[1,1,0,0,1,1,0,0,1,0,0,0,0,0,1,0,0,0,0,0,1,0,0,0,0,0,1,0,0,0,0,0,0,1,1,0,0,0,0,0,0,0,1,1,0,0,0,1,0,0,1,0,0,0,0,0,0,0,0,0,0,0,0,0,0,0,0,0,0,0,0,0,0,0,0,0,0,0,0,0,0,0,0,0,0,0,0,0,0,0,0,0,0,0,0,0,0,0,0,0,0,0,0,0,0,0,0,0,0,0,0,0,0,0,0,0,0,0,0,0,0,0,0,0,0,0,0],"id":3,"left_children":[1,3,5,7,9,11,13,15,17,19,21,23,25,27,29,31,33,35,37,39,41,43,45,47,49,51,53,55,57,59,61,63,65,67,69,71,73,75,77,79,81,83,85,87,89,91,93,95,97,99,101,103,105,107,109,111,113,115,117,119,121,123,125,-1,-1,-1,-1,-1,-1,-1,-1,-1,-1,-1,-1,-1,-1,-1,-1,-1,-1,-1,-1,-1,-1,-1,-1,-1,-1,-1,-1,-1,-1,-1,-1,-1,-1,-1,-1,-1,-1,-1,-1,-1,-1,-1,-1,-1,-1,-1,-1,-1,-1,-1,-1,-1,-1,-1,-1,-1,-1,-1,-1,-1,-1,-1,-1],"loss_changes":[4.8857085E3,7.714946E2,5.069519E2,1.1720618E2,1.3984764E2,1.6654974E2,1.6886572E2,3.4462646E1,9.552246E1,5.6864586E1,5.1691734E1,4.114278E1,4.0591187E1,1.8009766E1,2.651538E1,1.7553919E1,2.8386475E1,9.822571E1,3.649347E1,1.4979118E1,3.0451593E1,1.1739791E1,2.1792229E1,2.1299265E1,1.3906425E1,4.5197372E0,9.678223E0,9.972046E0,1.0841957E1,1.7252869E1,6.6782227E0,4.9544144E0,2.3644018E0,5.749008E0,3.1906433E0,3.4060425E1,4.0759155E1,1.4783333E1,2.8192215E1,1.1148735E1,1.02662735E1,2.356663E1,1.2629431E1,5.943768E0,1.1528726E1,1.3011841E1,1.6859322E0,1.1887531E1,1.8112095E1,8.600228E0,5.8895874E0,1.633162E0,2.5061646E0,8.861633E0,5.6660156E0,5.6429443E0,7.802689E-2,6.782715E0,5.3010025E0,2.2037048E0,3.9297328E0,3.5758057E0,7.7546387E0,0E0,0E0,0E0,0E0,0E0,0E0,0E0,0E0,0E0,0E0,0E0,0E0,0E0,0E0,0E0,0E0,0E0,0E0,0E0,0E0,0E0,0E0,0E0,0E0,0E0,0E0,0E0,0E0,0E0,0E0,0E0,0E0,0E0,0E0,0E0,0E0,0E0,0E0,0E0,0E0,0E0,0E0,0E0,0E0,0E0,0E0,0E0,0E0,0E0,0E0,0E0,0E0,0E0,0E0,0E0,0E0,0E0,0E0,0E0,0E0,0E0,0E0,0E0,0E0],"parents":[2147483647,0,0,1,1,2,2,3,3,4,4,5,5,6,6,7,7,8,8,9,9,10,10,11,11,12,12,13,13,14,14,15,15,16,16,17,17,18,18,19,19,20,20,21,21,22,22,23,23,24,24,25,25,26,26,27,27,28,28,29,29,30,30,31,31,32,32,33,33,34,34,35,35,36,36,37,37,38,38,39,39,40,40,41,41,42,42,43,43,44,44,45,45,46,46,47,47,48,48,49,49,50,50,51,51,52,52,53,53,54,54,55,55,56,56,57,57,58,58,59,59,60,60,61,61,62,62],"right_children":[2,4,6,8,10,12,14,16,18,20,22,24,26,28,30,32,34,36,38,40,42,44,46,48,50,52,54,56,58,60,62,64,66,68,70,72,74,76,78,80,82,84,86,88,90,92,94,96,98,100,102,104,106,108,110,112,114,116,118,120,122,124,126,-1,-1,-1,-1,-1,-1,-1,-1,-1,-1,-1,-1,-1,-1,-1,-1,-1,-1,-1,-1,-1,-1,-1,-1,-1,-1,-1,-1,-1,-1,-1,-1,-1,-1,-1,-1,-1,-1,-1,-1,-1,-1,-1,-1,-1,-1,-1,-1,-1,-1,-1,-1,-1,-1,-1,-1,-1,-1,-1,-1,-1,-1,-1,-1],"split_conditions":[5.4328703E4,1.5971021E4,1.8827055E5,3.3611826E3,2.64E4,5.76E4,4.12013E5,1.3E1,4.455E3,1.3072827E4,1.0530195E1,4.455E3,1.1414389E1,7E0,4.57E5,3.5825098E-1,1.11125E3,1.97E2,1.97E3,1E0,7.54E1,2.76E1,3.5019144E5,1E0,2.8691266E4,4.76E1,1.2356582E1,1.97E2,6.568331E4,2.88E3,9.460831E5,6.779349E-2,5.9411365E-1,9.9E1,7.7876754E0,6.393235E3,3.09E3,7.0156074E3,2.017E3,4.35E1,2E0,1E0,6.851809E4,1.3500378E4,4.5174537E0,1.8509923E-1,7.3333335E-1,4.3E1,1.966E3,1E0,3.9E1,7.931E-1,8.3615243E-1,5.91804E3,3.507187E0,1.014049E4,6E0,3E3,4.57E5,1E0,3.1E1,7.5294914E4,4.92E1,1.3700845E-2,-5.0650198E-2,-1.3417016E-2,5.9427977E-2,-1.5372698E-1,-6.9810376E-2,-7.764491E-2,-1.7925026E-2,-5.392605E-2,-3.221568E-2,-1.6532074E-1,-6.185109E-2,-2.6316646E-2,6.3406364E-3,3.6833005E-3,-3.542616E-2,-6.675001E-2,-2.623724E-2,-1.43708205E-2,-3.225561E-2,-1.9502359E-2,-4.6463925E-4,7.960192E-3,5.1041897E-2,-4.5459833E-2,-5.4224827E-3,-8.879622E-3,1.2968193E-2,3.5106163E-2,8.2602715E-3,3.550851E-2,1.4375539E-1,-4.2699605E-2,1.1715835E-2,3.8058303E-2,-7.7047893E-3,2.3497975E-2,-3.9501037E-2,3.5375636E-2,5.9110433E-2,1.3073932E-3,3.183579E-2,4.5042194E-2,6.527018E-2,6.311857E-2,8.10247E-2,1.0901621E-2,9.892572E-2,9.2119984E-2,1.1058301E-1,-4.1665616E-3,8.817657E-3,5.322404E-2,-1.6403345E-2,8.3484195E-2,2.934049E-2,1.1129103E-1,1.5514855E-1,-7.966271E-3,6.2028587E-2,3.0025816E-2,1.4316408E-1,2.8799433E-2,1.7434764E-1],"split_indices":[46,43,46,46,45,45,43,60,14,46,47,14,47,59,45,36,44,60,15,21,12,12,43,27,43,13,47,60,3,6,46,42,9,10,11,46,3,7,30,13,63,27,32,46,9,36,2,17,15,28,16,57,53,14,9,14,0,6,44,23,12,3,13,0,0,0,0,0,0,0,0,0,0,0,0,0,0,0,0,0,0,0,0,0,0,0,0,0,0,0,0,0,0,0,0,0,0,0,0,0,0,0,0,0,0,0,0,0,0,0,0,0,0,0,0,0,0,0,0,0,0,0,0,0,0,0,0],"split_type":[0,0,0,0,0,0,0,0,0,0,0,0,0,0,0,0,0,0,0,0,0,0,0,0,0,0,0,0,0,0,0,0,0,0,0,0,0,0,0,0,0,0,0,0,0,0,0,0,0,0,0,0,0,0,0,0,0,0,0,0,0,0,0,0,0,0,0,0,0,0,0,0,0,0,0,0,0,0,0,0,0,0,0,0,0,0,0,0,0,0,0,0,0,0,0,0,0,0,0,0,0,0,0,0,0,0,0,0,0,0,0,0,0,0,0,0,0,0,0,0,0,0,0,0,0,0,0],"sum_hessian":[5.82E3,4.3753657E3,1.4446342E3,2.4843943E3,1.8909716E3,8.406555E2,6.0397864E2,2.6884372E2,2.2155505E3,1.2606183E3,6.303533E2,2.7520624E2,5.654493E2,3.678597E2,2.3611891E2,4.093319E1,2.2791052E2,1.5591416E3,6.56409E2,3.9861105E2,8.620072E2,3.31622E2,2.9873126E2,1.3002675E2,1.4517949E2,1.4168582E2,4.237635E2,3.106955E2,5.716423E1,6.1145004E1,1.7497389E2,3.557766E1,5.3555317E0,2.2282598E1,2.0562793E2,9.7286176E2,5.862798E2,1.5939398E2,4.9701505E2,7.166015E1,3.2695093E2,6.4933105E2,2.1267615E2,3.744973E1,2.941723E2,2.936957E2,5.035553E0,4.475553E1,8.527122E1,2.6375296E1,1.1880419E2,1.974651E1,1.21939316E2,3.5340485E2,7.035864E1,3.0787885E2,2.816649E0,1.2356283E1,4.480795E1,5.2337273E1,8.807734E0,8.360569E1,9.13682E1,2.870462E0,3.2707195E1,1.0002148E0,4.355317E0,1.705639E1,5.226208E0,2.026667E2,2.9612246E0,2.4449474E2,7.28367E2,9.068958E0,5.772109E2,4.941826E1,1.0997572E2,5.1178516E1,4.4583652E2,3.7589043E1,3.4071106E1,1.7469087E2,1.5226004E2,3.243013E2,3.2502975E2,1.9495854E2,1.7717615E1,1.5394844E1,2.2054888E1,8.369839E1,2.1047389E2,2.3709743E2,5.659828E1,1.2705693E0,3.764984E0,3.0571966E1,1.4183566E1,4.5039097E1,4.0232117E1,2.0056606E1,6.3186893E0,5.7893234E1,6.0910957E1,6.4424276E0,1.3304082E1,9.5519226E1,2.6420086E1,1.4522707E2,2.0817776E2,2.1486573E0,6.820999E1,2.0230612E2,1.05572716E2,1.3479055E0,1.4687433E0,6.4489794E0,5.907304E0,3.8072395E1,6.7355533E0,3.8130936E1,1.4206337E1,2.4727175E0,6.3350163E0,1.3125671E0,8.229313E1,1.3647691E0,9.000343E1],"tree_param":{"num_deleted":"0","num_feature":"66","num_nodes":"127","size_leaf_vector":"1"}},{"base_weights":[6.021587E-4,-4.998715E-1,1.5156847E0,-8.267007E-1,-1.245906E-2,9.2917496E-1,2.059393E0,-1.0499945E0,-6.2665135E-1,-2.0248277E-1,3.3543953E-1,1.1825155E0,4.8068124E-1,1.7479929E0,2.88081E0,-1.3557738E0,-8.3747286E-1,-4.394465E-1,-1.0591391E0,-3.941113E-1,-2.716316E-3,1.0793874E-1,6.4344704E-1,9.927393E-1,1.5605631E0,-1.690737E-1,7.307839E-1,1.3010232E0,1.9007885E0,2.27262E0,3.1444612E0,-1.486116E0,-8.156493E-1,-1.0212694E0,-5.943036E-1,-7.9436404E-1,-3.079166E-1,-1.2081667E0,-2.9277235E-1,-7.1160954E-1,-2.5765017E-1,-1.4653589E-1,3.2350022E-1,-7.966566E-2,2.6704717E-1,5.832093E-1,1.9512188E0,4.7716472E-1,1.1079684E0,1.6822641E0,9.174611E-1,2.3854762E-1,-9.148159E-1,8.861451E-1,-9.1117434E-2,1.4621038E0,4.0161496E-1,5.791025E-1,1.9212129E0,2.5459855E0,1.7218263E0,2.1028439E-2,1.5810254E-1,-8.3204925E-2,-5.7493318E-2,8.257515E-3,-4.856355E-2,-5.91391E-2,-3.6840722E-2,-3.607082E-2,-1.30105615E-2,4.0198933E-2,-4.0497787E-2,-2.0192688E-2,5.055005E-3,-1.5717407E-1,-5.7396945E-2,-3.7924316E-2,2.0601784E-3,-5.695649E-2,-2.5927564E-2,-1.8938234E-2,-2.0412474E-3,-9.0216985E-3,4.429273E-2,1.3812122E-2,1.2270737E-1,-2.4736032E-2,2.5525063E-3,9.69941E-3,4.508134E-2,5.313095E-3,3.3565696E-2,4.674245E-2,1.3036884E-1,2.9931618E-2,-4.5022823E-2,4.4990223E-2,6.2491335E-2,4.498104E-2,9.045323E-2,2.4765484E-2,5.586506E-2,1.7385209E-2,-3.6607508E-2,2.7678523E-2,-5.9210636E-2,3.0991388E-2,6.261434E-2,-2.0867154E-2,3.0657912E-2,3.4743335E-2,8.051256E-2,3.4335956E-3,8.185114E-2,3.4067493E-2,2.9218995E-3,8.938922E-2,1.0787409E-1,6.305238E-2,1.3549656E-1,2.0923767E-2,8.843421E-2],"categories":[],"categories_nodes":[],"categories_segments":[],"categories_sizes":[],"default_left":[1,1,0,0,1,0,1,1,0,0,0,0,0,0,0,0,0,0,1,0,0,0,1,0,1,0,0,1,0,1,0,0,0,0,0,0,0,0,0,1,0,0,1,1,0,0,0,1,0,0,0,0,0,0,0,0,1,0,0,0,0,0,0,0,0,0,0,0,0,0,0,0,0,0,0,0,0,0,0,0,0,0,0,0,0,0,0,0,0,0,0,0,0,0,0,0,0,0,0,0,0,0,0,0,0,0,0,0,0,0,0,0,0,0,0,0,0,0,0,0,0,0,0],"id":4,"left_children":[1,3,5,7,9,11,13,15,17,19,21,23,25,27,29,31,33,35,37,39,41,43,45,47,49,51,53,55,57,59,61,63,65,67,69,71,73,75,77,79,81,83,85,87,89,91,93,95,97,99,101,103,105,107,109,111,113,115,117,119,121,-1,-1,-1,-1,-1,-1,-1,-1,-1,-1,-1,-1,-1,-1,-1,-1,-1,-1,-1,-1,-1,-1,-1,-1,-1,-1,-1,-1,-1,-1,-1,-1,-1,-1,-1,-1,-1,-1,-1,-1,-1,-1,-1,-1,-1,-1,-1,-1,-1,-1,-1,-1,-1,-1,-1,-1,-1,-1,-1,-1,-1,-1],"loss_changes":[4.414583E3,6.9714734E2,4.5908496E2,1.1636426E2,1.16264305E2,7.865613E1,1.8664478E2,7.9215576E1,1.11609436E2,4.353872E1,4.346447E1,3.036914E1,4.1298595E1,3.4810425E1,2.5637573E1,3.436676E1,3.2112488E1,4.4934143E1,4.732495E1,2.4967674E1,2.622061E1,1.0723466E1,1.9638382E1,1.7231567E1,9.957123E0,2.1872112E1,2.3466415E1,2.0021057E1,9.811279E0,5.4685364E0,5.378662E0,2.2378967E1,1.5494614E1,1.8220215E1,1.3297073E1,7.1566925E0,2.7812706E1,3.7092102E1,1.0807478E1,1.3765114E1,1.068763E1,1.3733534E1,1.6540623E1,8.993797E0,8.830089E0,1.0583092E1,5.022957E0,9.971025E0,6.0683594E0,1.0515411E1,1.6047592E0,5.218915E0,1.0696318E1,1.4252014E1,7.153516E0,1.2550537E1,9.341768E0,3.642378E-1,8.692383E0,5.354706E0,7.7401733E-1,0E0,0E0,0E0,0E0,0E0,0E0,0E0,0E0,0E0,0E0,0E0,0E0,0E0,0E0,0E0,0E0,0E0,0E0,0E0,0E0,0E0,0E0,0E0,0E0,0E0,0E0,0E0,0E0,0E0,0E0,0E0,0E0,0E0,0E0,0E0,0E0,0E0,0E0,0E0,0E0,0E0,0E0,0E0,0E0,0E0,0E0,0E0,0E0,0E0,0E0,0E0,0E0,0E0,0E0,0E0,0E0,0E0,0E0,0E0,0E0,0E0,0E0],"parents":[2147483647,0,0,1,1,2,2,3,3,4,4,5,5,6,6,7,7,8,8,9,9,10,10,11,11,12,12,13,13,14,14,15,15,16,16,17,17,18,18,19,19,20,20,21,21,22,22,23,23,24,24,25,25,26,26,27,27,28,28,29,29,30,30,31,31,32,32,33,33,34,34,35,35,36,36,37,37,38,38,39,39,40,40,41,41,42,42,43,43,44,44,45,45,46,46,47,47,48,48,49,49,50,50,51,51,52,52,53,53,54,54,55,55,56,56,57,57,58,58,59,59,60,60],"right_children":[2,4,6,8,10,12,14,16,18,20,22,24,26,28,30,32,34,36,38,40,42,44,46,48,50,52,54,56,58,60,62,64,66,68,70,72,74,76,78,80,82,84,86,88,90,92,94,96,98,100,102,104,106,108,110,112,114,116,118,120,122,-1,-1,-1,-1,-1,-1,-1,-1,-1,-1,-1,-1,-1,-1,-1,-1,-1,-1,-1,-1,-1,-1,-1,-1,-1,-1,-1,-1,-1,-1,-1,-1,-1,-1,-1,-1,-1,-1,-1,-1,-1,-1,-1,-1,-1,-1,-1,-1,-1,-1,-1,-1,-1,-1,-1,-1,-1,-1,-1,-1,-1,-1],"split_conditions":[5.4328703E4,9.7658415E0,1.1980432E1,2.16398E3,2.64E4,3E0,4.57E5,9.424366E3,2.05E2,1E0,4.0603668E4,1.235075E5,1E0,5.72723E3,6.1761475E5,1E0,1E0,1.002399E4,9.6E3,3.8E1,4.20336E3,1E0,1.5462508E0,3.8554E4,1.0714E2,1.8688E2,2.1E1,1.2336879E0,6.995752E4,7.775089E-1,4.55255E3,1E0,2.019E3,3E0,1.3225559E4,2.48E2,1E0,1.4975E3,6.39E-1,4.262E-1,2.6943637E4,2.0050344E0,8.872218E0,1.4798383E4,5.625E4,4.19E1,1E0,9.03E-1,1.1354961E1,5.97E1,-2.8619796E-2,4.9E1,1E0,1.03751875E5,6.1E1,9.107831E4,7.764E-1,-5.258374E-4,1.014049E4,3.108464E5,9.324311E0,2.1028439E-2,1.5810254E-1,-8.3204925E-2,-5.7493318E-2,8.257515E-3,-4.856355E-2,-5.91391E-2,-3.6840722E-2,-3.607082E-2,-1.30105615E-2,4.0198933E-2,-4.0497787E-2,-2.0192688E-2,5.055005E-3,-1.5717407E-1,-5.7396945E-2,-3.7924316E-2,2.0601784E-3,-5.695649E-2,-2.5927564E-2,-1.8938234E-2,-2.0412474E-3,-9.0216985E-3,4.429273E-2,1.3812122E-2,1.2270737E-1,-2.4736032E-2,2.5525063E-3,9.69941E-3,4.508134E-2,5.313095E-3,3.3565696E-2,4.674245E-2,1.3036884E-1,2.9931618E-2,-4.5022823E-2,4.4990223E-2,6.2491335E-2,4.498104E-2,9.045323E-2,2.4765484E-2,5.586506E-2,1.7385209E-2,-3.6607508E-2,2.7678523E-2,-5.9210636E-2,3.0991388E-2,6.261434E-2,-2.0867154E-2,3.0657912E-2,3.4743335E-2,8.051256E-2,3.4335956E-3,8.185114E-2,3.4067493E-2,2.9218995E-3,8.938922E-2,1.0787409E-1,6.305238E-2,1.3549656E-1,2.0923767E-2,8.843421E-2],"split_indices":[46,47,47,14,45,59,45,3,60,27,43,46,27,14,43,22,27,46,34,12,14,27,53,3,55,55,59,53,45,53,33,18,30,41,46,6,22,3,57,57,46,42,11,46,45,13,22,56,47,13,36,38,51,46,60,46,57,8,14,43,31,0,0,0,0,0,0,0,0,0,0,0,0,0,0,0,0,0,0,0,0,0,0,0,0,0,0,0,0,0,0,0,0,0,0,0,0,0,0,0,0,0,0,0,0,0,0,0,0,0,0,0,0,0,0,0,0,0,0,0,0,0,0],"split_type":[0,0,0,0,0,0,0,0,0,0,0,0,0,0,0,0,0,0,0,0,0,0,0,0,0,0,0,0,0,0,0,0,0,0,0,0,0,0,0,0,0,0,0,0,0,0,0,0,0,0,0,0,0,0,0,0,0,0,0,0,0,0,0,0,0,0,0,0,0,0,0,0,0,0,0,0,0,0,0,0,0,0,0,0,0,0,0,0,0,0,0,0,0,0,0,0,0,0,0,0,0,0,0,0,0,0,0,0,0,0,0,0,0,0,0,0,0,0,0,0,0,0,0],"sum_hessian":[5.82E3,4.3753657E3,1.4446342E3,2.618717E3,1.7566489E3,6.9626587E2,7.483683E2,1.2354583E3,1.3832588E3,1.1363744E3,6.2027454E2,4.4388947E2,2.5237637E2,5.449176E2,2.034507E2,5.043754E2,7.310828E2,9.667929E2,4.1646585E2,5.795044E2,5.5686993E2,3.575391E2,2.6273544E2,2.9794833E2,1.4594113E2,7.023448E1,1.8214189E2,1.4124672E2,4.036709E2,6.443405E1,1.3901665E2,4.049113E2,9.946413E1,4.1455017E2,3.1653265E2,2.6004727E2,7.0674567E2,3.4818195E2,6.828389E1,1.729333E2,4.065711E2,3.868636E2,1.7000633E2,1.643058E2,1.9323329E2,2.5254866E2,1.0186789E1,5.5365414E1,2.4258292E2,1.21359184E2,2.4581955E1,4.5851986E1,2.4382492E1,1.5311998E2,2.9021912E1,1.19261765E2,2.1984962E1,6.589796E0,3.970811E2,4.064103E1,2.3793018E1,1.0517722E0,1.3796487E2,2.62184E2,1.4272728E2,1.3612245E1,8.585188E1,2.624015E2,1.5214865E2,2.2845328E2,8.807938E1,2.023738E0,2.5802353E2,5.724799E2,1.3426573E2,8.96348E0,3.3921848E2,2.7986681E1,4.0297207E1,5.2274006E1,1.20659294E2,2.6038055E2,1.4619055E2,3.7536392E2,1.1499678E1,1.6742256E2,2.5837808E0,3.868539E1,1.2562041E2,1.7445413E2,1.8779161E1,3.9722126E1,2.1282654E2,4.9476905E0,5.2390976E0,5.1398926E1,3.9664876E0,1.0129087E2,1.4129205E2,1.8049301E1,1.0330988E2,9.015574E0,1.55663805E1,4.1793983E1,4.0580025E0,3.6163263E0,2.0766165E1,9.020279E1,6.2917187E1,2.0112888E1,8.909022E0,2.0222448E1,9.9039314E1,1.8149302E1,3.8356605E0,5.250161E0,1.3396348E0,2.5924426E2,1.3783684E2,5.5821695E0,3.505886E1,1.1703545E0,2.2622663E1],"tree_param":{"num_deleted":"0","num_feature":"66","num_nodes":"123","size_leaf_vector":"1"}},{"base_weights":[7.4517354E-4,-5.152426E-1,1.3294669E0,-8.125565E-1,-8.852517E-2,6.582083E-1,1.8256359E0,-1.3871429E0,-7.417922E-1,-3.1327918E-1,1.1937736E-1,3.3557674E-1,1.0200828E0,1.5645866E0,2.7434604E0,-5.8112115E-1,-1.528735E0,-8.622959E-1,-4.529674E-1,-5.892939E-1,-1.3045445E-1,-7.252072E-2,3.8478974E-1,-3.1937253E-2,6.677948E-1,8.6319333E-1,1.2350913E0,1.1485212E0,1.7393333E0,2.1893902E0,2.988517E0,-8.204868E-1,8.8792264E-1,-2.5588975E0,-1.405259E0,-6.856331E-1,-1.152761E0,-5.1042937E-2,-5.8194757E-1,-7.125301E-1,-9.000522E-2,-2.078729E-1,2.588984E-1,-1.481255E0,-4.320804E-2,1.394402E0,2.9968277E-1,-2.679365E-1,4.1002518E-1,5.892922E-1,1.5540379E0,8.10655E-1,1.8305324E0,7.6653486E-1,1.3479975E0,1.2474412E0,2.3856257E-1,1.5552502E0,1.9598647E0,6.6290766E-2,2.306883E0,2.048946E-2,3.0050855E0,-1.4407985E-2,-5.366391E-2,-1.1644064E-2,5.7037085E-2,-1.4580637E-1,-7.113113E-2,-6.472822E-2,-8.2095094E-2,-4.894559E-2,-2.9259657E-2,-1.5245073E-1,-5.5883016E-2,-2.3730272E-2,7.203026E-3,2.952532E-3,-3.2740727E-2,-2.0679744E-2,-4.377782E-2,1.1361395E-2,-1.8035036E-2,-2.9924614E-2,-6.447337E-3,6.462945E-3,4.1135035E-2,-9.1036595E-2,-1.6796906E-2,-4.7792117E-3,2.935009E-2,4.4465143E-2,1.401146E-1,1.6769747E-3,2.5079269E-2,-2.7153889E-2,1.1624064E-2,8.829558E-3,4.669202E-2,-4.8195213E-2,3.0884394E-2,1.12294964E-1,1.6388815E-2,4.910217E-3,4.2977836E-2,1.02406636E-1,1.9456208E-2,1.8034922E-2,4.442873E-2,7.2464995E-2,4.2984564E-2,3.948502E-2,7.115459E-2,-3.615858E-3,3.1619065E-2,5.942793E-2,8.318456E-2,9.274244E-2,1.2562509E-1,1.321773E-1,9.048018E-2,1.4093518E-1,1.7018841E-1],"categories":[],"categories_nodes":[],"categories_segments":[],"categories_sizes":[],"default_left":[1,1,0,0,0,1,1,0,1,1,0,0,0,0,0,0,0,0,0,0,1,0,1,1,0,0,0,1,0,0,0,0,0,1,0,0,0,0,0,0,0,0,0,0,1,0,1,0,0,0,0,0,0,0,0,1,1,0,0,0,1,0,0,0,0,0,0,0,0,0,0,0,0,0,0,0,0,0,0,0,0,0,0,0,0,0,0,0,0,0,0,0,0,0,0,0,0,0,0,0,0,0,0,0,0,0,0,0,0,0,0,0,0,0,0,0,0,0,0,0,0,0,0],"id":5,"left_children":[1,3,5,7,9,11,13,15,17,19,21,23,25,27,29,31,33,35,37,39,41,43,45,47,49,51,53,55,57,59,61,63,65,67,69,71,73,75,77,79,81,83,85,87,89,91,93,95,97,99,101,103,105,107,109,111,113,115,117,-1,119,-1,121,-1,-1,-1,-1,-1,-1,-1,-1,-1,-1,-1,-1,-1,-1,-1,-1,-1,-1,-1,-1,-1,-1,-1,-1,-1,-1,-1,-1,-1,-1,-1,-1,-1,-1,-1,-1,-1,-1,-1,-1,-1,-1,-1,-1,-1,-1,-1,-1,-1,-1,-1,-1,-1,-1,-1,-1,-1,-1,-1,-1],"loss_changes":[3.9915867E3,5.3195544E2,5.4117725E2,9.945801E1,8.055418E1,8.0647095E1,2.1992236E2,2.9907837E1,7.6267334E1,4.1720352E1,4.5655365E1,4.497884E1,9.946503E0,5.114319E1,2.1413208E1,1.5473855E1,2.5521606E1,7.8901855E1,3.369342E1,2.0225334E1,1.5111485E1,2.1440596E1,3.1896576E1,1.8443851E1,1.2542404E1,8.277267E0,6.129959E0,1.9426544E1,1.7768677E1,3.727295E0,4.7508545E0,4.612896E0,2.0665636E0,5.302109E0,3.2870789E0,2.7945831E1,3.5587463E1,1.3219141E1,2.3036728E1,1.2519531E1,5.785839E0,1.2786396E1,5.9820485E0,3.5039558E0,1.6929323E1,1.8104702E1,1.868907E1,1.5986714E1,7.365263E0,8.503761E0,1.2099976E1,6.324951E0,2.0570068E0,1.0965118E0,4.086212E0,1.4747925E1,2.8275423E0,9.328674E0,8.655823E0,0E0,4.845581E0,0E0,7.319336E-1,0E0,0E0,0E0,0E0,0E0,0E0,0E0,0E0,0E0,0E0,0E0,0E0,0E0,0E0,0E0,0E0,0E0,0E0,0E0,0E0,0E0,0E0,0E0,0E0,0E0,0E0,0E0,0E0,0E0,0E0,0E0,0E0,0E0,0E0,0E0,0E0,0E0,0E0,0E0,0E0,0E0,0E0,0E0,0E0,0E0,0E0,0E0,0E0,0E0,0E0,0E0,0E0,0E0,0E0,0E0,0E0,0E0,0E0,0E0,0E0],"parents":[2147483647,0,0,1,1,2,2,3,3,4,4,5,5,6,6,7,7,8,8,9,9,10,10,11,11,12,12,13,13,14,14,15,15,16,16,17,17,18,18,19,19,20,20,21,21,22,22,23,23,24,24,25,25,26,26,27,27,28,28,29,29,30,30,31,31,32,32,33,33,34,34,35,35,36,36,37,37,38,38,39,39,40,40,41,41,42,42,43,43,44,44,45,45,46,46,47,47,48,48,49,49,50,50,51,51,52,52,53,53,54,54,55,55,56,56,57,57,58,58,60,60,62,62],"right_children":[2,4,6,8,10,12,14,16,18,20,22,24,26,28,30,32,34,36,38,40,42,44,46,48,50,52,54,56,58,60,62,64,66,68,70,72,74,76,78,80,82,84,86,88,90,92,94,96,98,100,102,104,106,108,110,112,114,116,118,-1,120,-1,122,-1,-1,-1,-1,-1,-1,-1,-1,-1,-1,-1,-1,-1,-1,-1,-1,-1,-1,-1,-1,-1,-1,-1,-1,-1,-1,-1,-1,-1,-1,-1,-1,-1,-1,-1,-1,-1,-1,-1,-1,-1,-1,-1,-1,-1,-1,-1,-1,-1,-1,-1,-1,-1,-1,-1,-1,-1,-1,-1,-1],"split_conditions":[4.42595E4,1.5971021E4,1.1679414E1,3.3611826E3,1E0,5.625E4,4.57E5,1.3E1,4.455E3,1.166279E4,3.211793E4,4.455E3,1.1414389E1,5.80644E3,6.1761475E5,3.5825098E-1,1.11125E3,1.97E2,1.97E3,8.38E1,5.6897E4,2.1676016E3,3.1172607E3,1.8E4,1.8827055E5,1.638E5,1E0,1.5073E2,2.2101744E5,1.2617922E1,4.55255E3,8.847851E-2,5.9411365E-1,7.7E1,2.05E2,6.393235E3,3.09E3,7.0156074E3,2.017E3,1.5012E2,2.022E3,4.05E1,7.3936836E4,2.4E4,1.175E2,1.8456395E5,2E4,2.2173134E5,9.3E1,3.456E3,3E0,3.52E1,2.63E2,1E0,6.9E1,5.4E1,-5.541854E-2,6E4,2E0,6.6290766E-2,7.535931E-1,2.048946E-2,1.515E2,-1.4407985E-2,-5.366391E-2,-1.1644064E-2,5.7037085E-2,-1.4580637E-1,-7.113113E-2,-6.472822E-2,-8.2095094E-2,-4.894559E-2,-2.9259657E-2,-1.5245073E-1,-5.5883016E-2,-2.3730272E-2,7.203026E-3,2.952532E-3,-3.2740727E-2,-2.0679744E-2,-4.377782E-2,1.1361395E-2,-1.8035036E-2,-2.9924614E-2,-6.447337E-3,6.462945E-3,4.1135035E-2,-9.1036595E-2,-1.6796906E-2,-4.7792117E-3,2.935009E-2,4.4465143E-2,1.401146E-1,1.6769747E-3,2.5079269E-2,-2.7153889E-2,1.1624064E-2,8.829558E-3,4.669202E-2,-4.8195213E-2,3.0884394E-2,1.12294964E-1,1.6388815E-2,4.910217E-3,4.2977836E-2,1.02406636E-1,1.9456208E-2,1.8034922E-2,4.442873E-2,7.2464995E-2,4.2984564E-2,3.948502E-2,7.115459E-2,-3.615858E-3,3.1619065E-2,5.942793E-2,8.318456E-2,9.274244E-2,1.2562509E-1,1.321773E-1,9.048018E-2,1.4093518E-1,1.7018841E-1],"split_indices":[46,43,47,46,27,45,45,60,14,45,43,14,47,14,43,36,44,60,15,13,4,46,46,45,46,44,27,55,46,47,33,42,9,10,60,46,3,7,30,55,30,12,43,4,12,3,45,7,10,45,59,12,0,41,16,16,36,4,23,0,53,0,12,0,0,0,0,0,0,0,0,0,0,0,0,0,0,0,0,0,0,0,0,0,0,0,0,0,0,0,0,0,0,0,0,0,0,0,0,0,0,0,0,0,0,0,0,0,0,0,0,0,0,0,0,0,0,0,0,0,0,0,0],"split_type":[0,0,0,0,0,0,0,0,0,0,0,0,0,0,0,0,0,0,0,0,0,0,0,0,0,0,0,0,0,0,0,0,0,0,0,0,0,0,0,0,0,0,0,0,0,0,0,0,0,0,0,0,0,0,0,0,0,0,0,0,0,0,0,0,0,0,0,0,0,0,0,0,0,0,0,0,0,0,0,0,0,0,0,0,0,0,0,0,0,0,0,0,0,0,0,0,0,0,0,0,0,0,0,0,0,0,0,0,0,0,0,0,0,0,0,0,0,0,0,0,0,0,0],"sum_hessian":[5.82E3,4.192516E3,1.627484E3,2.4703816E3,1.7221344E3,6.926866E2,9.347974E2,2.6884372E2,2.2015378E3,8.27286E2,8.948483E2,3.6721814E2,3.254684E2,7.2990216E2,2.0489528E2,4.093319E1,2.2791052E2,1.5520181E3,6.495199E2,3.2874652E2,4.9853952E2,5.19771E2,3.7507733E2,1.7477658E2,1.9244157E2,1.9106499E2,1.3440344E2,2.1812546E2,5.117767E2,6.5878624E1,1.3901665E2,3.557766E1,5.3555317E0,2.2282598E1,2.0562793E2,9.67151E2,5.84867E2,1.581361E2,4.913838E2,2.633247E2,6.542181E1,4.162408E2,8.229871E1,9.585177E0,5.1018582E2,2.7963696E1,3.4711365E2,1.14193344E2,6.0583244E1,1.7831181E2,1.4129753E1,1.8296573E2,8.099248E0,2.7610418E1,1.06793015E2,1.9640387E2,2.172159E1,2.8332803E2,2.2844865E2,9.360795E0,5.651783E1,1.0517722E0,1.3796487E2,1.2144254E1,2.3433405E1,1.0002148E0,4.355317E0,1.5761117E1,6.5214825E0,1.4450386E2,6.112406E1,2.4449474E2,7.226563E2,9.068958E0,5.757981E2,4.941826E1,1.0871783E2,5.01768E1,4.4120697E2,9.417551E1,1.691492E2,3.0195597E1,3.5226208E1,6.885961E1,3.473812E2,6.791235E1,1.4386358E1,6.9387755E0,2.646402E0,4.7182147E2,3.8364338E1,2.1781096E1,6.182599E0,1.5023866E2,1.9687497E2,7.362653E1,4.056681E1,4.283244E1,1.7750805E1,2.6098819E0,1.7570193E2,8.501611E0,5.628142E0,1.1945112E1,1.7102063E2,6.6712136E0,1.4280344E0,7.2977443E0,2.0312675E1,8.681471E1,1.9978302E1,5.5990334E1,1.4041353E2,1.2595274E1,9.126316E0,6.739463E1,2.1593341E2,1.9563008E2,3.281858E1,3.1127926E1,2.5389904E1,9.951311E1,3.845177E1],"tree_param":{"num_deleted":"0","num_feature":"66","num_nodes":"123","size_leaf_vector":"1"}},{"base_weights":[8.7421783E-4,-4.8963574E-1,1.2639879E0,-8.25009E-1,-1.4671636E-1,7.499871E-1,1.8503426E0,-9.803103E-1,-5.506999E-1,-4.6135297E-1,3.0176109E-3,4.2380098E-1,1.0971528E0,1.5655121E0,2.6093016E0,-8.2412785E-1,-1.2274784E0,1.3562353E-2,-6.987615E-1,-6.394332E-1,-2.5225148E-1,-1.9598578E-1,1.8335347E-1,5.852465E-2,6.97656E-1,1.2316128E0,7.3221767E-1,1.1377641E0,1.7202196E0,2.2703376E0,2.9913855E0,-1.0806895E0,-6.2087494E-1,-7.942399E-1,-1.4627255E0,-6.056357E-1,1.6424672E-1,-4.5712113E-1,-1.091834E0,-7.510146E-1,-3.9094543E-1,-3.3770272E-1,6.090997E-1,8.188201E-2,-3.181463E-1,1.24033816E-1,9.6846026E-1,-3.3192492E-1,4.4091868E-1,6.1063695E-1,1.531171E0,1.0439582E0,1.3587443E0,9.034748E-1,-1.2019101E-1,1.3060908E0,3.0978426E-1,1.6369909E0,2.1025932E0,1.4717888E0,2.4329E0,2.2805603E-2,1.5119694E-1,-7.409656E-2,-5.026182E-2,-1.059011E-1,-2.9670194E-2,6.715774E-3,-4.4218697E-2,-5.1620632E-2,-7.943437E-2,-3.688074E-2,4.44146E-3,2.5507813E-2,-5.768608E-3,-3.2066353E-2,-1.3654276E-2,-1.4399575E-1,-5.086556E-2,-4.1932147E-2,-1.9709859E-2,-2.995205E-2,-6.649201E-3,-2.4294443E-2,9.777942E-4,-2.9947523E-2,4.9215052E-2,2.8720798E-4,3.3849917E-2,-1.8585458E-2,1.4799056E-2,-1.8913537E-4,1.73976E-2,3.97601E-2,9.3894325E-2,3.8384836E-2,-2.3815645E-2,7.664139E-3,3.3377327E-2,1.4749316E-2,3.6454584E-2,9.85828E-2,1.8978024E-2,3.843461E-2,5.9513655E-2,1.5613045E-2,6.9839135E-2,6.15243E-3,4.9615607E-2,-3.1330954E-2,2.3902362E-2,3.1346243E-2,7.335552E-2,1.968446E-3,7.627579E-2,2.4707383E-2,8.291213E-2,8.654393E-2,1.256498E-1,2.8529286E-2,7.7860236E-2,1.0665058E-1,1.3805598E-1],"categories":[],"categories_nodes":[],"categories_segments":[],"categories_sizes":[],"default_left":[1,1,0,0,0,0,1,0,0,0,0,0,0,0,0,0,0,0,0,1,1,0,1,1,0,0,1,1,1,1,0,0,0,0,0,0,1,0,0,0,1,0,0,1,1,0,1,0,0,0,0,0,0,0,0,0,1,0,0,0,0,0,0,0,0,0,0,0,0,0,0,0,0,0,0,0,0,0,0,0,0,0,0,0,0,0,0,0,0,0,0,0,0,0,0,0,0,0,0,0,0,0,0,0,0,0,0,0,0,0,0,0,0,0,0,0,0,0,0,0,0,0,0],"id":6,"left_children":[1,3,5,7,9,11,13,15,17,19,21,23,25,27,29,31,33,35,37,39,41,43,45,47,49,51,53,55,57,59,61,63,65,67,69,71,73,75,77,79,81,83,85,87,89,91,93,95,97,99,101,103,105,107,109,111,113,115,117,119,121,-1,-1,-1,-1,-1,-1,-1,-1,-1,-1,-1,-1,-1,-1,-1,-1,-1,-1,-1,-1,-1,-1,-1,-1,-1,-1,-1,-1,-1,-1,-1,-1,-1,-1,-1,-1,-1,-1,-1,-1,-1,-1,-1,-1,-1,-1,-1,-1,-1,-1,-1,-1,-1,-1,-1,-1,-1,-1,-1,-1,-1,-1],"loss_changes":[3.6071348E3,4.8215845E2,4.8941602E2,8.97677E1,9.774173E1,9.799365E1,1.6021216E2,5.119043E1,6.422267E1,2.4748886E1,5.0518135E1,4.4964546E1,1.973468E1,3.4778564E1,1.9874634E1,4.269934E1,5.199585E1,1.5097079E1,5.7331757E1,9.705475E0,2.2973886E1,2.2742098E1,3.4272057E1,2.9091845E1,1.7708466E1,5.878296E0,1.6998535E1,2.0557007E1,9.469971E0,1.1121094E1,6.349182E0,9.599609E0,1.7925781E1,1.566375E1,1.6617432E1,2.9685965E0,1.2639216E1,1.2665756E1,2.786203E1,7.4171143E0,6.0314007E0,1.4942009E1,1.34055195E1,9.2920475E0,1.5407677E1,1.968473E1,6.6574783E0,1.5686202E1,6.3102875E0,8.54937E0,1.1240803E1,4.2339478E0,6.6898193E0,6.565605E0,6.4312205E0,1.2715118E1,8.72466E0,7.3828125E0,6.1778564E0,7.8087234E-1,3.2216797E0,0E0,0E0,0E0,0E0,0E0,0E0,0E0,0E0,0E0,0E0,0E0,0E0,0E0,0E0,0E0,0E0,0E0,0E0,0E0,0E0,0E0,0E0,0E0,0E0,0E0,0E0,0E0,0E0,0E0,0E0,0E0,0E0,0E0,0E0,0E0,0E0,0E0,0E0,0E0,0E0,0E0,0E0,0E0,0E0,0E0,0E0,0E0,0E0,0E0,0E0,0E0,0E0,0E0,0E0,0E0,0E0,0E0,0E0,0E0,0E0,0E0,0E0],"parents":[2147483647,0,0,1,1,2,2,3,3,4,4,5,5,6,6,7,7,8,8,9,9,10,10,11,11,12,12,13,13,14,14,15,15,16,16,17,17,18,18,19,19,20,20,21,21,22,22,23,23,24,24,25,25,26,26,27,27,28,28,29,29,30,30,31,31,32,32,33,33,34,34,35,35,36,36,37,37,38,38,39,39,40,40,41,41,42,42,43,43,44,44,45,45,46,46,47,47,48,48,49,49,50,50,51,51,52,52,53,53,54,54,55,55,56,56,57,57,58,58,59,59,60,60],"right_children":[2,4,6,8,10,12,14,16,18,20,22,24,26,28,30,32,34,36,38,40,42,44,46,48,50,52,54,56,58,60,62,64,66,68,70,72,74,76,78,80,82,84,86,88,90,92,94,96,98,100,102,104,106,108,110,112,114,116,118,120,122,-1,-1,-1,-1,-1,-1,-1,-1,-1,-1,-1,-1,-1,-1,-1,-1,-1,-1,-1,-1,-1,-1,-1,-1,-1,-1,-1,-1,-1,-1,-1,-1,-1,-1,-1,-1,-1,-1,-1,-1,-1,-1,-1,-1,-1,-1,-1,-1,-1,-1,-1,-1,-1,-1,-1,-1,-1,-1,-1,-1,-1,-1],"split_conditions":[4.42595E4,1.2474915E4,1.1980432E1,4.455E3,1.3687297E4,7.7626164E4,4.57E5,1.97E2,1.97E3,1E0,1E0,4.455E3,3E0,5.72723E3,9.460831E5,6.393235E3,1.3791E2,7.56E3,2.05E2,1.2012E4,3.6E4,3E0,5.67E4,1.8E4,1.512E5,5.91804E3,1.3989E2,1.2336879E0,1.2867271E1,1.2867271E1,4.92E1,1.8010735E3,2.012E3,4.044E-1,1E0,2.2176E4,5.324E-1,1.0625E4,1.4975E3,1.0055478E1,5.472E4,5.59E1,1.02E5,1.7E1,4.29336E4,4.6863E3,9.2E1,4.9616396E-1,4.57E1,1.0422637E1,1.992704E4,2.02E3,4.3138594E4,5E0,4.017E3,9.107831E4,7.764E-1,6.995752E4,1.5712938E-1,7.65E1,1.5932124E-2,2.2805603E-2,1.5119694E-1,-7.409656E-2,-5.026182E-2,-1.059011E-1,-2.9670194E-2,6.715774E-3,-4.4218697E-2,-5.1620632E-2,-7.943437E-2,-3.688074E-2,4.44146E-3,2.5507813E-2,-5.768608E-3,-3.2066353E-2,-1.3654276E-2,-1.4399575E-1,-5.086556E-2,-4.1932147E-2,-1.9709859E-2,-2.995205E-2,-6.649201E-3,-2.4294443E-2,9.777942E-4,-2.9947523E-2,4.9215052E-2,2.8720798E-4,3.3849917E-2,-1.8585458E-2,1.4799056E-2,-1.8913537E-4,1.73976E-2,3.97601E-2,9.3894325E-2,3.8384836E-2,-2.3815645E-2,7.664139E-3,3.3377327E-2,1.4749316E-2,3.6454584E-2,9.85828E-2,1.8978024E-2,3.843461E-2,5.9513655E-2,1.5613045E-2,6.9839135E-2,6.15243E-3,4.9615607E-2,-3.1330954E-2,2.3902362E-2,3.1346243E-2,7.335552E-2,1.968446E-3,7.627579E-2,2.4707383E-2,8.291213E-2,8.654393E-2,1.256498E-1,2.8529286E-2,7.7860236E-2,1.0665058E-1,1.3805598E-1],"split_indices":[46,43,47,14,46,43,45,60,15,27,27,14,59,14,46,46,55,44,60,45,45,59,45,45,46,14,55,53,47,47,13,46,30,57,19,45,57,6,3,31,34,12,5,38,45,14,13,53,13,47,14,30,3,59,14,46,57,45,42,12,36,0,0,0,0,0,0,0,0,0,0,0,0,0,0,0,0,0,0,0,0,0,0,0,0,0,0,0,0,0,0,0,0,0,0,0,0,0,0,0,0,0,0,0,0,0,0,0,0,0,0,0,0,0,0,0,0,0,0,0,0,0,0],"split_type":[0,0,0,0,0,0,0,0,0,0,0,0,0,0,0,0,0,0,0,0,0,0,0,0,0,0,0,0,0,0,0,0,0,0,0,0,0,0,0,0,0,0,0,0,0,0,0,0,0,0,0,0,0,0,0,0,0,0,0,0,0,0,0,0,0,0,0,0,0,0,0,0,0,0,0,0,0,0,0,0,0,0,0,0,0,0,0,0,0,0,0,0,0,0,0,0,0,0,0,0,0,0,0,0,0,0,0,0,0,0,0,0,0,0,0,0,0,0,0,0,0,0,0],"sum_hessian":[5.82E3,4.192516E3,1.627484E3,2.1188684E3,2.0736475E3,8.684641E2,7.590199E2,1.351268E3,7.676005E2,6.679662E2,1.4056813E3,4.4890634E2,4.195578E2,5.541246E2,2.0489528E2,8.306957E2,5.2057227E2,1.5974007E2,6.078605E2,3.596306E2,3.0833554E2,6.6821216E2,7.374692E2,1.9286746E2,2.5603888E2,3.0485822E2,1.1469957E2,1.494015E2,4.0472308E2,1.1225274E2,9.264253E1,3.6528604E2,4.6540967E2,1.8473491E2,3.3583737E2,3.0674007E1,1.2906606E2,3.777825E2,2.3007799E2,2.4678947E2,1.1284114E2,2.8106058E2,2.7274973E1,2.0415907E2,4.6405307E2,6.8673975E2,5.072943E1,9.549388E1,9.737357E1,2.3340408E2,2.2634802E1,1.2684222E2,1.78016E2,9.5460686E1,1.9238882E1,1.2368013E2,2.5721375E1,3.3671387E2,6.800924E1,2.0686895E1,9.156584E1,1.3647691E0,9.127776E1,5.486842E1,3.104176E2,7.014715E0,4.5839496E2,1.630204E1,1.6843286E2,7.8128784E1,2.577086E2,2.5723309E1,4.9506984E0,5.7325565E1,7.174049E1,1.8756209E2,1.9022041E2,7.6992483E0,2.2237874E2,1.9704758E2,4.974189E1,6.1725456E1,5.111568E1,1.9840483E2,8.265575E1,6.322342E0,2.0952631E1,1.818972E2,2.226187E1,4.2718927E2,3.6863804E1,4.3781192E2,2.4892783E2,4.418582E1,6.543609E0,1.05826E1,8.491128E1,4.364973E1,5.3723846E1,6.464157E1,1.6876251E2,1.5857358E1,6.777444E0,4.619259E1,8.064963E1,6.5667024E0,1.714493E2,9.999678E0,8.5461006E1,1.0393233E1,8.84565E0,2.4640816E1,9.9039314E1,2.1885714E1,3.8356605E0,6.589796E0,3.3012405E2,3.8424488E1,2.9584747E1,2.455854E0,1.8231041E1,5.1766487E1,3.9799355E1],"tree_param":{"num_deleted":"0","num_feature":"66","num_nodes":"123","size_leaf_vector":"1"}},{"base_weights":[9.817854E-4,-4.652978E-1,1.2016997E0,-7.34679E-1,-7.867155E-2,7.993565E-1,1.8810643E0,-1.2630296E0,-6.6961455E-1,-2.8165323E-1,1.0908964E-1,3.3920625E-1,1.137189E0,1.5290376E0,2.4303615E0,-5.059404E-1,-1.3962002E0,-8.4538305E-1,-5.0499725E-1,-5.327662E-1,-1.1532947E-1,-7.0297964E-2,3.5720554E-1,2.7320387E-2,6.328582E-1,7.6379436E-1,1.2724732E0,5.7285005E-1,1.5713085E0,2.46861E0,2.2918478E-1,-7.3573536E-1,8.961927E-1,-2.3703785E0,-1.2796738E0,-1.1377513E0,-6.671038E-1,-3.5025537E-1,-8.250128E-1,-6.479362E-1,-6.642772E-2,-1.8745847E-1,2.4734713E-1,-1.3946851E0,-4.2736225E-2,1.3099366E0,2.7691045E-1,3.2142007E-1,-2.7138954E-1,2.6301765E-1,7.764049E-1,5.7895046E-1,9.1444653E-1,1.1977386E0,1.6245847E0,1.1001873E0,-7.022813E-3,-2.7904963E-1,1.5909674E0,2.1847634E0,2.8023572E0,-1.2899163E-1,3.795649E-2,1.6942902E-2,-4.186497E-2,-9.500308E-3,5.6727123E-2,-1.3264081E-1,-5.852911E-2,-3.8015284E-2,-6.587129E-2,-3.3987287E-2,-6.372654E-2,-4.0249914E-2,-2.4926951E-2,1.3544713E-3,-2.244259E-2,-1.3767679E-1,-3.8794946E-2,-1.832212E-2,-4.0079303E-2,-5.2864958E-2,7.226806E-4,-7.65784E-2,-8.320196E-3,4.8872527E-2,7.835012E-3,-8.59964E-2,-1.5204959E-2,-4.5617097E-3,2.7043937E-2,4.1567113E-2,1.3227606E-1,-7.7534704E-3,1.9241331E-2,8.1913185E-4,2.9354984E-2,-5.6377947E-2,-6.277758E-3,-3.509334E-2,1.9268997E-2,2.783539E-2,5.0664842E-2,2.1464825E-2,4.1199606E-2,3.931042E-2,6.270593E-2,6.33344E-2,4.3419223E-2,9.341612E-2,5.8866482E-2,7.160919E-2,1.3368617E-2,-2.1246677E-2,1.1197646E-2,5.190562E-3,-3.374799E-2,5.949871E-2,8.224552E-2,2.3134694E-2,1.1070432E-1,1.278822E-2,1.4130066E-1,-1.4222862E-2,3.635178E-3],"categories":[],"categories_nodes":[],"categories_segments":[],"categories_sizes":[],"default_left":[1,1,0,0,0,1,1,0,0,1,0,0,0,0,1,0,0,1,0,0,1,0,1,0,0,0,1,0,0,0,0,0,0,1,0,0,0,0,0,0,0,0,1,0,1,0,0,0,0,0,1,0,0,0,0,0,0,0,0,0,0,0,0,0,0,0,0,0,0,0,0,0,0,0,0,0,0,0,0,0,0,0,0,0,0,0,0,0,0,0,0,0,0,0,0,0,0,0,0,0,0,0,0,0,0,0,0,0,0,0,0,0,0,0,0,0,0,0,0,0,0,0,0,0,0],"id":7,"left_children":[1,3,5,7,9,11,13,15,17,19,21,23,25,27,29,31,33,35,37,39,41,43,45,47,49,51,53,55,57,59,61,63,65,67,69,71,73,75,77,79,81,83,85,87,89,91,93,95,97,99,101,103,105,107,109,111,113,115,117,119,121,123,-1,-1,-1,-1,-1,-1,-1,-1,-1,-1,-1,-1,-1,-1,-1,-1,-1,-1,-1,-1,-1,-1,-1,-1,-1,-1,-1,-1,-1,-1,-1,-1,-1,-1,-1,-1,-1,-1,-1,-1,-1,-1,-1,-1,-1,-1,-1,-1,-1,-1,-1,-1,-1,-1,-1,-1,-1,-1,-1,-1,-1,-1,-1],"loss_changes":[3.259564E3,4.3669617E2,4.436223E2,8.411243E1,6.5702965E1,1.5887738E2,1.1326709E2,2.6499817E1,6.330237E1,3.453279E1,3.9898354E1,3.983703E1,2.8849182E1,1.4111145E1,1.918457E1,1.4170362E1,2.2952026E1,5.4684753E1,5.6155243E1,1.766706E1,1.3114071E1,1.8949795E1,2.8407036E1,1.8717888E1,1.1692345E1,3.9123535E0,9.41803E0,5.296949E0,1.3360962E1,1.5711548E1,1.0676844E0,4.275814E0,1.8609862E0,4.784378E0,3.0497437E0,2.428656E1,1.501413E1,2.8661873E1,3.298256E1,1.1138687E1,5.338525E0,1.1552909E1,5.359675E0,3.2315903E0,1.4518022E1,1.6314358E1,1.6287899E1,8.687718E0,1.3062725E1,7.846535E0,7.810753E0,2.3728065E0,2.7668152E0,7.075989E0,5.7368774E0,2.1235247E0,9.8628455E-1,7.648711E-1,5.645874E0,5.4938965E0,5.4454346E0,1.4307643E-1,0E0,0E0,0E0,0E0,0E0,0E0,0E0,0E0,0E0,0E0,0E0,0E0,0E0,0E0,0E0,0E0,0E0,0E0,0E0,0E0,0E0,0E0,0E0,0E0,0E0,0E0,0E0,0E0,0E0,0E0,0E0,0E0,0E0,0E0,0E0,0E0,0E0,0E0,0E0,0E0,0E0,0E0,0E0,0E0,0E0,0E0,0E0,0E0,0E0,0E0,0E0,0E0,0E0,0E0,0E0,0E0,0E0,0E0,0E0,0E0,0E0,0E0,0E0],"parents":[2147483647,0,0,1,1,2,2,3,3,4,4,5,5,6,6,7,7,8,8,9,9,10,10,11,11,12,12,13,13,14,14,15,15,16,16,17,17,18,18,19,19,20,20,21,21,22,22,23,23,24,24,25,25,26,26,27,27,28,28,29,29,30,30,31,31,32,32,33,33,34,34,35,35,36,36,37,37,38,38,39,39,40,40,41,41,42,42,43,43,44,44,45,45,46,46,47,47,48,48,49,49,50,50,51,51,52,52,53,53,54,54,55,55,56,56,57,57,58,58,59,59,60,60,61,61],"right_children":[2,4,6,8,10,12,14,16,18,20,22,24,26,28,30,32,34,36,38,40,42,44,46,48,50,52,54,56,58,60,62,64,66,68,70,72,74,76,78,80,82,84,86,88,90,92,94,96,98,100,102,104,106,108,110,112,114,116,118,120,122,124,-1,-1,-1,-1,-1,-1,-1,-1,-1,-1,-1,-1,-1,-1,-1,-1,-1,-1,-1,-1,-1,-1,-1,-1,-1,-1,-1,-1,-1,-1,-1,-1,-1,-1,-1,-1,-1,-1,-1,-1,-1,-1,-1,-1,-1,-1,-1,-1,-1,-1,-1,-1,-1,-1,-1,-1,-1,-1,-1,-1,-1,-1,-1],"split_conditions":[4.42595E4,1.5971021E4,1.8827055E5,3.3611826E3,1E0,5.76E4,1.2934519E1,1.3E1,5.4E1,1.166279E4,3.211793E4,4.455E3,1.1414389E1,7.212E4,1.9233E2,3.5825098E-1,1.11125E3,5.385E3,2.02E2,8.38E1,5.6897E4,2.1676016E3,3.1172607E3,8.1521875E-1,1.0422637E1,7.35E1,1.2356582E1,2.75E3,2.32E1,9.460831E5,8.507463E-1,6.779349E-2,5.9411365E-1,9.9E1,6E-1,1E0,1E0,1.967E3,1.4975E3,1.5012E2,6.80064E3,1.0025742E4,7.176224E3,2.4E4,1.175E2,1.8456395E5,1.26549E3,1.0726183E1,8.506E1,6.02775E3,3.9E1,8.129902E4,6.1376E4,2E0,9.943527E0,7.995E4,1E0,8E0,5.1862866E-2,4.32E1,2.55325E4,3E0,3.795649E-2,1.6942902E-2,-4.186497E-2,-9.500308E-3,5.6727123E-2,-1.3264081E-1,-5.852911E-2,-3.8015284E-2,-6.587129E-2,-3.3987287E-2,-6.372654E-2,-4.0249914E-2,-2.4926951E-2,1.3544713E-3,-2.244259E-2,-1.3767679E-1,-3.8794946E-2,-1.832212E-2,-4.0079303E-2,-5.2864958E-2,7.226806E-4,-7.65784E-2,-8.320196E-3,4.8872527E-2,7.835012E-3,-8.59964E-2,-1.5204959E-2,-4.5617097E-3,2.7043937E-2,4.1567113E-2,1.3227606E-1,-7.7534704E-3,1.9241331E-2,8.1913185E-4,2.9354984E-2,-5.6377947E-2,-6.277758E-3,-3.509334E-2,1.9268997E-2,2.783539E-2,5.0664842E-2,2.1464825E-2,4.1199606E-2,3.931042E-2,6.270593E-2,6.33344E-2,4.3419223E-2,9.341612E-2,5.8866482E-2,7.160919E-2,1.3368617E-2,-2.1246677E-2,1.1197646E-2,5.190562E-3,-3.374799E-2,5.949871E-2,8.224552E-2,2.3134694E-2,1.1070432E-1,1.278822E-2,1.4130066E-1,-1.4222862E-2,3.635178E-3],"split_indices":[46,43,46,46,27,45,47,60,12,45,43,14,47,45,55,36,44,33,60,13,4,46,46,53,47,12,47,6,13,46,2,42,9,10,2,19,27,15,3,55,45,32,46,4,12,3,14,47,54,14,16,43,32,62,31,4,10,0,42,12,34,0,0,0,0,0,0,0,0,0,0,0,0,0,0,0,0,0,0,0,0,0,0,0,0,0,0,0,0,0,0,0,0,0,0,0,0,0,0,0,0,0,0,0,0,0,0,0,0,0,0,0,0,0,0,0,0,0,0,0,0,0,0,0,0],"split_type":[0,0,0,0,0,0,0,0,0,0,0,0,0,0,0,0,0,0,0,0,0,0,0,0,0,0,0,0,0,0,0,0,0,0,0,0,0,0,0,0,0,0,0,0,0,0,0,0,0,0,0,0,0,0,0,0,0,0,0,0,0,0,0,0,0,0,0,0,0,0,0,0,0,0,0,0,0,0,0,0,0,0,0,0,0,0,0,0,0,0,0,0,0,0,0,0,0,0,0,0,0,0,0,0,0,0,0,0,0,0,0,0,0,0,0,0,0,0,0,0,0,0,0,0,0],"sum_hessian":[5.82E3,4.192516E3,1.627484E3,2.4703816E3,1.7221344E3,1.0235054E3,6.0397864E2,2.6884372E2,2.2015378E3,8.27286E2,8.948483E2,4.3415778E2,5.893476E2,3.7039078E2,2.3358786E2,4.093319E1,2.2791052E2,1.0627075E3,1.1388304E3,3.2874652E2,4.9853952E2,5.19771E2,3.7507733E2,2.1107228E2,2.230855E2,1.5850569E2,4.308419E2,1.6296993E1,3.5409378E2,2.2947884E2,4.1090226E0,3.557766E1,5.3555317E0,2.2282598E1,2.0562793E2,4.005103E2,6.621972E2,7.6905316E2,3.6977722E2,2.633247E2,6.542181E1,4.162408E2,8.229871E1,9.585177E0,5.1018582E2,2.7963696E1,3.4711365E2,1.0631858E2,1.0475371E2,6.3168205E1,1.599173E2,7.335059E1,8.5155106E1,3.5903867E2,7.180322E1,8.065199E0,8.231793E0,3.5837808E0,3.5050998E2,1.2808807E2,1.0139076E2,2.9033298E0,1.2056928E0,2.870462E0,3.2707195E1,1.0002148E0,4.355317E0,1.705639E1,5.226208E0,1.5366381E1,1.9026155E2,9.347594E1,3.0703436E2,3.621581E2,3.000391E2,1.5946799E2,6.095852E2,7.815789E0,3.6196143E2,9.417551E1,1.691492E2,4.026101E0,6.1395702E1,5.313104E0,4.109277E2,8.008915E0,7.4289795E1,6.9387755E0,2.646402E0,4.7182147E2,3.8364338E1,2.1781096E1,6.182599E0,6.9294846E1,2.778188E2,4.998754E1,5.6331043E1,1.426638E1,9.048733E1,6.5761547E0,5.6592052E1,8.470795E1,7.520934E1,4.724726E1,2.610333E1,6.42232E1,2.0931902E1,2.945332E2,6.450548E1,4.4419117E1,2.7384104E1,5.2518797E0,2.813319E0,2.6312566E0,5.6005373E0,2.1969924E0,1.3867884E0,4.429506E1,3.0621494E2,2.4254565E0,1.2566262E2,1.0418904E0,1.0034887E2,1.4078411E0,1.4954888E0],"tree_param":{"num_deleted":"0","num_feature":"66","num_nodes":"125","size_leaf_vector":"1"}},{"base_weights":[9.827778E-4,-4.4219166E-1,1.1422025E0,-7.463586E-1,-1.311817E-1,5.628877E-1,1.5704156E0,-8.6736315E-1,-4.4973654E-1,-2.6135802E-1,1.7592873E-1,2.8335857E-1,8.7643975E-1,1.3452798E0,2.361992E0,-7.5470066E-1,-1.1851164E0,-1.1088895E0,-3.5028028E-1,-4.7605753E-1,-1.1833964E-1,1.2473634E-1,9.12407E-1,-3.3345897E-2,5.696769E-1,7.5354064E-1,1.0740108E0,9.829627E-1,1.4974856E0,1.8778034E0,2.576394E0,-8.792792E-1,-4.7378445E-1,-2.8194337E0,-1.1209072E0,-1.4948561E0,-9.0389466E-1,5.83776E-2,-4.8923287E-1,-6.026366E-1,-3.1415257E-1,-2.786833E-1,4.4498336E-2,-1.8731917E-1,2.2079673E-1,5.9482205E-1,1.479266E0,-2.4343525E-1,3.6017415E-1,4.9949378E-1,1.3638066E0,7.0971966E-1,1.6171522E0,6.73623E-1,1.1641799E0,1.1153558E0,4.390986E-1,1.3358152E0,1.6912978E0,1.6377128E0,2.3416355E0,1.572196E-2,2.5912514E0,-4.0143456E-2,-6.493017E-2,-1.3694996E-2,-3.483662E-2,-4.1753575E-2,-1.4687862E-1,-6.398298E-2,-3.871582E-2,-7.7098474E-2,-1.1157527E-2,-2.3654034E-2,-5.0726023E-2,-1.8643681E-2,1.0661486E-2,5.3719315E-3,-2.8067661E-2,-3.5585053E-2,-1.9974396E-2,8.820938E-3,-2.0174606E-2,-2.4001045E-2,-5.16603E-3,-6.69984E-4,3.816585E-2,-3.5010267E-2,-9.472711E-4,-3.3745687E-2,1.3843444E-2,5.107807E-2,1.9484363E-2,2.569064E-2,8.7551855E-2,-2.4895402E-2,1.0964312E-2,9.414822E-3,5.0747544E-2,2.6506284E-2,-3.6504664E-2,1.0052498E-1,1.1549788E-2,3.1832997E-3,3.7559252E-2,9.087004E-2,1.5922353E-2,1.6946707E-2,4.301293E-2,6.253665E-2,3.5513766E-2,6.411E-2,3.6010228E-2,3.8027138E-2,-1.4011705E-2,5.1766552E-2,7.228615E-2,8.1605576E-2,1.330664E-1,9.436615E-2,5.7804953E-2,1.344841E-1,8.2421385E-2,1.2117787E-1,1.4764057E-1],"categories":[],"categories_nodes":[],"categories_segments":[],"categories_sizes":[],"default_left":[1,1,0,1,1,1,1,0,0,0,0,0,0,0,0,0,0,0,0,0,0,0,0,1,0,0,0,1,0,0,0,0,1,0,0,0,1,0,0,0,0,0,0,1,0,1,0,0,0,0,0,0,0,0,0,1,1,0,0,0,0,0,0,0,0,0,0,0,0,0,0,0,0,0,0,0,0,0,0,0,0,0,0,0,0,0,0,0,0,0,0,0,0,0,0,0,0,0,0,0,0,0,0,0,0,0,0,0,0,0,0,0,0,0,0,0,0,0,0,0,0,0,0,0,0],"id":8,"left_children":[1,3,5,7,9,11,13,15,17,19,21,23,25,27,29,31,33,35,37,39,41,43,45,47,49,51,53,55,57,59,61,63,65,67,69,71,73,75,77,79,81,83,85,87,89,91,93,95,97,99,101,103,105,107,109,111,113,115,117,119,121,-1,123,-1,-1,-1,-1,-1,-1,-1,-1,-1,-1,-1,-1,-1,-1,-1,-1,-1,-1,-1,-1,-1,-1,-1,-1,-1,-1,-1,-1,-1,-1,-1,-1,-1,-1,-1,-1,-1,-1,-1,-1,-1,-1,-1,-1,-1,-1,-1,-1,-1,-1,-1,-1,-1,-1,-1,-1,-1,-1,-1,-1,-1,-1],"loss_changes":[2.9445305E3,3.966045E2,4.0309448E2,7.569739E1,8.298729E1,6.0551147E1,1.6359302E2,5.296765E1,4.0013947E1,4.4695953E1,2.319367E1,3.340839E1,7.117752E0,3.883496E1,1.6536377E1,3.8551697E1,3.7983032E1,5.0051346E0,3.0519234E1,1.174559E1,2.2886847E1,1.7403011E1,6.3247147E0,1.4619897E1,1.01001625E1,6.595993E0,3.6509094E0,1.5288132E1,1.3807861E1,3.612793E0,3.890686E0,2.363617E1,1.5150932E1,8.667984E-1,1.9857605E1,1.2339287E0,2.1412392E0,9.237943E0,1.7308273E1,6.9331284E0,1.13618355E1,1.5540531E1,1.8135809E1,1.1806019E1,2.2452124E1,1.9936647E0,2.6943378E0,1.3673201E1,6.7395606E0,7.1407547E0,1.061935E1,5.2167587E0,1.7876396E0,1.2671652E0,2.996872E0,1.0652145E1,1.0513806E1,7.89328E0,8.829651E0,3.5156326E0,5.0842285E-1,0E0,1.2693481E0,0E0,0E0,0E0,0E0,0E0,0E0,0E0,0E0,0E0,0E0,0E0,0E0,0E0,0E0,0E0,0E0,0E0,0E0,0E0,0E0,0E0,0E0,0E0,0E0,0E0,0E0,0E0,0E0,0E0,0E0,0E0,0E0,0E0,0E0,0E0,0E0,0E0,0E0,0E0,0E0,0E0,0E0,0E0,0E0,0E0,0E0,0E0,0E0,0E0,0E0,0E0,0E0,0E0,0E0,0E0,0E0,0E0,0E0,0E0,0E0,0E0,0E0],"parents":[2147483647,0,0,1,1,2,2,3,3,4,4,5,5,6,6,7,7,8,8,9,9,10,10,11,11,12,12,13,13,14,14,15,15,16,16,17,17,18,18,19,19,20,20,21,21,22,22,23,23,24,24,25,25,26,26,27,27,28,28,29,29,30,30,31,31,32,32,33,33,34,34,35,35,36,36,37,37,38,38,39,39,40,40,41,41,42,42,43,43,44,44,45,45,46,46,47,47,48,48,49,49,50,50,51,51,52,52,53,53,54,54,55,55,56,56,57,57,58,58,59,59,60,60,62,62],"right_children":[2,4,6,8,10,12,14,16,18,20,22,24,26,28,30,32,34,36,38,40,42,44,46,48,50,52,54,56,58,60,62,64,66,68,70,72,74,76,78,80,82,84,86,88,90,92,94,96,98,100,102,104,106,108,110,112,114,116,118,120,122,-1,124,-1,-1,-1,-1,-1,-1,-1,-1,-1,-1,-1,-1,-1,-1,-1,-1,-1,-1,-1,-1,-1,-1,-1,-1,-1,-1,-1,-1,-1,-1,-1,-1,-1,-1,-1,-1,-1,-1,-1,-1,-1,-1,-1,-1,-1,-1,-1,-1,-1,-1,-1,-1,-1,-1,-1,-1,-1,-1,-1,-1,-1,-1],"split_conditions":[4.42595E4,1.2474915E4,1.1679414E1,4.455E3,2.4684E4,5.625E4,4.57E5,2.07E2,6E3,1.3500378E4,8.76E4,4.455E3,9.396349E4,5.80644E3,6.1761475E5,2.16398E3,7.0225368E0,3.0241584E3,1.97E3,1E0,1E0,2.4139645E4,9.4425336E4,1.8E4,1.8827055E5,1.638E5,1E0,1.1582818E0,2.2101744E5,1.0854E4,4.55255E3,5.44E2,1.967E3,2.48E2,2E0,9.978834E0,2.22E3,1E0,2.017E3,9.475845E3,1E0,6E1,7E0,1.17312E3,5.7759897E3,4.19E1,-1.827013E-1,2.2173134E5,1.83E2,1.4872031E5,3E0,3.52E1,2.63E2,6.85E1,6.9E1,4.2E1,1.3258E2,1.1726177E5,8E0,9.782003E-3,1.271554E0,1.572196E-2,1.515E2,-4.0143456E-2,-6.493017E-2,-1.3694996E-2,-3.483662E-2,-4.1753575E-2,-1.4687862E-1,-6.398298E-2,-3.871582E-2,-7.7098474E-2,-1.1157527E-2,-2.3654034E-2,-5.0726023E-2,-1.8643681E-2,1.0661486E-2,5.3719315E-3,-2.8067661E-2,-3.5585053E-2,-1.9974396E-2,8.820938E-3,-2.0174606E-2,-2.4001045E-2,-5.16603E-3,-6.69984E-4,3.816585E-2,-3.5010267E-2,-9.472711E-4,-3.3745687E-2,1.3843444E-2,5.107807E-2,1.9484363E-2,2.569064E-2,8.7551855E-2,-2.4895402E-2,1.0964312E-2,9.414822E-3,5.0747544E-2,2.6506284E-2,-3.6504664E-2,1.0052498E-1,1.1549788E-2,3.1832997E-3,3.7559252E-2,9.087004E-2,1.5922353E-2,1.6946707E-2,4.301293E-2,6.253665E-2,3.5513766E-2,6.411E-2,3.6010228E-2,3.8027138E-2,-1.4011705E-2,5.1766552E-2,7.228615E-2,8.1605576E-2,1.330664E-1,9.436615E-2,5.7804953E-2,1.344841E-1,8.2421385E-2,1.2117787E-1,1.4764057E-1],"split_indices":[46,43,47,14,45,45,45,60,46,46,45,14,43,14,43,14,47,46,15,27,27,43,7,45,46,44,27,53,46,14,33,0,15,6,62,31,45,27,30,46,19,12,22,14,7,12,36,7,10,46,59,12,0,13,16,17,54,3,23,8,35,0,12,0,0,0,0,0,0,0,0,0,0,0,0,0,0,0,0,0,0,0,0,0,0,0,0,0,0,0,0,0,0,0,0,0,0,0,0,0,0,0,0,0,0,0,0,0,0,0,0,0,0,0,0,0,0,0,0,0,0,0,0,0,0],"split_type":[0,0,0,0,0,0,0,0,0,0,0,0,0,0,0,0,0,0,0,0,0,0,0,0,0,0,0,0,0,0,0,0,0,0,0,0,0,0,0,0,0,0,0,0,0,0,0,0,0,0,0,0,0,0,0,0,0,0,0,0,0,0,0,0,0,0,0,0,0,0,0,0,0,0,0,0,0,0,0,0,0,0,0,0,0,0,0,0,0,0,0,0,0,0,0,0,0,0,0,0,0,0,0,0,0,0,0,0,0,0,0,0,0,0,0,0,0,0,0,0,0,0,0,0,0],"sum_hessian":[5.82E3,4.192516E3,1.627484E3,2.1188684E3,2.0736475E3,6.926866E2,9.347974E2,1.5035736E3,6.152949E2,1.4564459E3,6.172015E2,3.6721814E2,3.254684E2,7.2990216E2,2.0489528E2,1.1125009E3,3.9107272E2,7.9336624E1,5.359583E2,5.813674E2,8.750786E2,5.7818164E2,3.901987E1,1.7477658E2,1.9244157E2,2.036204E2,1.21848015E2,2.1812546E2,5.117767E2,6.5878624E1,1.3901665E2,7.6923596E2,3.432649E2,1.3161547E1,3.7791116E2,2.5337917E1,5.399871E1,1.3614307E2,3.9981525E2,3.2475113E2,2.566162E2,4.405578E2,4.3452084E2,1.3586606E2,4.4231558E2,2.6322126E1,1.2697744E1,1.14193344E2,6.0583244E1,1.7831181E2,1.4129753E1,1.9552116E2,8.099248E0,2.3953814E1,9.78942E1,1.7457722E2,4.354823E1,2.8332803E2,2.2844865E2,4.6394524E1,1.9484102E1,1.0517722E0,1.3796487E2,6.5313513E2,1.1610086E2,1.8216917E2,1.610957E2,1.1929108E0,1.1968636E1,2.573449E2,1.2056627E2,2.422782E1,1.1100967E0,1.2110956E1,4.1887756E1,3.559785E1,1.0054522E2,4.3061977E1,3.5675327E2,2.0967798E2,1.1507315E2,3.9383457E1,2.1723276E2,2.042811E2,2.3627669E2,4.03039E2,3.1481848E1,3.279871E1,1.03067345E2,2.540784E1,4.1690775E2,7.253276E0,1.9068851E1,3.4241676E0,9.273577E0,7.362653E1,4.056681E1,4.900666E1,1.1576584E1,1.7453265E2,3.7791622E0,8.501611E0,5.628142E0,1.1945112E1,1.8357605E2,6.6712136E0,1.4280344E0,9.5836735E0,1.437014E1,8.074232E1,1.715188E1,1.2117068E2,5.340655E1,3.0058754E1,1.3489473E1,7.8669174E1,2.0465886E2,2.1783974E2,1.0608915E1,2.8634909E1,1.7759613E1,1.1054028E1,8.430075E0,9.951311E1,3.845177E1],"tree_param":{"num_deleted":"0","num_feature":"66","num_nodes":"125","size_leaf_vector":"1"}},{"base_weights":[1.1056537E-3,-4.2021775E-1,1.0860566E0,-6.345757E-1,-1.9355424E-2,7.213005E-1,1.7019604E0,-9.912381E-1,-5.515765E-1,-2.1757391E-1,1.5547618E-1,3.040879E-1,1.027615E0,1.382688E0,2.2001655E0,-1.4393039E0,-8.688576E-1,-4.1776335E-1,-7.5595695E-1,-4.66262E-1,-5.8832303E-2,9.6994646E-2,8.025975E-1,1.9969894E-2,5.716173E-1,6.9058216E-1,1.1497222E0,5.096558E-1,1.4213204E0,3.997521E-1,2.2397852E0,3.9521194E-1,-1.5142634E0,-9.9957496E-1,-6.4382386E-1,-5.1463515E-1,-1.970029E-1,-4.534365E-1,-1.0096446E0,-2.1187069E-1,-6.547311E-1,-1.4959215E-1,2.058518E-1,-7.254999E-2,2.860237E-1,8.667273E-1,-6.827878E-2,2.9496542E-1,-2.592837E-1,2.2437888E-1,7.0653164E-1,5.1856637E-1,8.3101374E-1,1.0803598E0,1.4769522E0,1.0047364E0,-3.1697337E-2,-2.8282553E-1,1.4394995E0,-1.8516046E-1,4.1478798E-2,2.2979157E0,1.3069447E0,-1.4288931E-2,4.665914E-2,-9.932936E-2,-6.1993163E-2,-5.103087E-2,4.6163555E-2,-3.5031945E-2,1.3135782E-2,-3.05271E-2,-1.6317008E-2,-1.3441105E-2,2.3747103E-2,-1.1549315E-2,-3.7786942E-2,-6.133919E-2,-3.2170482E-2,-2.5094187E-2,4.3574534E-3,-5.18979E-3,-3.8698375E-2,-2.8774762E-3,-2.2215586E-2,5.0688088E-2,4.7760257E-3,-6.564721E-3,2.662304E-2,1.0025316E-2,5.1201165E-2,3.69034E-2,8.579299E-2,3.8754698E-2,6.663851E-3,-5.322462E-2,-6.1042695E-3,-3.4271795E-2,1.7008388E-2,2.4998846E-2,4.6478007E-2,1.7830785E-2,3.6605343E-2,4.917759E-2,2.9501745E-2,5.723845E-2,3.866401E-2,8.530762E-2,5.2908033E-2,6.662391E-2,1.0196391E-2,-1.1205924E-2,2.0793175E-2,3.884028E-3,-3.2360524E-2,6.6874936E-2,8.287535E-2,-1.339744E-2,5.250167E-5,1.01654075E-1,1.2950332E-1,7.661131E-2,1.0746647E-2],"categories":[],"categories_nodes":[],"categories_segments":[],"categories_sizes":[],"default_left":[1,1,0,0,0,1,1,0,0,1,1,0,0,0,0,0,0,0,0,0,1,0,0,0,0,0,1,0,0,0,0,0,0,1,0,1,1,0,0,0,1,0,1,0,1,1,0,0,0,0,1,0,0,0,0,0,0,0,0,0,0,0,1,0,0,0,0,0,0,0,0,0,0,0,0,0,0,0,0,0,0,0,0,0,0,0,0,0,0,0,0,0,0,0,0,0,0,0,0,0,0,0,0,0,0,0,0,0,0,0,0,0,0,0,0,0,0,0,0,0,0,0,0],"id":9,"left_children":[1,3,5,7,9,11,13,15,17,19,21,23,25,27,29,31,33,35,37,39,41,43,45,47,49,51,53,55,57,59,61,63,65,67,69,71,73,75,77,79,81,83,85,87,89,91,-1,93,95,97,99,101,103,105,107,109,111,113,115,117,-1,119,121,-1,-1,-1,-1,-1,-1,-1,-1,-1,-1,-1,-1,-1,-1,-1,-1,-1,-1,-1,-1,-1,-1,-1,-1,-1,-1,-1,-1,-1,-1,-1,-1,-1,-1,-1,-1,-1,-1,-1,-1,-1,-1,-1,-1,-1,-1,-1,-1,-1,-1,-1,-1,-1,-1,-1,-1,-1,-1,-1,-1],"loss_changes":[2.6613242E3,3.6032825E2,3.646189E2,8.033838E1,5.0704636E1,1.306175E2,9.3187744E1,2.6965118E1,6.0365784E1,2.704058E1,2.9346111E1,3.3064896E1,2.350122E1,1.1801636E1,1.5838257E1,1.5569351E1,1.1319611E1,2.8621857E1,6.682355E1,1.2662655E1,1.0112184E1,2.2909754E1,1.0124489E1,1.636225E1,1.0339302E1,3.4221497E0,8.206116E0,4.667674E0,1.1407837E1,1.7295445E0,9.431763E0,2.1229253E0,1.111972E1,1.127803E1,8.025459E0,1.6647339E1,1.9973856E1,2.6836617E1,3.7064728E1,1.0025765E1,9.963547E0,8.467361E0,9.492434E0,1.3479436E1,2.1119751E1,5.6235657E0,0E0,8.227971E0,1.1552996E1,6.9930544E0,6.9483185E0,2.3101902E0,2.5865974E0,6.23584E0,5.18277E0,2.1075087E0,8.8824624E-1,6.5241486E-1,5.5996094E0,5.3816967E-2,0E0,1.13342285E1,3.5504456E0,0E0,0E0,0E0,0E0,0E0,0E0,0E0,0E0,0E0,0E0,0E0,0E0,0E0,0E0,0E0,0E0,0E0,0E0,0E0,0E0,0E0,0E0,0E0,0E0,0E0,0E0,0E0,0E0,0E0,0E0,0E0,0E0,0E0,0E0,0E0,0E0,0E0,0E0,0E0,0E0,0E0,0E0,0E0,0E0,0E0,0E0,0E0,0E0,0E0,0E0,0E0,0E0,0E0,0E0,0E0,0E0,0E0,0E0,0E0,0E0],"parents":[2147483647,0,0,1,1,2,2,3,3,4,4,5,5,6,6,7,7,8,8,9,9,10,10,11,11,12,12,13,13,14,14,15,15,16,16,17,17,18,18,19,19,20,20,21,21,22,22,23,23,24,24,25,25,26,26,27,27,28,28,29,29,30,30,31,31,32,32,33,33,34,34,35,35,36,36,37,37,38,38,39,39,40,40,41,41,42,42,43,43,44,44,45,45,47,47,48,48,49,49,50,50,51,51,52,52,53,53,54,54,55,55,56,56,57,57,58,58,59,59,61,61,62,62],"right_children":[2,4,6,8,10,12,14,16,18,20,22,24,26,28,30,32,34,36,38,40,42,44,46,48,50,52,54,56,58,60,62,64,66,68,70,72,74,76,78,80,82,84,86,88,90,92,-1,94,96,98,100,102,104,106,108,110,112,114,116,118,-1,120,122,-1,-1,-1,-1,-1,-1,-1,-1,-1,-1,-1,-1,-1,-1,-1,-1,-1,-1,-1,-1,-1,-1,-1,-1,-1,-1,-1,-1,-1,-1,-1,-1,-1,-1,-1,-1,-1,-1,-1,-1,-1,-1,-1,-1,-1,-1,-1,-1,-1,-1,-1,-1,-1,-1,-1,-1,-1,-1,-1,-1],"split_conditions":[4.42595E4,1.8879088E4,1.8827055E5,5.2422383E3,1E0,5.76E4,1.2934519E1,1.8010735E3,1.97E2,1.166279E4,5.67E4,4.455E3,1.1414389E1,7.212E4,4.64E1,2.018E3,8.800471E3,7.43E1,1.5574E2,1.6616E2,4.143651E4,3.33135E3,1.099E3,8.1521875E-1,1.0422637E1,7.35E1,1.2356582E1,2.75E3,2.32E1,6E0,7E0,2.17E2,8.6E1,4.7113985E-1,1.9995645E0,1.054E4,5.9E1,7E0,7.87E1,2.8E4,1.6E1,7.775089E-1,7.176224E3,9E0,1.1582818E0,9.2E1,-6.827878E-2,3E0,8.506E1,6.02775E3,3.9E1,1.258536E5,6.012E3,2E0,9.943527E0,7.995E4,1.75E2,8E0,1.014049E4,3E0,4.1478798E-2,9.460831E5,8.009E-1,-1.4288931E-2,4.665914E-2,-9.932936E-2,-6.1993163E-2,-5.103087E-2,4.6163555E-2,-3.5031945E-2,1.3135782E-2,-3.05271E-2,-1.6317008E-2,-1.3441105E-2,2.3747103E-2,-1.1549315E-2,-3.7786942E-2,-6.133919E-2,-3.2170482E-2,-2.5094187E-2,4.3574534E-3,-5.18979E-3,-3.8698375E-2,-2.8774762E-3,-2.2215586E-2,5.0688088E-2,4.7760257E-3,-6.564721E-3,2.662304E-2,1.0025316E-2,5.1201165E-2,3.69034E-2,8.579299E-2,3.8754698E-2,6.663851E-3,-5.322462E-2,-6.1042695E-3,-3.4271795E-2,1.7008388E-2,2.4998846E-2,4.6478007E-2,1.7830785E-2,3.6605343E-2,4.917759E-2,2.9501745E-2,5.723845E-2,3.866401E-2,8.530762E-2,5.2908033E-2,6.662391E-2,1.0196391E-2,-1.1205924E-2,2.0793175E-2,3.884028E-3,-3.2360524E-2,6.6874936E-2,8.287535E-2,-1.339744E-2,5.250167E-5,1.01654075E-1,1.2950332E-1,7.661131E-2,1.0746647E-2],"split_indices":[46,43,46,46,27,45,47,46,60,45,45,14,47,45,12,30,43,12,55,55,4,14,10,53,47,12,47,6,13,0,59,10,51,36,35,45,16,59,13,33,13,53,46,22,53,13,0,59,54,14,16,32,6,62,31,4,12,0,14,0,0,46,56,0,0,0,0,0,0,0,0,0,0,0,0,0,0,0,0,0,0,0,0,0,0,0,0,0,0,0,0,0,0,0,0,0,0,0,0,0,0,0,0,0,0,0,0,0,0,0,0,0,0,0,0,0,0,0,0,0,0,0,0],"split_type":[0,0,0,0,0,0,0,0,0,0,0,0,0,0,0,0,0,0,0,0,0,0,0,0,0,0,0,0,0,0,0,0,0,0,0,0,0,0,0,0,0,0,0,0,0,0,0,0,0,0,0,0,0,0,0,0,0,0,0,0,0,0,0,0,0,0,0,0,0,0,0,0,0,0,0,0,0,0,0,0,0,0,0,0,0,0,0,0,0,0,0,0,0,0,0,0,0,0,0,0,0,0,0,0,0,0,0,0,0,0,0,0,0,0,0,0,0,0,0,0,0,0,0],"sum_hessian":[5.82E3,4.192516E3,1.627484E3,2.7313599E3,1.4611561E3,1.0235054E3,6.0397864E2,5.1355963E2,2.2178003E3,6.8466284E2,7.7649335E2,4.3415778E2,5.893476E2,3.7039078E2,2.3358786E2,1.07867775E2,4.0569183E2,1.3421221E3,8.756781E2,2.6600162E2,4.1866122E2,7.1319086E2,6.330247E1,2.1107228E2,2.230855E2,1.5850569E2,4.308419E2,1.6296993E1,3.5409378E2,5.268421E0,2.2831944E2,4.0668097E0,1.03800964E2,2.5444705E2,1.512448E2,9.318752E2,4.1024695E2,4.0066992E2,4.7500815E2,1.1410687E2,1.5189473E2,3.1208313E2,1.0657809E2,3.762972E2,3.3689368E2,6.2066917E1,1.2355531E0,1.0631858E2,1.0475371E2,6.3168205E1,1.599173E2,7.335059E1,8.5155106E1,3.5903867E2,7.180322E1,8.065199E0,8.231793E0,3.5837808E0,3.5050998E2,2.4727175E0,2.7957034E0,2.1354866E2,1.4770784E1,2.0017185E0,2.0650914E0,3.585102E1,6.794994E1,2.5215681E2,2.2902255E0,1.4253867E2,8.706122E0,6.1591846E2,3.1595673E2,3.7117477E2,3.907218E1,2.3183641E2,1.6883351E2,2.967291E2,1.7827905E2,5.7581417E1,5.6525455E1,2.7357788E1,1.2453695E2,2.3872363E2,7.3359505E1,1.182202E1,9.4756065E1,3.437074E2,3.2589798E1,3.0304886E2,3.384479E1,5.5523308E1,6.543609E0,2.5828356E1,8.049023E1,1.426638E1,9.048733E1,6.5761547E0,5.6592052E1,8.470795E1,7.520934E1,4.3232655E1,3.0117937E1,5.0259613E1,3.489549E1,2.945332E2,6.450548E1,4.4419117E1,2.7384104E1,5.2518797E0,2.813319E0,6.1059074E0,2.1258862E0,2.1969924E0,1.3867884E0,2.4364769E2,1.068623E2,1.4078411E0,1.0648764E0,1.1618561E2,9.736305E1,1.1910526E1,2.8602579E0],"tree_param":{"num_deleted":"0","num_feature":"66","num_nodes":"123","size_leaf_vector":"1"}},{"base_weights":[1.1755319E-3,-3.9926252E-1,1.0323445E0,-6.7508477E-1,-1.1723572E-1,5.066468E-1,1.4209298E0,-7.8569674E-1,-4.0395007E-1,-3.8385832E-1,9.643569E-3,1.2760271E-1,6.970778E-1,1.2165041E0,2.1397138E0,-2.309935E0,-7.652978E-1,-1.0075734E0,-3.128871E-1,-4.9647772E-1,-1.5792806E-1,2.456968E-1,-1.0754221E-1,-1.4869125E-1,5.5656E-1,5.0389224E-1,8.6958456E-1,8.860356E-1,1.3553512E0,1.7009045E0,2.3340282E0,-1.3812497E-2,-1.2641795E-1,-8.3678323E-1,-3.9677632E-1,-1.3220686E0,-7.880772E-1,6.991521E-2,-4.4308624E-1,-8.1707096E-1,-4.266841E-1,2.2762638E-1,-3.1156847E-1,2.279171E-1,1.2941661E-1,-1.6062501E-1,4.240941E-1,-9.323114E-1,-4.4898514E-2,3.9649957E-1,1.254519E0,5.6345645E-2,5.9072137E-1,5.551102E-1,9.500708E-1,9.475063E-1,-8.687199E-2,1.2745185E0,1.7099063E0,1.9706721E0,1.3488384E0,1.396291E-2,2.3475704E0,-3.784811E-2,-5.7146307E-2,4.463991E-2,-2.256554E-2,-4.307005E-3,-6.885017E-2,-4.6847913E-2,-1.6905982E-2,7.979661E-2,1.3240577E-3,5.8690957E-3,-2.5543833E-2,-7.967461E-2,-2.8718436E-2,-9.170577E-3,-2.9815733E-2,-5.1724757E-3,3.1970173E-2,6.887211E-2,-1.6676849E-2,3.4353547E-3,2.172405E-2,-1.5605034E-2,-4.504087E-4,5.1761637E-3,3.7957046E-2,-6.7604385E-2,3.8205117E-3,6.30179E-3,-2.789222E-2,4.681E-2,1.29830865E-2,3.757506E-2,1.1441983E-1,-8.969277E-3,2.347323E-2,2.5028814E-2,5.3655665E-2,1.649504E-2,3.9236035E-2,5.7058133E-2,3.824775E-2,2.7779743E-2,5.499615E-2,2.4657078E-2,-3.1842962E-2,4.9357567E-2,6.743182E-2,4.4545144E-2,9.0308346E-2,5.8492865E-2,1.0783994E-1,4.9562894E-2,8.2399994E-2,1.0816655E-1,1.3128583E-1],"categories":[],"categories_nodes":[],"categories_segments":[],"categories_sizes":[],"default_left":[1,1,0,1,0,1,1,0,0,1,0,0,0,0,0,0,0,1,0,0,0,0,1,0,0,0,0,0,0,1,0,0,0,0,0,0,0,0,0,0,0,0,0,1,0,0,0,0,1,1,0,0,0,0,0,1,0,0,0,0,0,0,0,0,0,0,0,0,0,0,0,0,0,0,0,0,0,0,0,0,0,0,0,0,0,0,0,0,0,0,0,0,0,0,0,0,0,0,0,0,0,0,0,0,0,0,0,0,0,0,0,0,0,0,0,0,0,0,0],"id":10,"left_children":[1,3,5,7,9,11,13,15,17,19,21,23,25,27,29,31,33,35,37,39,41,43,45,47,49,51,53,55,57,59,61,-1,-1,63,65,67,69,71,73,75,77,79,81,83,-1,85,87,89,91,93,95,97,99,101,103,105,107,109,111,113,115,-1,117,-1,-1,-1,-1,-1,-1,-1,-1,-1,-1,-1,-1,-1,-1,-1,-1,-1,-1,-1,-1,-1,-1,-1,-1,-1,-1,-1,-1,-1,-1,-1,-1,-1,-1,-1,-1,-1,-1,-1,-1,-1,-1,-1,-1,-1,-1,-1,-1,-1,-1,-1,-1,-1,-1,-1,-1],"loss_changes":[2.4040154E3,3.261314E2,3.319441E2,6.3258972E1,7.018671E1,4.998256E1,1.3490112E2,4.5013794E1,3.3561073E1,1.6942863E1,3.893816E1,2.7720167E1,1.4941544E1,3.2336304E1,1.3586182E1,7.9077606E0,3.8820312E1,4.503784E0,2.6793262E1,9.630028E0,1.3339939E1,1.8859838E1,2.6615807E1,1.1558312E1,9.732084E0,8.518948E0,5.6083984E0,1.3187164E1,1.2516663E1,3.693756E0,3.2405396E0,0E0,0E0,2.9530151E1,1.7517262E1,2.0232353E0,3.01865E0,9.047733E0,1.5288696E1,1.3903065E1,1.5090286E1,8.846479E0,6.418291E0,1.5247665E1,0E0,1.9657211E1,9.123553E0,7.1454277E0,1.1205052E1,5.3657684E0,6.923355E0,3.674333E0,7.4733505E0,2.4200373E0,5.9051666E0,1.17052765E1,4.7603264E0,7.6463623E0,5.665497E0,2.7974396E0,1.8091431E0,0E0,1.44104E0,0E0,0E0,0E0,0E0,0E0,0E0,0E0,0E0,0E0,0E0,0E0,0E0,0E0,0E0,0E0,0E0,0E0,0E0,0E0,0E0,0E0,0E0,0E0,0E0,0E0,0E0,0E0,0E0,0E0,0E0,0E0,0E0,0E0,0E0,0E0,0E0,0E0,0E0,0E0,0E0,0E0,0E0,0E0,0E0,0E0,0E0,0E0,0E0,0E0,0E0,0E0,0E0,0E0,0E0,0E0,0E0],"parents":[2147483647,0,0,1,1,2,2,3,3,4,4,5,5,6,6,7,7,8,8,9,9,10,10,11,11,12,12,13,13,14,14,15,15,16,16,17,17,18,18,19,19,20,20,21,21,22,22,23,23,24,24,25,25,26,26,27,27,28,28,29,29,30,30,33,33,34,34,35,35,36,36,37,37,38,38,39,39,40,40,41,41,42,42,43,43,45,45,46,46,47,47,48,48,49,49,50,50,51,51,52,52,53,53,54,54,55,55,56,56,57,57,58,58,59,59,60,60,62,62],"right_children":[2,4,6,8,10,12,14,16,18,20,22,24,26,28,30,32,34,36,38,40,42,44,46,48,50,52,54,56,58,60,62,-1,-1,64,66,68,70,72,74,76,78,80,82,84,-1,86,88,90,92,94,96,98,100,102,104,106,108,110,112,114,116,-1,118,-1,-1,-1,-1,-1,-1,-1,-1,-1,-1,-1,-1,-1,-1,-1,-1,-1,-1,-1,-1,-1,-1,-1,-1,-1,-1,-1,-1,-1,-1,-1,-1,-1,-1,-1,-1,-1,-1,-1,-1,-1,-1,-1,-1,-1,-1,-1,-1,-1,-1,-1,-1,-1,-1,-1,-1],"split_conditions":[4.42595E4,1.2474915E4,1.1679414E1,4.455E3,1.3687297E4,3E4,4.57E5,1.512E3,6E3,1.2012E4,3E0,7.6E1,1.1152901E1,5.80644E3,6.1761475E5,2.002E3,1E0,9.23937E-1,1.97E3,1E0,1.006005E4,3.5019144E5,4.29336E4,1E0,1.099E3,4.57E1,1E0,2.1E1,4E0,7.300212E-1,4.55255E3,-1.3812497E-2,-1.2641795E-1,2.72E2,2.016E3,2.2554177E-1,7.8744924E-1,5.01E1,2.017E3,1.0963566E0,3E0,1.1256E5,2.299E-1,2.0046234E4,1.2941661E-1,1E0,7.92E4,2.93E5,1.4895E2,1.125E4,1.125E5,7.2E1,8.80237E4,1.6564058E-1,8.423077E-1,5.4E1,1.1577E2,8.26608E4,4.725378E4,1.7592592E1,8.38E1,1.396291E-2,2.67E2,-3.784811E-2,-5.7146307E-2,4.463991E-2,-2.256554E-2,-4.307005E-3,-6.885017E-2,-4.6847913E-2,-1.6905982E-2,7.979661E-2,1.3240577E-3,5.8690957E-3,-2.5543833E-2,-7.967461E-2,-2.8718436E-2,-9.170577E-3,-2.9815733E-2,-5.1724757E-3,3.1970173E-2,6.887211E-2,-1.6676849E-2,3.4353547E-3,2.172405E-2,-1.5605034E-2,-4.504087E-4,5.1761637E-3,3.7957046E-2,-6.7604385E-2,3.8205117E-3,6.30179E-3,-2.789222E-2,4.681E-2,1.29830865E-2,3.757506E-2,1.1441983E-1,-8.969277E-3,2.347323E-2,2.5028814E-2,5.3655665E-2,1.649504E-2,3.9236035E-2,5.7058133E-2,3.824775E-2,2.7779743E-2,5.499615E-2,2.4657078E-2,-3.1842962E-2,4.9357567E-2,6.743182E-2,4.4545144E-2,9.0308346E-2,5.8492865E-2,1.0783994E-1,4.9562894E-2,8.2399994E-2,1.0816655E-1,1.3128583E-1],"split_indices":[46,43,47,14,46,45,45,45,46,45,59,13,47,14,43,30,22,39,15,21,44,43,45,21,51,13,27,59,22,53,33,0,0,60,30,42,42,13,30,39,61,34,56,7,0,27,34,5,55,4,46,16,46,42,2,16,54,32,4,37,13,0,51,0,0,0,0,0,0,0,0,0,0,0,0,0,0,0,0,0,0,0,0,0,0,0,0,0,0,0,0,0,0,0,0,0,0,0,0,0,0,0,0,0,0,0,0,0,0,0,0,0,0,0,0,0,0,0,0],"split_type":[0,0,0,0,0,0,0,0,0,0,0,0,0,0,0,0,0,0,0,0,0,0,0,0,0,0,0,0,0,0,0,0,0,0,0,0,0,0,0,0,0,0,0,0,0,0,0,0,0,0,0,0,0,0,0,0,0,0,0,0,0,0,0,0,0,0,0,0,0,0,0,0,0,0,0,0,0,0,0,0,0,0,0,0,0,0,0,0,0,0,0,0,0,0,0,0,0,0,0,0,0,0,0,0,0,0,0,0,0,0,0,0,0,0,0,0,0,0,0],"sum_hessian":[5.82E3,4.192516E3,1.627484E3,2.1188684E3,2.0736475E3,6.926866E2,9.347974E2,1.5035736E3,6.152949E2,6.679662E2,1.4056813E3,2.3219109E2,4.6049548E2,7.2990216E2,2.0489528E2,1.8374435E1,1.4851991E3,7.9336624E1,5.359583E2,4.4496637E2,2.2299979E2,4.6596594E2,9.3971533E2,1.4162373E2,9.0567345E1,2.1907755E2,2.4141794E2,2.1812546E2,5.117767E2,6.5878624E1,1.3901665E2,2.0017185E0,1.6372717E1,1.2428429E3,2.4235628E2,3.0546402E1,4.8790226E1,1.3614307E2,3.9981525E2,7.763716E1,3.6732922E2,6.3405262E1,1.5959453E2,4.635451E2,2.4208379E0,8.550393E2,8.467605E1,1.5630827E1,1.2599291E2,7.494791E1,1.5619441E1,3.58652E1,1.8321236E2,5.080612E1,1.9061182E2,2.0518733E2,1.2938131E1,4.2050354E2,9.127315E1,3.4695812E1,3.1182814E1,1.0517722E0,1.3796487E2,9.8856555E2,2.5427733E2,9.209453E0,2.3314684E2,1.4092374E0,2.9137165E1,3.584694E1,1.2943287E1,2.7785177E0,1.3336455E2,4.3061977E1,3.5675327E2,1.7163694E1,6.047347E1,1.5176273E2,2.1556648E2,3.556176E1,2.7843502E1,1.2569281E0,1.583376E2,2.6253094E2,2.0101418E2,4.2718927E2,4.2785007E2,4.3941784E1,4.0734264E1,1.0797207E1,4.83362E0,9.5067024E1,3.0925886E1,1.3977551E1,6.0970356E1,1.1668958E1,3.9504833E0,2.3195381E1,1.2669817E1,1.560827E2,2.7129646E1,2.6879055E1,2.3927067E1,9.12507E1,9.9361115E1,5.8754993E1,1.4643233E2,6.347476E0,6.5906553E0,8.915478E1,3.3134875E2,1.067798E1,8.059517E1,7.917186E0,2.6778625E1,1.6169388E1,1.5013426E1,8.827239E1,4.9692482E1],"tree_param":{"num_deleted":"0","num_feature":"66","num_nodes":"119","size_leaf_vector":"1"}},{"base_weights":[1.3013841E-3,-3.2032284E-1,1.1620495E0,-5.6637514E-1,5.6806978E-2,9.318943E-1,1.8036902E0,-7.017318E-1,-3.7061715E-1,-8.036932E-2,4.1664708E-1,5.2106595E-1,1.079028E0,1.4166199E0,2.095341E0,-9.428902E-1,-5.350054E-1,-2.1111275E-1,-6.9911605E-1,-1.5628901E-1,2.6698458E-1,2.8728452E-1,8.947751E-1,6.779679E-1,-1.0208164E-1,8.765591E-1,1.2538682E0,1.2357333E0,1.7929387E0,2.1125276E0,-1.261505E-3,-1.0371003E0,-4.91958E-1,-6.865115E-1,-3.354581E-1,-3.02746E-1,2.182371E-1,-1.1814779E0,-4.8914766E-1,-2.9752368E-1,-2.7455913E-2,4.3945998E-2,6.4657605E-1,-2.2678055E-2,3.638012E-1,7.6985717E-1,1.9984248E0,2.1192975E-1,8.469496E-1,1.4520271E-1,-9.4255525E-1,6.7119616E-1,1.0026563E0,1.1255953E0,1.400989E0,2.5412676E-1,1.2719011E0,2.0578684E-1,1.9820137E0,1.3713574E0,2.169292E0,-5.9263982E-2,-3.881937E-2,-9.462122E-3,-4.006998E-2,-4.7819328E-2,-2.8538484E-2,-1.7986568E-2,6.205215E-2,1.12495795E-1,-1.5771013E-2,-1.5967434E-2,2.6127068E-2,-8.9713804E-2,-4.3288108E-2,-2.8784541E-2,3.904685E-2,-7.152807E-3,-2.4997877E-2,-3.7110772E-3,2.6065363E-2,7.222055E-3,-1.7955706E-2,2.7139992E-2,8.244933E-2,6.131346E-3,-2.8204007E-2,8.017257E-3,2.4105938E-2,4.046021E-2,2.2642242E-3,1.0590569E-1,3.291594E-2,2.277377E-2,-4.1514844E-2,2.3329882E-2,5.1983323E-2,2.3117553E-2,-5.663049E-3,-5.7014104E-2,1.4796391E-2,2.8578265E-2,6.669953E-2,3.302953E-2,5.550858E-2,3.1239305E-2,5.8585145E-2,-1.8199775E-4,7.105838E-2,2.5645595E-3,1.6023874E-2,5.5237938E-2,7.908337E-2,-2.632298E-3,2.9575555E-2,1.1487869E-1,5.603835E-2,7.160314E-2,1.7316021E-2,9.996077E-2,1.2545465E-1],"categories":[],"categories_nodes":[],"categories_segments":[],"categories_sizes":[],"default_left":[1,1,0,0,1,1,0,1,0,1,0,1,0,0,0,0,0,0,0,0,0,0,0,0,0,0,0,0,0,0,0,0,0,1,0,0,0,0,1,0,0,1,0,1,0,0,0,0,0,0,0,1,0,0,0,0,1,0,0,0,0,0,0,0,0,0,0,0,0,0,0,0,0,0,0,0,0,0,0,0,0,0,0,0,0,0,0,0,0,0,0,0,0,0,0,0,0,0,0,0,0,0,0,0,0,0,0,0,0,0,0,0,0,0,0,0,0,0,0,0,0],"id":11,"left_children":[1,3,5,7,9,11,13,15,17,19,21,23,25,27,29,31,33,35,37,39,41,43,45,47,49,51,53,55,57,59,-1,61,63,65,67,69,71,73,75,77,79,81,83,85,87,89,91,93,95,97,99,101,103,105,107,109,111,113,115,117,119,-1,-1,-1,-1,-1,-1,-1,-1,-1,-1,-1,-1,-1,-1,-1,-1,-1,-1,-1,-1,-1,-1,-1,-1,-1,-1,-1,-1,-1,-1,-1,-1,-1,-1,-1,-1,-1,-1,-1,-1,-1,-1,-1,-1,-1,-1,-1,-1,-1,-1,-1,-1,-1,-1,-1,-1,-1,-1,-1,-1],"loss_changes":[2.1734956E3,4.2306223E2,1.8486096E2,7.284412E1,8.892766E1,5.5759827E1,3.4557373E1,6.503351E1,5.9058487E1,3.4447334E1,3.0495918E1,2.4281586E1,2.3154175E1,7.717743E0,6.8861694E0,2.7739014E1,2.8975403E1,3.0047516E1,3.6783875E1,1.9484808E1,1.981503E1,9.32439E0,1.2993149E1,1.5410103E1,1.0669994E1,7.6343994E0,5.3172607E0,3.2899323E0,1.3142593E1,4.8501587E0,0E0,2.0294373E1,1.0791151E1,1.6576385E1,1.6475323E1,2.1041672E1,2.2188637E1,1.9954758E1,2.8887619E1,1.5905586E1,1.44446745E1,6.075326E0,8.121223E0,6.261102E0,7.5076675E0,2.70924E0,2.2410965E-1,1.4087876E1,1.0139542E1,3.3332887E0,3.1914768E0,7.4963264E0,6.5019836E0,3.8919373E0,4.7121887E0,4.9054027E-2,3.3217163E0,6.215129E-1,8.359055E0,4.96521E-1,4.868469E0,0E0,0E0,0E0,0E0,0E0,0E0,0E0,0E0,0E0,0E0,0E0,0E0,0E0,0E0,0E0,0E0,0E0,0E0,0E0,0E0,0E0,0E0,0E0,0E0,0E0,0E0,0E0,0E0,0E0,0E0,0E0,0E0,0E0,0E0,0E0,0E0,0E0,0E0,0E0,0E0,0E0,0E0,0E0,0E0,0E0,0E0,0E0,0E0,0E0,0E0,0E0,0E0,0E0,0E0,0E0,0E0,0E0,0E0,0E0,0E0],"parents":[2147483647,0,0,1,1,2,2,3,3,4,4,5,5,6,6,7,7,8,8,9,9,10,10,11,11,12,12,13,13,14,14,15,15,16,16,17,17,18,18,19,19,20,20,21,21,22,22,23,23,24,24,25,25,26,26,27,27,28,28,29,29,31,31,32,32,33,33,34,34,35,35,36,36,37,37,38,38,39,39,40,40,41,41,42,42,43,43,44,44,45,45,46,46,47,47,48,48,49,49,50,50,51,51,52,52,53,53,54,54,55,55,56,56,57,57,58,58,59,59,60,60],"right_children":[2,4,6,8,10,12,14,16,18,20,22,24,26,28,30,32,34,36,38,40,42,44,46,48,50,52,54,56,58,60,-1,62,64,66,68,70,72,74,76,78,80,82,84,86,88,90,92,94,96,98,100,102,104,106,108,110,112,114,116,118,120,-1,-1,-1,-1,-1,-1,-1,-1,-1,-1,-1,-1,-1,-1,-1,-1,-1,-1,-1,-1,-1,-1,-1,-1,-1,-1,-1,-1,-1,-1,-1,-1,-1,-1,-1,-1,-1,-1,-1,-1,-1,-1,-1,-1,-1,-1,-1,-1,-1,-1,-1,-1,-1,-1,-1,-1,-1,-1,-1,-1],"split_conditions":[6.988891E4,1.8879088E4,3.4313078E5,6E1,3.732E4,7.5E4,1.314483E1,9.424366E3,2.02E2,6.532E3,8.129902E4,1.3901E2,1.1980432E1,1.224324E4,6E0,1E0,1E0,1E0,1E0,1E0,1.6E1,4.19E1,2.88288E5,1E0,2.5E1,7.35E1,2.2827845E5,-6.121038E-2,6.995752E4,6.1900552E-2,-1.261505E-3,1E0,2E0,5.659E1,2.25E4,1.904E3,1.4858331E4,3E0,1.83E2,7.241024E-1,9E0,7.109E-1,1.1582818E0,1.4691E2,1E0,5E0,1.3195176E0,2E0,6.2780945E4,8.019802E-1,4.2E1,8.253E-1,1E0,8.272E1,3.3E1,5E0,6.2E1,6E0,2E3,4E0,1.8762E4,-5.9263982E-2,-3.881937E-2,-9.462122E-3,-4.006998E-2,-4.7819328E-2,-2.8538484E-2,-1.7986568E-2,6.205215E-2,1.12495795E-1,-1.5771013E-2,-1.5967434E-2,2.6127068E-2,-8.9713804E-2,-4.3288108E-2,-2.8784541E-2,3.904685E-2,-7.152807E-3,-2.4997877E-2,-3.7110772E-3,2.6065363E-2,7.222055E-3,-1.7955706E-2,2.7139992E-2,8.244933E-2,6.131346E-3,-2.8204007E-2,8.017257E-3,2.4105938E-2,4.046021E-2,2.2642242E-3,1.0590569E-1,3.291594E-2,2.277377E-2,-4.1514844E-2,2.3329882E-2,5.1983323E-2,2.3117553E-2,-5.663049E-3,-5.7014104E-2,1.4796391E-2,2.8578265E-2,6.669953E-2,3.302953E-2,5.550858E-2,3.1239305E-2,5.8585145E-2,-1.8199775E-4,7.105838E-2,2.5645595E-3,1.6023874E-2,5.5237938E-2,7.908337E-2,-2.632298E-3,2.9575555E-2,1.1487869E-1,5.603835E-2,7.160314E-2,1.7316021E-2,9.996077E-2,1.2545465E-1],"split_indices":[46,43,46,12,45,45,47,3,60,14,43,55,47,14,63,22,27,22,21,27,0,13,45,27,38,12,43,8,45,42,0,18,62,54,6,15,43,40,13,53,22,57,53,55,27,62,35,40,43,2,21,57,27,55,13,0,16,0,15,23,14,0,0,0,0,0,0,0,0,0,0,0,0,0,0,0,0,0,0,0,0,0,0,0,0,0,0,0,0,0,0,0,0,0,0,0,0,0,0,0,0,0,0,0,0,0,0,0,0,0,0,0,0,0,0,0,0,0,0,0,0],"split_type":[0,0,0,0,0,0,0,0,0,0,0,0,0,0,0,0,0,0,0,0,0,0,0,0,0,0,0,0,0,0,0,0,0,0,0,0,0,0,0,0,0,0,0,0,0,0,0,0,0,0,0,0,0,0,0,0,0,0,0,0,0,0,0,0,0,0,0,0,0,0,0,0,0,0,0,0,0,0,0,0,0,0,0,0,0,0,0,0,0,0,0,0,0,0,0,0,0,0,0,0,0,0,0,0,0,0,0,0,0,0,0,0,0,0,0,0,0,0,0,0,0],"sum_hessian":[5.82E3,4.5578257E3,1.2621744E3,2.757946E3,1.7998796E3,9.307637E2,3.3141074E2,1.6289949E3,1.1289512E3,1.3036759E3,4.9620364E2,2.4663846E2,6.8412524E2,1.4492621E2,1.8648453E2,6.639625E2,9.6503235E2,7.61058E2,3.6789313E2,1.0702959E3,2.3338002E2,3.9179913E2,1.0440451E2,1.9695844E2,4.9680023E1,3.198015E2,3.6432373E2,1.00771645E2,4.4154564E1,1.8498904E2,1.4954888E0,5.4814294E2,1.1581955E2,5.4716077E2,4.1787152E2,6.274421E2,1.3361589E2,1.1017057E2,2.5772256E2,5.099492E2,5.6034674E2,1.4770688E2,8.567315E1,7.7709236E1,3.140899E2,9.531386E1,9.090655E0,5.3011387E1,1.4394705E2,3.902524E1,1.0654779E1,1.24067345E2,1.9573416E2,1.9925049E2,1.6507326E2,3.866273E0,9.690537E1,4.922449E0,3.9232117E1,1.4949732E1,1.700393E2,3.472392E2,2.0090376E2,5.9360687E1,5.6458862E1,1.6204877E2,3.8511203E2,4.122953E2,5.576262E0,2.2278194E0,6.252143E2,4.8278088E1,8.533781E1,3.58681E1,7.430247E1,2.4179355E2,1.5929001E1,2.902103E2,2.1973888E2,5.171407E2,4.3206017E1,1.18742424E2,2.8964447E1,7.903265E1,6.6404943E0,6.1876045E1,1.583319E1,1.16358215E2,1.9773169E2,9.029377E1,5.0200863E0,7.812352E0,1.2783029E0,4.342653E1,9.584855E0,4.9558323E1,9.4388725E1,1.7169065E1,2.1856176E1,9.256284E0,1.3984963E0,1.0947369E2,1.4593663E1,4.8517403E1,1.4721675E2,1.8024382E1,1.812261E2,2.349409E0,1.6272385E2,1.3900107E0,2.476262E0,6.590891E1,3.0996456E1,3.4646616E0,1.4577873E0,2.7491514E1,1.1740602E1,1.3738991E1,1.2107412E0,1.1790773E2,5.213158E1],"tree_param":{"num_deleted":"0","num_feature":"66","num_nodes":"121","size_leaf_vector":"1"}},{"base_weights":[1.4295569E-3,-3.6085516E-1,9.343496E-1,-6.1099696E-1,-1.0508705E-1,6.182895E-1,1.4680394E0,-1.0649472E0,-5.5226076E-1,-3.5030502E-1,1.1604352E-2,2.5975007E-1,8.8152915E-1,1.190796E0,1.893125E0,-3.9771074E-1,-1.1659609E0,-6.2559026E-1,-2.0942171E-1,-4.5608616E-1,-1.3813904E-1,2.2945793E-1,-9.65493E-2,1.0563975E-2,4.9441817E-1,5.9188515E-1,9.864712E-1,1.2323128E0,5.1229197E-1,2.8588024E-1,1.928414E0,-6.722372E-1,5.440928E-1,-1.9583759E0,-1.0611748E0,-3.9950952E-1,-7.382753E-1,1.025362E0,-2.7662534E-1,-7.532615E-1,-3.914019E-1,2.1759494E-1,-2.7994338E-1,2.1262182E-1,1.2243513E-1,-1.4465027E-1,3.8518232E-1,2.644337E-1,-2.4716225E-1,1.7988423E-1,6.1677086E-1,4.6158355E-1,7.474667E-1,9.185312E-1,1.2486068E0,-2.9461294E-1,1.249111E0,-1.8399204E-1,7.8731257E-1,-2.3318343E-1,3.4272935E-2,1.7777189E0,2.2541196E0,-2.0404449E-3,-4.1132618E-2,-2.0666456E-2,5.013767E-2,-1.1251023E-1,-5.2384205E-2,-3.7538126E-2,-5.6893386E-2,1.0392478E-2,-2.2267839E-2,-3.2743614E-2,-5.7585675E-2,-1.1472973E-2,6.551457E-2,-5.456361E-2,-9.885891E-3,-7.5076446E-2,-2.5995797E-2,-8.297486E-3,-2.7431255E-2,-4.729E-3,3.0288054E-2,6.705762E-2,-1.5057419E-2,3.0544407E-3,2.010054E-2,-1.4158725E-2,-3.001099E-4,4.4281087E-3,3.4768503E-2,3.4942713E-2,5.908402E-3,-4.8549917E-2,-6.18375E-3,-3.2266248E-2,1.4265797E-2,2.1328483E-2,4.1129265E-2,3.86078E-2,1.8152533E-2,3.174354E-2,5.603673E-2,3.492106E-2,5.070445E-2,4.529796E-2,7.382604E-2,2.2663202E-3,-3.1325556E-2,5.5853695E-2,7.093261E-2,2.1297273E-3,-2.128634E-2,1.4993055E-3,4.9474236E-2,-1.4493746E-2,-2.7073647E-3,7.6585494E-2,1.0123775E-1,3.4393203E-2,1.1463455E-1],"categories":[],"categories_nodes":[],"categories_segments":[],"categories_sizes":[],"default_left":[1,1,0,0,0,1,0,0,0,1,0,0,0,1,0,0,0,0,0,0,0,0,1,0,0,0,1,0,0,0,1,0,0,1,0,0,0,1,0,0,0,0,0,1,0,0,0,0,0,0,1,0,0,0,0,0,0,1,0,0,0,0,0,0,0,0,0,0,0,0,0,0,0,0,0,0,0,0,0,0,0,0,0,0,0,0,0,0,0,0,0,0,0,0,0,0,0,0,0,0,0,0,0,0,0,0,0,0,0,0,0,0,0,0,0,0,0,0,0,0,0,0,0],"id":12,"left_children":[1,3,5,7,9,11,13,15,17,19,21,23,25,27,29,31,33,35,37,39,41,43,45,47,49,51,53,55,57,59,61,63,65,67,69,71,73,75,77,79,81,83,85,87,-1,89,91,93,95,97,99,101,103,105,107,109,111,113,115,117,-1,119,121,-1,-1,-1,-1,-1,-1,-1,-1,-1,-1,-1,-1,-1,-1,-1,-1,-1,-1,-1,-1,-1,-1,-1,-1,-1,-1,-1,-1,-1,-1,-1,-1,-1,-1,-1,-1,-1,-1,-1,-1,-1,-1,-1,-1,-1,-1,-1,-1,-1,-1,-1,-1,-1,-1,-1,-1,-1,-1,-1,-1],"loss_changes":[1.9677343E3,2.6822986E2,2.7378186E2,5.593457E1,5.9369743E1,9.646567E1,6.9043945E1,1.5832764E1,4.7109497E1,1.4950722E1,3.31659E1,2.5441074E1,1.736023E1,9.759216E0,1.2897644E1,8.977836E0,1.5315613E1,3.91286E1,2.7883453E1,8.277794E0,1.1360498E1,1.6926811E1,2.185374E1,1.3941011E1,8.512775E0,2.888565E0,6.5440063E0,9.26532E0,4.54538E0,1.4599497E0,7.3724976E0,2.4584723E0,3.95851E0,3.8302078E0,3.6021576E0,1.4486717E1,3.4815918E1,6.514637E0,2.011143E1,1.294976E1,1.2964867E1,7.8616476E0,5.9243765E0,1.3307276E1,0E0,1.643949E1,7.821291E0,6.7365284E0,9.332655E0,5.766961E0,5.948406E0,2.4560547E0,2.2761078E0,6.584778E0,5.3865356E0,5.455637E-1,6.1002197E0,4.1893E-1,2.5215826E0,1.9551516E-2,0E0,6.819519E0,2.6281433E0,0E0,0E0,0E0,0E0,0E0,0E0,0E0,0E0,0E0,0E0,0E0,0E0,0E0,0E0,0E0,0E0,0E0,0E0,0E0,0E0,0E0,0E0,0E0,0E0,0E0,0E0,0E0,0E0,0E0,0E0,0E0,0E0,0E0,0E0,0E0,0E0,0E0,0E0,0E0,0E0,0E0,0E0,0E0,0E0,0E0,0E0,0E0,0E0,0E0,0E0,0E0,0E0,0E0,0E0,0E0,0E0,0E0,0E0,0E0,0E0],"parents":[2147483647,0,0,1,1,2,2,3,3,4,4,5,5,6,6,7,7,8,8,9,9,10,10,11,11,12,12,13,13,14,14,15,15,16,16,17,17,18,18,19,19,20,20,21,21,22,22,23,23,24,24,25,25,26,26,27,27,28,28,29,29,30,30,31,31,32,32,33,33,34,34,35,35,36,36,37,37,38,38,39,39,40,40,41,41,42,42,43,43,45,45,46,46,47,47,48,48,49,49,50,50,51,51,52,52,53,53,54,54,55,55,56,56,57,57,58,58,59,59,61,61,62,62],"right_children":[2,4,6,8,10,12,14,16,18,20,22,24,26,28,30,32,34,36,38,40,42,44,46,48,50,52,54,56,58,60,62,64,66,68,70,72,74,76,78,80,82,84,86,88,-1,90,92,94,96,98,100,102,104,106,108,110,112,114,116,118,-1,120,122,-1,-1,-1,-1,-1,-1,-1,-1,-1,-1,-1,-1,-1,-1,-1,-1,-1,-1,-1,-1,-1,-1,