{"learner":{"attributes":{"best_iteration":"143","best_score":"0.5315971358262975","scikit_learn":"{\"_estimator_type\": \"regressor\"}"},"feature_names":["artist_prior_lots_total","artist_prior_lots_sold","artist_sell_through_rate","artist_avg_price","artist_median_price","artist_max_price","artist_min_price","artist_price_std","artist_price_trend","artist_avg_estimate_accuracy","artist_years_in_market","artist_days_since_last_sale","artist_desirability_score","height_cm","width_cm","surface_area_cm2","year_created","artwork_age","artist_age_at_creation","artist_deceased","is_signed","is_dated","provenance_count","literature_count","exhibition_count","has_provenance","has_literature","has_exhibitions","estimate_midpoint","estimate_spread","log_estimate_mid","is_live_auction","is_spring_sale","is_fall_sale","auction_year","market_index","artist_recent_avg_price","artist_recent_median_price","artist_recent_max_price","artist_momentum","artist_price_velocity","artist_price_per_cm2","artist_recent_lots_12m","artist_premium_trend","auction_house_prestige","provenance_quality","artist_rarity","comp_price","log_comp_price","comp_recency_days","color_richness","brightness","subject_score","palette_score","style_score","medium_category","artist_name_clean","subject","palette","style","title_subject","creation_period"],"feature_types":["float","float","float","float","float","float","float","float","float","float","float","float","float","float","float","float","float","float","float","int","i","i","int","int","int","int","int","int","float","float","float","int","int","int","float","float","float","float","float","float","float","float","float","float","int","int","float","float","float","float","float","float","float","float","float","float","float","float","float","float","float","float"],"gradient_booster":{"model":{"cats":{"enc":[],"feature_segments":[],"sorted_idx":[]},"gbtree_model_param":{"num_parallel_tree":"1","num_trees":"244"},"iteration_indptr":[0,1,2,3,4,5,6,7,8,9,10,11,12,13,14,15,16,17,18,19,20,21,22,23,24,25,26,27,28,29,30,31,32,33,34,35,36,37,38,39,40,41,42,43,44,45,46,47,48,49,50,51,52,53,54,55,56,57,58,59,60,61,62,63,64,65,66,67,68,69,70,71,72,73,74,75,76,77,78,79,80,81,82,83,84,85,86,87,88,89,90,91,92,93,94,95,96,97,98,99,100,101,102,103,104,105,106,107,108,109,110,111,112,113,114,115,116,117,118,119,120,121,122,123,124,125,126,127,128,129,130,131,132,133,134,135,136,137,138,139,140,141,142,143,144,145,146,147,148,149,150,151,152,153,154,155,156,157,158,159,160,161,162,163,164,165,166,167,168,169,170,171,172,173,174,175,176,177,178,179,180,181,182,183,184,185,186,187,188,189,190,191,192,193,194,195,196,197,198,199,200,201,202,203,204,205,206,207,208,209,210,211,212,213,214,215,216,217,218,219,220,221,222,223,224,225,226,227,228,229,230,231,232,233,234,235,236,237,238,239,240,241,242,243,244],"tree_info":[0,0,0,0,0,0,0,0,0,0,0,0,0,0,0,0,0,0,0,0,0,0,0,0,0,0,0,0,0,0,0,0,0,0,0,0,0,0,0,0,0,0,0,0,0,0,0,0,0,0,0,0,0,0,0,0,0,0,0,0,0,0,0,0,0,0,0,0,0,0,0,0,0,0,0,0,0,0,0,0,0,0,0,0,0,0,0,0,0,0,0,0,0,0,0,0,0,0,0,0,0,0,0,0,0,0,0,0,0,0,0,0,0,0,0,0,0,0,0,0,0,0,0,0,0,0,0,0,0,0,0,0,0,0,0,0,0,0,0,0,0,0,0,0,0,0,0,0,0,0,0,0,0,0,0,0,0,0,0,0,0,0,0,0,0,0,0,0,0,0,0,0,0,0,0,0,0,0,0,0,0,0,0,0,0,0,0,0,0,0,0,0,0,0,0,0,0,0,0,0,0,0,0,0,0,0,0,0,0,0,0,0,0,0,0,0,0,0,0,0,0,0,0,0,0,0,0,0,0,0,0,0,0,0,0,0,0,0,0,0,0,0,0,0],"trees":[{"base_weights":[-2.3069138E-2,-7.43343E-1,1.9562093E0,-1.7106124E0,-3.023237E-1,1.4446939E0,3.0576289E0,-2.248364E0,-1.4263841E0,-6.4150065E-1,1.9787034E-1,9.949664E-1,1.7628984E0,2.6896043E0,2.8101444E-1,-2.335813E0,-7.763412E-2,-1.5913556E0,-1.1936458E0,-8.0375516E-1,-3.9608243E-1,6.2877834E-2,4.6486142E-1,4.8908502E-2,1.0948491E0,1.02190435E-1,1.3352463E-1,1.5833376E-1,1.9361572E-1,-2.3149686E-1,-1.4603604E-1,-1.3174039E-1,-1.01267904E-1,-8.842744E-2,-6.435225E-2,-6.0110487E-2,-3.9393708E-2,-3.390855E-2,-9.459204E-3,-1.3978262E-3,1.3250382E-2,3.5535146E-2,8.213299E-3,5.8378447E-2,8.0528E-2],"categories":[],"categories_nodes":[],"categories_segments":[],"categories_sizes":[],"default_left":[0,0,0,0,0,0,0,1,1,0,0,1,0,0,0,0,0,1,0,1,1,0,1,0,0,0,0,0,0,0,0,0,0,0,0,0,0,0,0,0,0,0,0,0,0],"id":0,"left_children":[1,3,5,7,9,11,13,15,17,19,21,23,25,27,-1,29,-1,31,33,35,37,39,41,-1,43,-1,-1,-1,-1,-1,-1,-1,-1,-1,-1,-1,-1,-1,-1,-1,-1,-1,-1,-1,-1],"loss_changes":[4.3577124E3,9.5351025E2,4.5071216E2,1.0030493E2,2.6228452E2,7.5129395E1,9.49563E1,1.6296387E1,1.2804077E1,3.479419E1,2.1645342E1,3.066208E0,1.137616E1,2.4892578E0,0E0,2.323877E1,0E0,5.5255127E-1,2.1433716E0,9.254303E0,9.755772E0,5.027685E0,3.9021301E0,0E0,6.300049E-1,0E0,0E0,0E0,0E0,0E0,0E0,0E0,0E0,0E0,0E0,0E0,0E0,0E0,0E0,0E0,0E0,0E0,0E0,0E0,0E0],"parents":[2147483647,0,0,1,1,2,2,3,3,4,4,5,5,6,6,7,7,8,8,9,9,10,10,11,11,12,12,13,13,15,15,17,17,18,18,19,19,20,20,21,21,22,22,24,24],"right_children":[2,4,6,8,10,12,14,16,18,20,22,24,26,28,-1,30,-1,32,34,36,38,40,42,-1,44,-1,-1,-1,-1,-1,-1,-1,-1,-1,-1,-1,-1,-1,-1,-1,-1,-1,-1,-1,-1],"split_conditions":[3.4725E4,6E3,1.75E5,3E3,1.42875E4,6E4,5.714325E5,2.6E4,1.3932077E0,9.64E3,2.413E4,1.237556E0,1E5,2.5E5,2.8101444E-1,1E3,-7.763412E-2,4.2875E2,4.96E3,1.6356544E0,4.7025967E0,3E0,1.1778E2,4.8908502E-2,2.022E3,1.02190435E-1,1.3352463E-1,1.5833376E-1,1.9361572E-1,-2.3149686E-1,-1.4603604E-1,-1.3174039E-1,-1.01267904E-1,-8.842744E-2,-6.435225E-2,-6.0110487E-2,-3.9393708E-2,-3.390855E-2,-9.459204E-3,-1.3978262E-3,1.3250382E-2,3.5535146E-2,8.213299E-3,5.8378447E-2,8.0528E-2],"split_indices":[28,28,28,28,28,28,28,37,9,28,28,9,28,28,0,28,0,15,28,9,12,44,50,0,34,0,0,0,0,0,0,0,0,0,0,0,0,0,0,0,0,0,0,0,0],"split_type":[0,0,0,0,0,0,0,0,0,0,0,0,0,0,0,0,0,0,0,0,0,0,0,0,0,0,0,0,0,0,0,0,0,0,0,0,0,0,0,0,0,0,0,0,0],"sum_hessian":[3.0568782E3,2.2420261E3,8.1485187E2,7.006415E2,1.5413848E3,5.58126E2,2.567259E2,2.3931718E2,4.6132428E2,9.201391E2,6.2124567E2,2.3399463E2,3.2413138E2,1.9744371E2,5.928217E1,2.196378E2,1.9679377E1,2.64642E2,1.9668228E2,5.4973724E2,3.7040182E2,4.1657346E2,2.0467218E2,7.0184E1,1.6381064E2,1.735435E2,1.5058786E2,8.782793E1,1.0961579E2,2.1429968E1,1.9820784E2,3.4290977E1,2.3035101E2,1.1722975E2,7.945252E1,3.6721988E2,1.825174E2,2.5149463E2,1.18907196E2,2.5174156E2,1.648319E2,1.663421E2,3.8330074E1,6.291912E1,1.0089152E2],"tree_param":{"num_deleted":"0","num_feature":"62","num_nodes":"45","size_leaf_vector":"1"}},{"base_weights":[-4.1997015E-2,-8.4639126E-1,1.5298448E0,-1.6468872E0,-3.879532E-1,8.4877974E-1,2.3738747E0,-2.1851902E0,-1.3366725E0,-7.7443236E-1,-1.462467E-1,6.105469E-1,1.2241255E0,1.9791273E0,3.3005147E0,-2.2111407E-1,-2.0129108E0,-9.9351555E-2,-1.1320509E0,-8.898983E-1,-5.1692706E-1,-3.3981958E-1,1.7331595E-2,4.9557027E-1,1.0490696E0,8.890016E-2,6.1134152E-2,1.7462946E0,1.4760193E-1,1.8959147E-1,2.5184798E-1,-1.10382125E-1,-1.4545716E-1,-8.3874285E-2,-5.6885675E-2,-6.5467946E-2,-4.5331262E-2,-2.5638055E-2,-5.7731286E-2,-3.2269355E-2,-7.0795594E-3,-4.0656845E-3,2.288803E-2,2.4866035E-2,4.411327E-2,8.896123E-2,4.2056497E-2,1.08428165E-1,1.5229362E-1],"categories":[],"categories_nodes":[],"categories_segments":[],"categories_sizes":[],"default_left":[0,0,0,0,0,0,0,0,1,1,0,1,1,0,0,0,0,0,0,0,0,1,1,0,0,0,0,0,0,0,0,0,0,0,0,0,0,0,0,0,0,0,0,0,0,0,0,0,0],"id":1,"left_children":[1,3,5,7,9,11,13,15,17,19,21,23,25,27,29,-1,31,-1,33,35,37,39,41,43,45,-1,-1,47,-1,-1,-1,-1,-1,-1,-1,-1,-1,-1,-1,-1,-1,-1,-1,-1,-1,-1,-1,-1,-1],"loss_changes":[3.8063506E3,7.279691E2,5.8001E2,1.1444495E2,1.1715045E2,4.7582336E1,1.551211E2,4.0502075E1,1.030011E1,1.2210815E1,2.5267723E1,1.5152161E1,3.6171875E0,1.0333984E1,1.4283325E1,0E0,6.857544E0,0E0,3.8475342E0,3.8091736E0,5.220703E0,1.1448975E1,1.12146E1,4.121155E0,5.134041E0,0E0,0E0,3.1100464E0,0E0,0E0,0E0,0E0,0E0,0E0,0E0,0E0,0E0,0E0,0E0,0E0,0E0,0E0,0E0,0E0,0E0,0E0,0E0,0E0,0E0],"parents":[2147483647,0,0,1,1,2,2,3,3,4,4,5,5,6,6,7,7,8,8,9,9,10,10,11,11,12,12,13,13,14,14,16,16,18,18,19,19,20,20,21,21,22,22,23,23,24,24,27,27],"right_children":[2,4,6,8,10,12,14,16,18,20,22,24,26,28,30,-1,32,-1,34,36,38,40,42,44,46,-1,-1,48,-1,-1,-1,-1,-1,-1,-1,-1,-1,-1,-1,-1,-1,-1,-1,-1,-1,-1,-1,-1,-1],"split_conditions":[2.5E4,5.7175E3,8E4,3E3,9.64E3,5E4,2.54E5,1E3,6.048E3,1.6409168E0,1.42875E4,2.0245306E0,5.451E-1,1.466675E5,5.714325E5,-2.2111407E-1,7.9E1,-9.9351555E-2,1.7494079E0,7.68E3,9.5804197E-1,1.638E4,3.78E4,3.4725E4,2E0,8.890016E-2,6.1134152E-2,2.8799452E1,1.4760193E-1,1.8959147E-1,2.5184798E-1,-1.10382125E-1,-1.4545716E-1,-8.3874285E-2,-5.6885675E-2,-6.5467946E-2,-4.5331262E-2,-2.5638055E-2,-5.7731286E-2,-3.2269355E-2,-7.0795594E-3,-4.0656845E-3,2.288803E-2,2.4866035E-2,4.411327E-2,8.896123E-2,4.2056497E-2,1.08428165E-1,1.5229362E-1],"split_indices":[28,28,28,28,28,28,28,28,47,43,28,43,52,28,28,0,18,0,43,28,2,47,47,28,59,0,0,10,0,0,0,0,0,0,0,0,0,0,0,0,0,0,0,0,0,0,0,0,0],"split_type":[0,0,0,0,0,0,0,0,0,0,0,0,0,0,0,0,0,0,0,0,0,0,0,0,0,0,0,0,0,0,0,0,0,0,0,0,0,0,0,0,0,0,0,0,0,0,0,0,0],"sum_hessian":[3.0101746E3,1.991936E3,1.0182386E3,7.237468E2,1.2681892E3,5.650222E2,4.5321634E2,2.617913E2,4.6195554E2,4.8526532E2,7.829238E2,3.4878067E2,2.1624156E2,3.200275E2,1.3318883E2,3.2052956E1,2.2973834E2,2.5534888E2,2.0660666E2,3.3035876E2,1.5490656E2,3.62306E2,4.2061783E2,2.797606E2,6.902009E1,1.5316391E2,6.307766E1,1.6778014E2,1.5224738E2,7.2608376E1,6.0580452E1,8.049076E1,1.4924759E2,1.3605327E2,7.055338E1,2.2111891E2,1.0923985E2,1.1646531E2,3.8441246E1,2.1909818E2,1.4320784E2,3.3602267E2,8.459517E1,1.6806906E2,1.1169151E2,3.808217E1,3.0937916E1,1.4219388E2,2.5586252E1],"tree_param":{"num_deleted":"0","num_feature":"62","num_nodes":"49","size_leaf_vector":"1"}},{"base_weights":[-1.0193995E-3,-7.519767E-1,1.4629027E0,-1.5367827E0,-3.7221497E-1,1.0698992E0,2.6891701E0,-2.0421565E0,-1.2623333E0,-6.725241E-1,-1.62753E-2,7.0472246E-1,1.4999146E0,1.4712605E-1,3.3616283E0,-1.9942246E-1,-1.8980665E0,-1.4100115E0,-1.0211893E0,-7.926899E-1,-4.039234E-1,-1.9157526E-1,1.2656596E-1,4.8153758E-1,9.2693186E-1,1.1898826E0,1.1050825E-1,1.981593E-1,2.5939554E-1,-1.3689628E-1,-1.01408586E-1,-1.0159134E-1,-8.168333E-2,-7.949369E-2,-5.1079415E-2,-6.6561855E-2,-4.1131634E-2,-3.2428633E-2,4.9128435E-3,-4.8843596E-2,-9.584261E-3,-0E0,1.7475959E-2,2.4563096E-2,4.9883872E-2,5.1173713E-2,7.386495E-2,8.763992E-2,5.99503E-2],"categories":[],"categories_nodes":[],"categories_segments":[],"categories_sizes":[],"default_left":[0,0,0,0,0,0,0,0,1,1,1,0,0,0,0,0,1,0,0,0,0,1,0,1,1,0,0,0,0,0,0,0,0,0,0,0,0,0,0,0,0,0,0,0,0,0,0,0,0],"id":2,"left_children":[1,3,5,7,9,11,13,15,17,19,21,23,25,-1,27,-1,29,31,33,35,37,39,41,43,45,47,-1,-1,-1,-1,-1,-1,-1,-1,-1,-1,-1,-1,-1,-1,-1,-1,-1,-1,-1,-1,-1,-1,-1],"loss_changes":[3.4073284E3,6.079197E2,4.9946777E2,8.650586E1,1.4687706E2,1.21528625E2,6.960095E1,2.2126831E1,1.1317322E1,2.228305E1,1.6022509E1,1.9290833E1,1.3208069E1,0E0,5.466919E0,0E0,5.550354E0,7.935791E-1,4.2776337E0,1.5978851E1,1.0046669E1,6.171077E0,6.115976E0,4.918812E0,3.0753174E0,1.0285187E0,0E0,0E0,0E0,0E0,0E0,0E0,0E0,0E0,0E0,0E0,0E0,0E0,0E0,0E0,0E0,0E0,0E0,0E0,0E0,0E0,0E0,0E0,0E0],"parents":[2147483647,0,0,1,1,2,2,3,3,4,4,5,5,6,6,7,7,8,8,9,9,10,10,11,11,12,12,14,14,16,16,17,17,18,18,19,19,20,20,21,21,22,22,23,23,24,24,25,25],"right_children":[2,4,6,8,10,12,14,16,18,20,22,24,26,-1,28,-1,30,32,34,36,38,40,42,44,46,48,-1,-1,-1,-1,-1,-1,-1,-1,-1,-1,-1,-1,-1,-1,-1,-1,-1,-1,-1,-1,-1,-1,-1],"split_conditions":[2.413E4,5.15E3,1.666675E5,2.52E3,1.205E4,6E4,4E5,1E3,1.4157226E0,1.624845E0,1.3591822E0,4E4,8E4,1.4712605E-1,8.5366E5,-1.9942246E-1,1.2927407E0,4.2875E3,4.88E3,7.145E3,5.375679E4,3.714416E-2,1.75E4,1.8064485E0,6.048E4,9.15E1,1.1050825E-1,1.981593E-1,2.5939554E-1,-1.3689628E-1,-1.01408586E-1,-1.0159134E-1,-8.168333E-2,-7.949369E-2,-5.1079415E-2,-6.6561855E-2,-4.1131634E-2,-3.2428633E-2,4.9128435E-3,-4.8843596E-2,-9.584261E-3,-0E0,1.7475959E-2,2.4563096E-2,4.9883872E-2,5.1173713E-2,7.386495E-2,8.763992E-2,5.99503E-2],"split_indices":[28,28,28,28,28,28,28,28,43,43,43,28,28,0,28,0,43,28,28,28,37,46,28,43,47,14,0,0,0,0,0,0,0,0,0,0,0,0,0,0,0,0,0,0,0,0,0,0,0],"split_type":[0,0,0,0,0,0,0,0,0,0,0,0,0,0,0,0,0,0,0,0,0,0,0,0,0,0,0,0,0,0,0,0,0,0,0,0,0,0,0,0,0,0,0,0,0,0,0,0,0],"sum_hessian":[3.0993127E3,2.0492932E3,1.0500195E3,6.6653876E2,1.3827544E3,7.967806E2,2.5323898E2,2.3159602E2,4.3494275E2,7.475752E2,6.3517914E2,4.3339215E2,3.633884E2,1.507218E2,1.0251719E2,2.7690441E1,2.0390558E2,2.6455328E2,1.7038948E2,5.1216034E2,2.3541483E2,2.895694E2,3.4560977E2,2.2021954E2,2.131726E2,1.2916498E2,2.3422342E2,6.3535767E1,3.898142E1,1.3825177E2,6.565382E1,1.5344844E2,1.11104836E2,9.644651E1,7.394296E1,2.283898E2,2.8377057E2,2.0282352E2,3.25913E1,2.0267992E1,2.693014E2,1.7729904E2,1.6831075E2,1.5994759E2,6.0271965E1,1.20461334E2,9.271128E1,8.475843E1,4.440655E1],"tree_param":{"num_deleted":"0","num_feature":"62","num_nodes":"49","size_leaf_vector":"1"}},{"base_weights":[-9.549318E-3,-7.345097E-1,1.378388E0,-1.4713733E0,-3.1940678E-1,9.298489E-1,2.449824E0,-2.3253028E0,-1.3125123E0,-5.797539E-1,4.52601E-3,5.5487454E-1,1.2370644E0,2.1288261E0,2.1989939E-1,-1.998011E-1,-2.0202134E0,-1.5811597E0,-1.1326874E0,-6.2916625E-1,-8.33553E-2,-2.169163E-1,8.797078E-2,4.7894388E-1,9.26637E-1,1.043174E0,9.543828E-2,1.236697E-1,1.5495585E-1,-1.4926346E-1,-9.410877E-2,-1.3487849E-1,-9.586882E-2,-8.465818E-2,-5.528849E-2,-5.9691057E-2,-3.615729E-2,4.6803793E-3,-1.3965523E-2,-4.515508E-3,-2.4712237E-2,-2.3121352E-3,1.2685022E-2,2.200078E-2,4.4349145E-2,3.4542643E-2,7.126195E-2,4.8655707E-2,7.322518E-2],"categories":[],"categories_nodes":[],"categories_segments":[],"categories_sizes":[],"default_left":[0,0,0,0,0,0,0,0,0,1,0,1,0,0,0,0,1,0,1,0,0,0,1,0,0,1,0,0,0,0,0,0,0,0,0,0,0,0,0,0,0,0,0,0,0,0,0,0,0],"id":3,"left_children":[1,3,5,7,9,11,13,15,17,19,21,23,25,27,-1,-1,29,31,33,35,37,39,41,43,45,47,-1,-1,-1,-1,-1,-1,-1,-1,-1,-1,-1,-1,-1,-1,-1,-1,-1,-1,-1,-1,-1,-1,-1],"loss_changes":[3.1267346E3,6.2197253E2,5.06261E2,9.292688E1,1.1116179E2,8.385797E1,7.486145E1,1.3205933E1,2.5276245E1,1.6814209E1,1.0564246E1,7.4355774E0,1.1522522E1,4.3236084E0,0E0,0E0,4.1872864E0,8.847595E0,1.244165E1,1.2823364E1,1.5510281E0,2.9258356E0,5.613E0,6.498337E0,6.6298294E-1,8.4199524E-1,0E0,0E0,0E0,0E0,0E0,0E0,0E0,0E0,0E0,0E0,0E0,0E0,0E0,0E0,0E0,0E0,0E0,0E0,0E0,0E0,0E0,0E0,0E0],"parents":[2147483647,0,0,1,1,2,2,3,3,4,4,5,5,6,6,7,7,8,8,9,9,10,10,11,11,12,12,13,13,16,16,17,17,18,18,19,19,20,20,21,21,22,22,23,23,24,24,25,25],"right_children":[2,4,6,8,10,12,14,16,18,20,22,24,26,28,-1,-1,30,32,34,36,38,40,42,44,46,48,-1,-1,-1,-1,-1,-1,-1,-1,-1,-1,-1,-1,-1,-1,-1,-1,-1,-1,-1,-1,-1,-1,-1],"split_conditions":[1.0126671E1,8.699681E0,1.189593E1,7.467942E0,9.413158E0,1.0819798E1,1.3122365E1,6.908755E0,8.2943E0,2.4779308E0,9.615872E0,2.1916416E0,1.1281951E1,1.2278398E1,2.1989939E-1,-1.998011E-1,5.7E1,9.679468E0,1.4545864E0,8.839421E0,1.3682E2,1E1,2.2E1,1.0455244E1,5.7E1,1.0434256E0,9.543828E-2,1.236697E-1,1.5495585E-1,-1.4926346E-1,-9.410877E-2,-1.3487849E-1,-9.586882E-2,-8.465818E-2,-5.528849E-2,-5.9691057E-2,-3.615729E-2,4.6803793E-3,-1.3965523E-2,-4.515508E-3,-2.4712237E-2,-2.3121352E-3,1.2685022E-2,2.200078E-2,4.4349145E-2,3.4542643E-2,7.126195E-2,4.8655707E-2,7.322518E-2],"split_indices":[30,30,30,30,30,30,30,30,30,43,30,43,30,30,0,0,17,35,43,30,51,22,17,30,17,43,0,0,0,0,0,0,0,0,0,0,0,0,0,0,0,0,0,0,0,0,0,0,0],"split_type":[0,0,0,0,0,0,0,0,0,0,0,0,0,0,0,0,0,0,0,0,0,0,0,0,0,0,0,0,0,0,0,0,0,0,0,0,0,0,0,0,0,0,0,0,0,0,0,0,0],"sum_hessian":[3.107347E3,2.0420098E3,1.0653373E3,7.341207E2,1.307889E3,7.5257025E2,3.1276703E2,1.1265016E2,6.214706E2,7.273157E2,5.8057336E2,3.4163986E2,4.109304E2,2.300535E2,8.271353E1,3.2060474E1,8.058969E1,2.4442267E2,3.770479E2,6.587465E2,6.8569176E1,1.5401782E2,4.2655554E2,2.8784244E2,5.379742E1,2.1295413E2,1.9797626E2,1.03770355E2,1.26283134E2,5.605392E1,2.4535769E1,5.4028893E1,1.9039377E2,2.5282019E2,1.24227715E2,1.5380785E2,5.0493866E2,2.6015682E1,4.255349E1,8.35044E1,7.051343E1,1.8827357E2,2.3828195E2,1.6602577E2,1.2181665E2,1.7317186E1,3.6480236E1,3.837422E1,1.7457991E2],"tree_param":{"num_deleted":"0","num_feature":"62","num_nodes":"49","size_leaf_vector":"1"}},{"base_weights":[1.7336713E-2,-5.542572E-1,1.496981E0,-1.1655368E0,-1.5717857E-1,1.1693245E0,2.520608E0,-1.5843711E0,-9.167318E-1,-4.4960698E-1,1.6601993E-1,8.001122E-1,1.4531987E0,1.4411439E-1,2.0380318E-1,-1.6542284E0,-2.622408E-2,-1.0253831E0,-5.295779E-1,-5.461477E-1,-2.4401236E-1,-0E0,2.9810336E-1,6.8535095E-1,7.031495E-2,1.1917547E0,1.5990293E0,-1.3766025E-1,-9.820176E-2,-7.842139E-2,-5.8716215E-2,-3.9585814E-2,-8.4261694E-5,-4.2446297E-2,-2.4143917E-2,-2.478661E-2,-0E0,-9.481811E-3,8.057656E-3,1.2119401E-2,3.6517765E-2,3.607522E-2,5.6353536E-2,1.0075594E-1,6.8410955E-2,9.204068E-2,1.14846215E-1],"categories":[],"categories_nodes":[],"categories_segments":[],"categories_sizes":[],"default_left":[0,0,0,0,0,0,0,1,1,1,0,1,0,0,0,0,0,1,0,0,1,0,1,0,0,0,1,0,0,0,0,0,0,0,0,0,0,0,0,0,0,0,0,0,0,0,0],"id":4,"left_children":[1,3,5,7,9,11,13,15,17,19,21,23,25,-1,-1,27,-1,29,31,33,35,37,39,41,-1,43,45,-1,-1,-1,-1,-1,-1,-1,-1,-1,-1,-1,-1,-1,-1,-1,-1,-1,-1,-1,-1],"loss_changes":[2.6190425E3,5.397812E2,2.8275354E2,8.713928E1,1.2850873E2,6.494714E1,2.9127563E1,2.370465E1,2.0809174E1,1.2978363E1,1.3746025E1,5.670624E0,9.090515E0,0E0,0E0,1.5898376E1,0E0,5.94223E0,3.5033035E0,6.569702E0,7.4732294E0,4.970538E0,9.198566E0,2.5317383E0,0E0,2.8242035E0,7.2021484E-1,0E0,0E0,0E0,0E0,0E0,0E0,0E0,0E0,0E0,0E0,0E0,0E0,0E0,0E0,0E0,0E0,0E0,0E0,0E0,0E0],"parents":[2147483647,0,0,1,1,2,2,3,3,4,4,5,5,6,6,7,7,8,8,9,9,10,10,11,11,12,12,15,15,17,17,18,18,19,19,20,20,21,21,22,22,23,23,25,25,26,26],"right_children":[2,4,6,8,10,12,14,16,18,20,22,24,26,-1,-1,28,-1,30,32,34,36,38,40,42,-1,44,46,-1,-1,-1,-1,-1,-1,-1,-1,-1,-1,-1,-1,-1,-1,-1,-1,-1,-1,-1,-1],"split_conditions":[1.0455244E1,8.853808E0,1.227101E1,8.193124E0,9.56721E0,1.1156265E1,1.3122365E1,4.712E5,1.7806122E0,1.5675873E0,1E0,1.7237E0,1.1512936E1,1.4411439E-1,2.0380318E-1,7.467942E0,-2.622408E-2,5E3,2.8E0,9.282056E0,1.89E4,9.814438E0,3.78E4,1.0819798E1,7.031495E-2,2.2E3,1.3823805E0,-1.3766025E-1,-9.820176E-2,-7.842139E-2,-5.8716215E-2,-3.9585814E-2,-8.4261694E-5,-4.2446297E-2,-2.4143917E-2,-2.478661E-2,-0E0,-9.481811E-3,8.057656E-3,1.2119401E-2,3.6517765E-2,3.607522E-2,5.6353536E-2,1.0075594E-1,6.8410955E-2,9.204068E-2,1.14846215E-1],"split_indices":[30,30,30,30,30,30,30,38,43,43,31,43,30,0,0,30,0,47,9,30,47,30,47,30,0,6,43,0,0,0,0,0,0,0,0,0,0,0,0,0,0,0,0,0,0,0,0],"split_type":[0,0,0,0,0,0,0,0,0,0,0,0,0,0,0,0,0,0,0,0,0,0,0,0,0,0,0,0,0,0,0,0,0,0,0,0,0,0,0,0,0,0,0,0,0,0,0],"sum_hessian":[3.0940896E3,2.2314368E3,8.6265295E2,8.769125E2,1.3545243E3,6.553625E2,2.0729044E2,3.236403E2,5.5327216E2,7.133127E2,6.412116E2,2.8788916E2,3.6747336E2,1.2881934E2,7.847111E1,3.0437915E2,1.9261118E1,4.2850375E2,1.24768425E2,4.80113E2,2.3319968E2,2.880041E2,3.5320752E2,2.0420837E2,8.368077E1,1.3675092E2,2.3072244E2,8.698572E1,2.1739345E2,1.9930977E2,2.2919398E2,1.0851643E2,1.6251987E1,3.133219E2,1.6679109E2,1.5342793E2,7.977175E1,1.2812126E2,1.5988281E2,2.4616122E2,1.07046295E2,1.1439817E2,8.98102E1,4.147089E1,9.528002E1,9.255994E1,1.381625E2],"tree_param":{"num_deleted":"0","num_feature":"62","num_nodes":"47","size_leaf_vector":"1"}},{"base_weights":[6.3256477E-3,-5.699901E-1,1.2662998E0,-1.2188677E0,-2.606009E-1,9.2979187E-1,2.1585457E0,-1.8435535E0,-1.0837001E0,-4.5766297E-1,7.142932E-2,6.0472214E-1,1.2481223E0,1.9032865E0,1.9228669E-1,-8.766103E-2,-2.0078373E0,-1.324627E0,-9.25892E-1,-5.672939E-1,-2.112838E-1,-5.690262E-3,2.9003286E-1,3.9031073E-1,7.0977104E-1,1.3424546E0,9.606118E-1,1.1892057E-1,1.5289703E-1,-1.472858E-1,-1.0247467E-1,-6.585227E-2,-9.255741E-2,-7.3111475E-2,-4.3945793E-2,-4.121519E-2,-2.2527106E-2,-2.4385205E-2,-2.1614288E-3,4.692287E-3,-1.0945459E-2,1.0333297E-2,3.5430387E-2,1.9043107E-2,3.8620885E-2,3.7126143E-2,6.022992E-2,7.418736E-2,9.721578E-2,4.8980616E-2,7.580173E-2],"categories":[],"categories_nodes":[],"categories_segments":[],"categories_sizes":[],"default_left":[0,0,0,0,0,0,0,0,1,1,1,0,1,0,0,0,1,0,0,0,0,1,0,1,0,1,0,0,0,0,0,0,0,0,0,0,0,0,0,0,0,0,0,0,0,0,0,0,0,0,0],"id":5,"left_children":[1,3,5,7,9,11,13,15,17,19,21,23,25,27,-1,-1,29,31,33,35,37,39,41,43,45,47,49,-1,-1,-1,-1,-1,-1,-1,-1,-1,-1,-1,-1,-1,-1,-1,-1,-1,-1,-1,-1,-1,-1,-1,-1],"loss_changes":[2.2185593E3,4.1825494E2,2.8259387E2,5.1786865E1,9.351003E1,6.927295E1,3.9239258E1,4.0520935E0,1.7382568E1,2.2986252E1,9.286133E0,6.1536255E0,5.5687866E0,1.0359497E0,0E0,0E0,1.2685547E0,7.6971436E-1,1.2874725E1,5.906708E0,7.2124176E0,4.806579E0,3.6288815E0,1.0654125E0,4.4616776E0,2.5167236E0,6.0354614E-1,0E0,0E0,0E0,0E0,0E0,0E0,0E0,0E0,0E0,0E0,0E0,0E0,0E0,0E0,0E0,0E0,0E0,0E0,0E0,0E0,0E0,0E0,0E0,0E0],"parents":[2147483647,0,0,1,1,2,2,3,3,4,4,5,5,6,6,7,7,8,8,9,9,10,10,11,11,12,12,13,13,16,16,17,17,18,18,19,19,20,20,21,21,22,22,23,23,24,24,25,25,26,26],"right_children":[2,4,6,8,10,12,14,16,18,20,22,24,26,28,-1,-1,30,32,34,36,38,40,42,44,46,48,50,-1,-1,-1,-1,-1,-1,-1,-1,-1,-1,-1,-1,-1,-1,-1,-1,-1,-1,-1,-1,-1,-1,-1,-1],"split_conditions":[1.0232107E1,8.651462E0,1.2072547E1,7.6014023E0,9.56721E0,1.1002116E1,1.3255903E1,1.5574E2,3.6E3,1.5876E4,3.78E4,1E0,1.0793E2,5.796E5,1.9228669E-1,-8.766103E-2,3E3,1.0974E2,8.493105E0,9.302099E0,2.023E3,1.3417E2,8.238193E0,3.6382855E4,4.999175E-1,7.282683E0,1.1324196E1,1.1892057E-1,1.5289703E-1,-1.472858E-1,-1.0247467E-1,-6.585227E-2,-9.255741E-2,-7.3111475E-2,-4.3945793E-2,-4.121519E-2,-2.2527106E-2,-2.4385205E-2,-2.1614288E-3,4.692287E-3,-1.0945459E-2,1.0333297E-2,3.5430387E-2,1.9043107E-2,3.8620885E-2,3.7126143E-2,6.022992E-2,7.418736E-2,9.721578E-2,4.8980616E-2,7.580173E-2],"split_indices":[30,30,30,30,30,30,30,51,47,47,47,19,51,47,0,0,37,51,30,30,34,51,10,3,29,10,30,0,0,0,0,0,0,0,0,0,0,0,0,0,0,0,0,0,0,0,0,0,0,0,0],"split_type":[0,0,0,0,0,0,0,0,0,0,0,0,0,0,0,0,0,0,0,0,0,0,0,0,0,0,0,0,0,0,0,0,0,0,0,0,0,0,0,0,0,0,0,0,0,0,0,0,0,0,0],"sum_hessian":[3.05288E3,2.0941602E3,9.587198E2,6.74159E2,1.4200012E3,6.980803E2,2.6063943E2,1.1690097E2,5.57258E2,8.936777E2,5.2632355E2,3.4832684E2,3.4975348E2,1.961332E2,6.450623E1,3.1013535E1,8.5887436E1,2.1548453E2,3.4177347E2,6.140262E2,2.7965146E2,3.8463803E2,1.416855E2,1.19780235E2,2.2854662E2,2.5821277E2,9.154071E1,1.5699452E2,3.9138668E1,5.6054028E1,2.9833405E1,4.09884E1,1.7449614E2,2.022987E2,1.3947476E2,4.9352493E2,1.2050129E2,1.4505962E2,1.3459184E2,2.54074E2,1.3056401E2,9.544404E1,4.6241463E1,8.314834E1,3.66319E1,1.3411977E2,9.442685E1,9.503845E1,1.6317433E2,4.53826E1,4.6158108E1],"tree_param":{"num_deleted":"0","num_feature":"62","num_nodes":"51","size_leaf_vector":"1"}},{"base_weights":[-3.5581798E-3,-4.9797234E-1,1.3376324E0,-9.3583006E-1,-7.924656E-2,9.7680724E-1,2.1330795E0,-1.3954654E0,-7.456319E-1,-2.8576854E-1,1.5094891E-1,7.7448314E-1,1.3101791E0,1.8765551E0,1.8625514E-1,-1.4513329E0,-1.2475024E-2,-7.93485E-1,-1.5531231E-1,-4.2949098E-1,-1.4684379E-1,-0E0,2.9858214E-1,9.338948E-1,5.808506E-1,6.2723935E-2,9.219384E-2,1.1093665E-1,1.3988715E-1,-1.2619545E-1,-8.362409E-2,-7.0213504E-2,-4.8318222E-2,-1.72867E-2,4.3171793E-3,-3.472922E-2,-1.759824E-2,-1.3993381E-2,4.1877087E-3,-2.4266915E-2,4.5412863E-3,1.2315916E-2,3.470373E-2,5.150564E-2,7.422698E-2,2.639472E-2,4.692547E-2],"categories":[],"categories_nodes":[],"categories_segments":[],"categories_sizes":[],"default_left":[0,0,0,0,0,0,0,1,1,1,0,1,1,0,0,0,0,0,0,0,1,1,1,1,0,0,0,0,0,0,0,0,0,0,0,0,0,0,0,0,0,0,0,0,0,0,0],"id":6,"left_children":[1,3,5,7,9,11,13,15,17,19,21,23,25,27,-1,29,-1,31,33,35,37,39,41,43,45,-1,-1,-1,-1,-1,-1,-1,-1,-1,-1,-1,-1,-1,-1,-1,-1,-1,-1,-1,-1,-1,-1],"loss_changes":[2.0164309E3,4.0626105E2,2.2951672E2,9.131641E1,5.436285E1,3.465851E1,3.4152344E1,1.8784851E1,2.0370453E1,1.1205654E1,1.1529887E1,8.553818E0,1.9028015E0,1.6646118E0,0E0,2.0229431E1,0E0,9.547699E0,1.683951E0,3.2702484E0,4.3902345E0,6.3354616E0,5.6873302E0,2.4009094E0,2.1030617E0,0E0,0E0,0E0,0E0,0E0,0E0,0E0,0E0,0E0,0E0,0E0,0E0,0E0,0E0,0E0,0E0,0E0,0E0,0E0,0E0,0E0,0E0],"parents":[2147483647,0,0,1,1,2,2,3,3,4,4,5,5,6,6,7,7,8,8,9,9,10,10,11,11,12,12,13,13,15,15,17,17,18,18,19,19,20,20,21,21,22,22,23,23,24,24],"right_children":[2,4,6,8,10,12,14,16,18,20,22,24,26,28,-1,30,-1,32,34,36,38,40,42,44,46,-1,-1,-1,-1,-1,-1,-1,-1,-1,-1,-1,-1,-1,-1,-1,-1,-1,-1,-1,-1,-1,-1],"split_conditions":[1.0455244E1,8.987322E0,1.2154784E1,8.193124E0,9.64866E0,1.1324196E1,1.3255903E1,1.0300689E1,2.3969786E0,1.3505405E0,9.975855E0,3.744E1,4.966461E0,1.2611541E1,1.8625514E-1,7.467942E0,-1.2475024E-2,8.363692E0,1.0211597E1,9.413158E0,7.62E1,9.680344E0,1.711119E0,1.5586293E0,1.0795148E1,6.2723935E-2,9.219384E-2,1.1093665E-1,1.3988715E-1,-1.2619545E-1,-8.362409E-2,-7.0213504E-2,-4.8318222E-2,-1.72867E-2,4.3171793E-3,-3.472922E-2,-1.759824E-2,-1.3993381E-2,4.1877087E-3,-2.4266915E-2,4.5412863E-3,1.2315916E-2,3.470373E-2,5.150564E-2,7.422698E-2,2.639472E-2,4.692547E-2],"split_indices":[30,30,30,30,30,30,30,48,43,9,30,50,10,30,0,30,0,30,48,30,13,35,43,9,30,0,0,0,0,0,0,0,0,0,0,0,0,0,0,0,0,0,0,0,0,0,0],"split_type":[0,0,0,0,0,0,0,0,0,0,0,0,0,0,0,0,0,0,0,0,0,0,0,0,0,0,0,0,0,0,0,0,0,0,0,0,0,0,0,0,0,0,0,0,0,0,0],"sum_hessian":[3.0416663E3,2.2234126E3,8.182538E2,1.0849092E3,1.1385033E3,5.649251E2,2.5332867E2,3.1440268E2,7.7050653E2,6.032939E2,5.352095E2,3.5527325E2,2.0965189E2,1.8597926E2,6.734941E1,2.9928143E2,1.5121267E1,7.103431E2,6.016348E1,2.9097754E2,3.123163E2,2.6947186E2,2.6573758E2,1.897581E2,1.6551515E2,4.0461655E1,1.6919023E2,1.02515144E2,8.346413E1,8.6996994E1,2.1228442E2,1.3838377E2,5.719593E2,4.5089367E1,1.5074114E1,1.7996423E2,1.1101332E2,2.448639E2,6.7452415E1,3.8967564E1,2.305043E2,1.8109259E2,8.4645004E1,1.0686348E2,8.289463E1,7.238453E1,9.3130615E1],"tree_param":{"num_deleted":"0","num_feature":"62","num_nodes":"47","size_leaf_vector":"1"}},{"base_weights":[2.2323756E-2,-5.4450476E-1,1.0533332E0,-1.0910447E0,-2.6664552E-1,7.089485E-1,1.8576815E0,-1.340071E0,-8.5674375E-1,-4.233698E-1,2.1276912E-2,4.84752E-1,1.0200461E0,1.5465691E0,2.3720436E0,-1.4001361E0,-2.8747702E-2,-9.1313833E-1,-3.8372922E-1,-5.227806E-1,-2.2177748E-1,-3.445916E-2,2.4366681E-1,3.7327647E-1,7.113003E-1,8.58709E-1,1.2003642E0,9.130709E-2,1.13406494E-1,1.4211214E-1,1.9534133E-1,-7.666316E-2,-1.1026756E-1,-5.312869E-2,-7.07383E-2,-1.5653076E-3,-4.208633E-2,-4.0827762E-2,-2.7990079E-2,-7.7027776E-3,-3.282849E-2,-5.9724837E-3,9.933425E-3,2.5605388E-2,-0E0,2.0066867E-2,3.8781192E-2,6.436805E-2,3.2791406E-2,6.0405355E-2,3.4868356E-2,4.4659562E-2,8.4514074E-2],"categories":[],"categories_nodes":[],"categories_segments":[],"categories_sizes":[],"default_left":[0,0,0,0,0,0,0,1,1,1,1,1,1,0,0,0,0,0,0,1,1,0,0,0,0,0,0,0,0,0,0,0,0,0,0,0,0,0,0,0,0,0,0,0,0,0,0,0,0,0,0,0,0],"id":7,"left_children":[1,3,5,7,9,11,13,15,17,19,21,23,25,27,29,31,-1,33,35,37,39,41,43,45,47,49,51,-1,-1,-1,-1,-1,-1,-1,-1,-1,-1,-1,-1,-1,-1,-1,-1,-1,-1,-1,-1,-1,-1,-1,-1,-1,-1],"loss_changes":[1.8376013E3,3.0578534E2,3.047942E2,3.604956E1,6.1330017E1,5.225241E1,4.5841064E1,1.4888855E1,7.4608765E0,1.6419968E1,6.149938E0,9.9146805E0,6.003357E0,2.3428345E-1,5.890564E0,1.446106E1,0E0,2.3294067E0,2.7790399E0,3.7952118E0,7.591941E0,3.714726E0,3.522902E0,3.349987E0,5.8903046E0,6.7056274E-1,2.329712E0,0E0,0E0,0E0,0E0,0E0,0E0,0E0,0E0,0E0,0E0,0E0,0E0,0E0,0E0,0E0,0E0,0E0,0E0,0E0,0E0,0E0,0E0,0E0,0E0,0E0,0E0],"parents":[2147483647,0,0,1,1,2,2,3,3,4,4,5,5,6,6,7,7,8,8,9,9,10,10,11,11,12,12,13,13,14,14,15,15,17,17,18,18,19,19,20,20,21,21,22,22,23,23,24,24,25,25,26,26],"right_children":[2,4,6,8,10,12,14,16,18,20,22,24,26,28,30,32,-1,34,36,38,40,42,44,46,48,50,52,-1,-1,-1,-1,-1,-1,-1,-1,-1,-1,-1,-1,-1,-1,-1,-1,-1,-1,-1,-1,-1,-1,-1,-1,-1,-1],"split_conditions":[2.5E4,6E3,1.466675E5,3.615E3,1.35E4,6E4,4E5,4E5,2.87E2,1.521717E4,3.78E4,5.628E4,2.375E5,2.15E5,1.25E6,1.993E3,-2.8747702E-2,1.992E3,1.967E3,1.875E4,1.3748E2,1E0,9E0,4.445E4,5E0,1.5E2,7E4,9.130709E-2,1.13406494E-1,1.4211214E-1,1.9534133E-1,-7.666316E-2,-1.1026756E-1,-5.312869E-2,-7.07383E-2,-1.5653076E-3,-4.208633E-2,-4.0827762E-2,-2.7990079E-2,-7.7027776E-3,-3.282849E-2,-5.9724837E-3,9.933425E-3,2.5605388E-2,-0E0,2.0066867E-2,3.8781192E-2,6.436805E-2,3.2791406E-2,6.0405355E-2,3.4868356E-2,4.4659562E-2,8.4514074E-2],"split_indices":[28,28,28,28,28,28,28,38,11,47,47,47,38,28,28,16,0,16,16,38,51,26,22,28,56,13,47,0,0,0,0,0,0,0,0,0,0,0,0,0,0,0,0,0,0,0,0,0,0,0,0,0,0],"split_type":[0,0,0,0,0,0,0,0,0,0,0,0,0,0,0,0,0,0,0,0,0,0,0,0,0,0,0,0,0,0,0,0,0,0,0,0,0,0,0,0,0,0,0,0,0,0,0,0,0,0,0,0,0],"sum_hessian":[3.1421406E3,2.0267433E3,1.1153975E3,6.808746E2,1.3458688E3,7.829188E2,3.3247864E2,3.2595383E2,3.5492072E2,8.7452673E2,4.71342E2,4.5842502E2,3.2449377E2,2.1017282E2,1.223058E2,3.0399655E2,2.195725E1,3.140055E2,4.0915253E1,5.804381E2,2.9408862E2,3.7213007E2,9.921192E1,3.1235297E2,1.4607207E2,1.769768E2,1.4751697E2,1.07113E2,1.0305983E2,8.992073E1,3.238507E1,1.5950623E2,1.4449033E2,1.858305E2,1.2817497E2,1.9289688E1,2.1625565E1,2.9752225E2,2.829159E2,2.159159E2,7.8172714E1,2.9214404E2,7.998604E1,6.3179268E1,3.6032654E1,2.3896971E2,7.338324E1,6.3312138E1,8.275993E1,1.4961557E2,2.7361225E1,2.0377766E1,1.27139206E2],"tree_param":{"num_deleted":"0","num_feature":"62","num_nodes":"53","size_leaf_vector":"1"}},{"base_weights":[-8.627972E-4,-4.441309E-1,1.1579164E0,-9.280601E-1,-1.24209E-1,9.0483415E-1,1.9320866E0,-1.542793E0,-8.0124557E-1,-3.0392534E-1,8.52254E-2,7.0129937E-1,1.1604048E0,1.0692325E-1,1.573774E-1,-1.1458467E0,-1.8332014E0,-9.773558E-1,-6.534402E-1,-4.4912297E-1,-1.6361693E-1,-5.030681E-3,2.460876E-1,5.5525386E-1,8.4473073E-1,1.0700346E0,9.6603684E-2,-5.8295365E-2,-1.2385603E-1,-1.32014E-1,-7.341152E-2,-2.677189E-2,-6.78768E-2,-3.418765E-2,-5.7017412E-2,-3.381189E-2,-1.957203E-2,-6.5064133E-4,-2.411183E-2,1.2593762E-3,-4.1008927E-2,2.221452E-2,-0E0,2.3601545E-2,4.3718923E-2,4.6613E-2,7.6603875E-2,5.9949044E-2,7.816292E-2],"categories":[],"categories_nodes":[],"categories_segments":[],"categories_sizes":[],"default_left":[0,0,0,0,0,0,0,0,0,1,0,0,1,0,0,0,0,0,1,0,1,0,0,0,1,0,0,0,0,0,0,0,0,0,0,0,0,0,0,0,0,0,0,0,0,0,0,0,0],"id":8,"left_children":[1,3,5,7,9,11,13,15,17,19,21,23,25,-1,-1,27,29,31,33,35,37,39,41,43,45,47,-1,-1,-1,-1,-1,-1,-1,-1,-1,-1,-1,-1,-1,-1,-1,-1,-1,-1,-1,-1,-1,-1,-1],"loss_changes":[1.5670299E3,3.4043945E2,1.6039551E2,6.442975E1,5.0465668E1,3.0139587E1,2.1430481E1,1.1703339E1,1.6365906E1,1.3775513E1,9.227979E0,5.306595E0,2.9943542E0,0E0,0E0,7.964676E0,3.6156921E0,5.945404E0,9.279663E0,1.989418E0,1.0866247E1,6.5266037E0,4.536708E0,2.2233238E0,4.7104416E0,3.9476013E-1,0E0,0E0,0E0,0E0,0E0,0E0,0E0,0E0,0E0,0E0,0E0,0E0,0E0,0E0,0E0,0E0,0E0,0E0,0E0,0E0,0E0,0E0,0E0],"parents":[2147483647,0,0,1,1,2,2,3,3,4,4,5,5,6,6,7,7,8,8,9,9,10,10,11,11,12,12,15,15,16,16,17,17,18,18,19,19,20,20,21,21,22,22,23,23,24,24,25,25],"right_children":[2,4,6,8,10,12,14,16,18,20,22,24,26,-1,-1,28,30,32,34,36,38,40,42,44,46,48,-1,-1,-1,-1,-1,-1,-1,-1,-1,-1,-1,-1,-1,-1,-1,-1,-1,-1,-1,-1,-1,-1,-1],"split_conditions":[3.4725E4,7E3,2.134175E5,2.135E3,1.5E4,8E4,5E5,1.973E3,4.2875E3,1.74612E4,2.15E4,2.2857E2,1.242922E1,1.0692325E-1,1.573774E-1,1.8E1,5.6E1,1.0271E2,1.976E3,1.096E4,1.084E2,5.17E2,9E0,4.66675E4,6.537618E0,1.095925E5,9.6603684E-2,-5.8295365E-2,-1.2385603E-1,-1.32014E-1,-7.341152E-2,-2.677189E-2,-6.78768E-2,-3.418765E-2,-5.7017412E-2,-3.381189E-2,-1.957203E-2,-6.5064133E-4,-2.411183E-2,1.2593762E-3,-4.1008927E-2,2.221452E-2,-0E0,2.3601545E-2,4.3718923E-2,4.6613E-2,7.6603875E-2,5.9949044E-2,7.816292E-2],"split_indices":[28,28,28,28,28,28,28,16,28,36,28,51,48,0,0,0,0,51,16,28,51,0,22,28,12,28,0,0,0,0,0,0,0,0,0,0,0,0,0,0,0,0,0,0,0,0,0,0,0],"split_type":[0,0,0,0,0,0,0,0,0,0,0,0,0,0,0,0,0,0,0,0,0,0,0,0,0,0,0,0,0,0,0,0,0,0,0,0,0,0,0,0,0,0,0,0,0,0,0,0,0],"sum_hessian":[3.0517185E3,2.208458E3,8.432605E2,8.767824E2,1.3316758E3,6.377291E2,2.0553137E2,1.4704683E2,7.2973553E2,7.202077E2,6.11468E2,3.5916714E2,2.7856198E2,1.20981415E2,8.454995E1,6.5265625E1,8.1781204E1,3.2728745E2,4.0244812E2,3.4841074E2,3.71797E2,3.863635E2,2.251045E2,1.841043E2,1.7506284E2,2.1832385E2,6.0238132E1,4.971622E1,1.5549409E1,6.532685E1,1.645435E1,2.5644684E1,3.0164276E2,2.443493E2,1.5809882E2,2.4436981E2,1.04040924E2,2.140158E2,1.577812E2,3.7004037E2,1.6323093E1,1.6256456E2,6.253996E1,6.7664444E1,1.1643985E2,1.2356133E2,5.1501503E1,9.1086464E1,1.2723738E2],"tree_param":{"num_deleted":"0","num_feature":"62","num_nodes":"49","size_leaf_vector":"1"}},{"base_weights":[-0E0,-4.6680275E-1,9.062767E-1,-8.5114944E-1,-1.7346954E-1,5.6556493E-1,1.5186312E0,-1.060989E0,-6.0765374E-1,-3.6337668E-1,-2.9571969E-2,3.930173E-1,8.9282477E-1,1.2020625E0,1.9777263E0,-1.4405115E0,-9.48757E-1,-7.784655E-1,-4.8582324E-1,-2.6134956E-1,-5.055111E-1,-1.6253857E-1,9.752201E-2,3.5631493E-1,5.934984E-2,4.363046E-2,1.0522518E0,8.2407214E-2,5.1956814E-2,1.7620112E0,1.6583575E-1,-1.087124E-1,-5.8468696E-2,-5.351621E-2,-7.59884E-2,-4.7023628E-2,-8.929306E-2,-2.4672143E-2,-4.7552377E-2,-2.630225E-2,-9.077019E-3,-3.6573026E-2,-1.4849414E-2,-8.4839845E-3,-4.8034064E-2,-6.2364354E-3,1.1910084E-2,1.6046138E-2,3.0332576E-2,4.8799016E-2,7.834775E-2,9.805932E-2,1.3143294E-1],"categories":[],"categories_nodes":[],"categories_segments":[],"categories_sizes":[],"default_left":[0,0,0,0,0,0,0,0,0,1,1,1,0,1,0,1,1,0,1,1,1,0,0,0,0,0,0,0,0,0,0,0,0,0,0,0,0,0,0,0,0,0,0,0,0,0,0,0,0,0,0,0,0],"id":9,"left_children":[1,3,5,7,9,11,13,15,17,19,21,23,25,27,29,31,33,35,37,39,41,43,45,47,-1,-1,49,-1,-1,51,-1,-1,-1,-1,-1,-1,-1,-1,-1,-1,-1,-1,-1,-1,-1,-1,-1,-1,-1,-1,-1,-1,-1],"loss_changes":[1.3171365E3,2.2998114E2,2.1751636E2,4.2602295E1,3.1337578E1,3.6541656E1,4.901892E1,1.602887E1,6.641983E0,6.0791245E0,1.1405071E1,6.327446E0,5.9913177E0,1.7437744E-1,8.530334E0,7.0302887E0,7.0676575E0,3.3216019E0,4.857418E0,4.1983547E0,1.3769493E0,5.253954E0,5.387886E0,3.8148155E0,0E0,0E0,2.2345123E0,0E0,0E0,4.028015E-1,0E0,0E0,0E0,0E0,0E0,0E0,0E0,0E0,0E0,0E0,0E0,0E0,0E0,0E0,0E0,0E0,0E0,0E0,0E0,0E0,0E0,0E0,0E0],"parents":[2147483647,0,0,1,1,2,2,3,3,4,4,5,5,6,6,7,7,8,8,9,9,10,10,11,11,12,12,13,13,14,14,15,15,16,16,17,17,18,18,19,19,20,20,21,21,22,22,23,23,26,26,29,29],"right_children":[2,4,6,8,10,12,14,16,18,20,22,24,26,28,30,32,34,36,38,40,42,44,46,48,-1,-1,50,-1,-1,52,-1,-1,-1,-1,-1,-1,-1,-1,-1,-1,-1,-1,-1,-1,-1,-1,-1,-1,-1,-1,-1,-1,-1],"split_conditions":[2.413E4,6.9E3,1.24E5,4.17E3,1.096E4,6E4,2.54E5,1.75E3,2.022E3,1.183E2,1.625E4,1.5E5,5.3E1,1.3098E2,8.5366E5,5.9E1,1.2385E2,2.59E2,1.993E3,1.008E4,8.93321E3,5.44E2,-4.2631835E-2,3.4725E4,5.934984E-2,4.363046E-2,1.1726E2,8.2407214E-2,5.1956814E-2,4.5E5,1.6583575E-1,-1.087124E-1,-5.8468696E-2,-5.351621E-2,-7.59884E-2,-4.7023628E-2,-8.929306E-2,-2.4672143E-2,-4.7552377E-2,-2.630225E-2,-9.077019E-3,-3.6573026E-2,-1.4849414E-2,-8.4839845E-3,-4.8034064E-2,-6.2364354E-3,1.1910084E-2,1.6046138E-2,3.0332576E-2,4.8799016E-2,7.834775E-2,9.805932E-2,1.3143294E-1],"split_indices":[28,28,28,28,28,28,28,28,34,51,47,47,17,51,28,17,51,56,16,47,6,0,40,28,0,0,50,0,0,47,0,0,0,0,0,0,0,0,0,0,0,0,0,0,0,0,0,0,0,0,0,0,0],"split_type":[0,0,0,0,0,0,0,0,0,0,0,0,0,0,0,0,0,0,0,0,0,0,0,0,0,0,0,0,0,0,0,0,0,0,0,0,0,0,0,0,0,0,0,0,0,0,0,0,0,0,0,0,0],"sum_hessian":[3.1112925E3,2.0529526E3,1.0583401E3,8.861018E2,1.1668507E3,6.821179E2,3.7622214E2,4.7188657E2,4.1421524E2,4.984203E2,6.684304E2,4.502114E2,2.3190656E2,2.256058E2,1.5061633E2,1.0342406E2,3.6846252E2,1.664406E2,2.4777466E2,2.9680826E2,2.0161203E2,3.320552E2,3.3637518E2,4.2286197E2,2.734941E1,9.797572E1,1.3393083E2,2.0325822E2,2.2347584E1,1.0976187E2,4.0854458E1,7.421418E1,2.9209883E1,2.1721805E2,1.5124448E2,1.5102965E2,1.5410956E1,1.7013094E2,7.7643715E1,1.3703394E2,1.5977432E2,1.6939217E2,3.221987E1,3.1552072E2,1.653448E1,9.534125E1,2.4103394E2,2.0392267E2,2.1893932E2,4.2154564E1,9.177626E1,5.1472717E1,5.828915E1],"tree_param":{"num_deleted":"0","num_feature":"62","num_nodes":"53","size_leaf_vector":"1"}},{"base_weights":[1.6535861E-2,-3.723997E-1,1.0494763E0,-6.8296736E-1,4.171304E-3,8.0638814E-1,1.6740689E0,-1.1019167E0,-5.406275E-1,-9.7235106E-2,2.446521E-1,6.3125706E-1,9.579465E-1,1.5301241E0,1.6506802E-1,-1.1568737E0,-0E0,-7.033484E-1,-4.2677063E-1,-2.1912257E-1,3.7155572E-2,8.6198084E-2,3.5489377E-1,7.1037424E-1,4.419378E-1,5.805334E-1,1.0327736E0,9.0815976E-2,1.1745646E-1,-9.622073E-2,-6.664891E-2,-4.837239E-2,-4.3075504E-3,-3.229938E-2,-1.6567722E-2,-2.2247192E-2,-6.6121225E-3,-1.1399843E-2,6.8823737E-3,1.019079E-2,-3.5155728E-4,2.7820988E-2,-0E0,3.380898E-2,5.202537E-2,3.358452E-2,1.0268961E-2,1.6208503E-2,4.5188922E-2,5.4132495E-2,7.3499605E-2],"categories":[],"categories_nodes":[],"categories_segments":[],"categories_sizes":[],"default_left":[0,0,0,0,0,1,0,1,0,0,1,1,0,0,0,0,0,0,1,1,0,0,0,0,0,0,0,0,0,0,0,0,0,0,0,0,0,0,0,0,0,0,0,0,0,0,0,0,0,0,0],"id":10,"left_children":[1,3,5,7,9,11,13,15,17,19,21,23,25,27,-1,29,-1,31,33,35,37,39,41,43,45,47,49,-1,-1,-1,-1,-1,-1,-1,-1,-1,-1,-1,-1,-1,-1,-1,-1,-1,-1,-1,-1,-1,-1,-1,-1],"loss_changes":[1.196563E3,2.5369266E2,1.19535095E2,6.810834E1,2.4001648E1,1.3076263E1,1.8675598E1,1.6643005E1,1.4712891E1,1.1436038E1,4.485794E0,2.3861237E0,6.173645E0,1.8833008E0,0E0,8.455048E0,0E0,4.390808E0,4.439766E0,4.3867283E0,4.3317494E0,9.8576117E-1,3.7784634E0,7.382355E-1,6.3819313E-1,4.6232605E-1,8.657837E-1,0E0,0E0,0E0,0E0,0E0,0E0,0E0,0E0,0E0,0E0,0E0,0E0,0E0,0E0,0E0,0E0,0E0,0E0,0E0,0E0,0E0,0E0,0E0,0E0],"parents":[2147483647,0,0,1,1,2,2,3,3,4,4,5,5,6,6,7,7,8,8,9,9,10,10,11,11,12,12,13,13,15,15,17,17,18,18,19,19,20,20,21,21,22,22,23,23,24,24,25,25,26,26],"right_children":[2,4,6,8,10,12,14,16,18,20,22,24,26,28,-1,30,-1,32,34,36,38,40,42,44,46,48,50,-1,-1,-1,-1,-1,-1,-1,-1,-1,-1,-1,-1,-1,-1,-1,-1,-1,-1,-1,-1,-1,-1,-1,-1],"split_conditions":[4E4,9.64E3,2E5,3.615E3,2.10875E4,8.82E4,1.25E6,1.5718106E0,6E3,1E0,5.472E4,1.0491E2,1E0,4.38E5,1.6506802E-1,1.75E3,-0E0,2.6E1,6.8E1,4.998777E4,1.5105E4,2.4E1,5.4429194E5,5E4,1E0,2.6E4,1.83E5,9.0815976E-2,1.1745646E-1,-9.622073E-2,-6.664891E-2,-4.837239E-2,-4.3075504E-3,-3.229938E-2,-1.6567722E-2,-2.2247192E-2,-6.6121225E-3,-1.1399843E-2,6.8823737E-3,1.019079E-2,-3.5155728E-4,2.7820988E-2,-0E0,3.380898E-2,5.202537E-2,3.358452E-2,1.0268961E-2,1.6208503E-2,4.5188922E-2,5.4132495E-2,7.3499605E-2],"split_indices":[28,28,28,28,28,47,28,39,28,31,38,50,31,47,0,28,0,55,13,5,37,0,7,28,27,37,38,0,0,0,0,0,0,0,0,0,0,0,0,0,0,0,0,0,0,0,0,0,0,0,0],"split_type":[0,0,0,0,0,0,0,0,0,0,0,0,0,0,0,0,0,0,0,0,0,0,0,0,0,0,0,0,0,0,0,0,0,0,0,0,0,0,0,0,0,0,0,0,0,0,0,0,0,0,0],"sum_hessian":[2.974992E3,2.1604624E3,8.1452954E2,1.1858295E3,9.746329E2,5.8881494E2,2.2571461E2,2.973132E2,8.8851624E2,6.8161334E2,2.9301956E2,2.787392E2,3.100757E2,1.9434598E2,3.1368635E1,2.821244E2,1.5188829E1,3.5954306E2,5.2897314E2,3.6280173E2,3.188116E2,1.2587873E2,1.6714082E2,1.9030139E2,8.8437805E1,5.5187325E1,2.548884E2,1.2019066E2,7.415532E1,9.3383995E1,1.8874039E2,3.4426068E2,1.5282385E1,3.9047766E2,1.3849548E2,1.7817348E2,1.8462825E2,7.157358E1,2.4723802E2,8.138969E1,4.4489044E1,1.4170537E2,2.5435446E1,5.628625E1,1.3401515E2,6.815145E1,2.0286358E1,1.6200966E1,3.898636E1,6.9919334E1,1.8496907E2],"tree_param":{"num_deleted":"0","num_feature":"62","num_nodes":"51","size_leaf_vector":"1"}},{"base_weights":[8.987332E-3,-4.0448076E-1,7.797896E-1,-8.034494E-1,-1.9838606E-1,4.9622554E-1,1.2937195E0,-1.0324059E0,-6.0630727E-1,-3.2694674E-1,4.3513197E-2,3.1504518E-1,6.8355536E-1,1.0791515E0,1.1554653E-1,-1.2515976E-1,-9.3684673E-1,-6.4708513E-1,5.1560244E-3,-2.2522925E-1,-4.478017E-1,-6.914721E-2,1.3089839E-1,2.3371181E-1,6.9132656E-1,3.955128E-1,7.283422E-1,8.958082E-1,1.1694623E0,-6.826374E-2,-3.6148902E-2,-4.89385E-2,-2.7089592E-2,-2.4487544E-2,-7.69208E-3,-3.666563E-2,-2.2161731E-2,-1.4837799E-2,-0E0,-0E0,2.127553E-2,-0E0,1.712167E-2,2.4203133E-2,6.22034E-2,7.98942E-3,3.1398494E-2,4.018686E-2,5.498382E-2,4.3204587E-2,6.835302E-2,7.300376E-2,1.0406862E-1],"categories":[],"categories_nodes":[],"categories_segments":[],"categories_sizes":[],"default_left":[0,0,0,1,0,0,0,0,0,1,1,1,1,0,0,0,1,0,0,1,0,1,0,0,0,0,0,0,0,0,0,0,0,0,0,0,0,0,0,0,0,0,0,0,0,0,0,0,0,0,0,0,0],"id":11,"left_children":[1,3,5,7,9,11,13,15,17,19,21,23,25,27,-1,-1,29,31,-1,33,35,37,39,41,43,45,47,49,51,-1,-1,-1,-1,-1,-1,-1,-1,-1,-1,-1,-1,-1,-1,-1,-1,-1,-1,-1,-1,-1,-1,-1,-1],"loss_changes":[9.96049E2,1.6556943E2,1.5623566E2,2.8478516E1,4.2169697E1,2.2440323E1,3.1814697E1,2.0671906E1,1.1294327E1,9.819717E0,4.646739E0,9.737625E0,2.6807556E0,8.987732E-1,0E0,0E0,7.5642395E0,5.8072205E0,0E0,6.900484E0,3.3432999E0,2.2886481E0,6.490409E0,1.3790741E0,2.8789139E0,2.1814537E-1,1.2780762E0,3.4619904E-1,1.4976501E-1,0E0,0E0,0E0,0E0,0E0,0E0,0E0,0E0,0E0,0E0,0E0,0E0,0E0,0E0,0E0,0E0,0E0,0E0,0E0,0E0,0E0,0E0,0E0,0E0],"parents":[2147483647,0,0,1,1,2,2,3,3,4,4,5,5,6,6,7,7,8,8,9,9,10,10,11,11,12,12,13,13,16,16,17,17,19,19,20,20,21,21,22,22,23,23,24,24,25,25,26,26,27,27,28,28],"right_children":[2,4,6,8,10,12,14,16,18,20,22,24,26,28,-1,-1,30,32,-1,34,36,38,40,42,44,46,48,50,52,-1,-1,-1,-1,-1,-1,-1,-1,-1,-1,-1,-1,-1,-1,-1,-1,-1,-1,-1,-1,-1,-1,-1,-1],"split_conditions":[1.0126671E1,8.598496E0,1.1736077E1,3.78E3,9.510519E0,1.0819798E1,1.2899222E1,6.908755E0,9.9E1,1.1224E2,2.64583E3,1.36E1,1.0434256E0,2.021E3,1.1554653E-1,-1.2515976E-1,6.5E1,8.493105E0,5.1560244E-3,1.43292E4,9.028338E0,3E0,2.023E3,1.28986E3,6.5E1,1.0918736E1,1.1134531E1,1.2023762E1,2.9479167E0,-6.826374E-2,-3.6148902E-2,-4.89385E-2,-2.7089592E-2,-2.4487544E-2,-7.69208E-3,-3.666563E-2,-2.2161731E-2,-1.4837799E-2,-0E0,-0E0,2.127553E-2,-0E0,1.712167E-2,2.4203133E-2,6.22034E-2,7.98942E-3,3.1398494E-2,4.018686E-2,5.498382E-2,4.3204587E-2,6.835302E-2,7.300376E-2,1.0406862E-1],"split_indices":[30,30,30,47,30,30,30,30,13,51,15,41,43,34,0,0,17,30,0,36,30,17,34,15,17,30,30,30,43,0,0,0,0,0,0,0,0,0,0,0,0,0,0,0,0,0,0,0,0,0,0,0,0],"split_type":[0,0,0,0,0,0,0,0,0,0,0,0,0,0,0,0,0,0,0,0,0,0,0,0,0,0,0,0,0,0,0,0,0,0,0,0,0,0,0,0,0,0,0,0,0,0,0,0,0,0,0,0,0],"sum_hessian":[3.1226355E3,2.0313804E3,1.0912552E3,6.890695E2,1.3423108E3,7.0566907E2,3.8558615E2,3.144726E2,3.745969E2,8.8020184E2,4.62109E2,3.632739E2,3.4239517E2,2.6328442E2,1.2230172E2,2.9315897E1,2.851567E2,3.555012E2,1.9095703E1,4.8511728E2,3.9508453E2,1.9481386E2,2.6729517E2,3.0249408E2,6.0779808E1,5.1017616E1,2.9137756E2,9.392589E1,1.6935854E2,2.2856584E2,5.659087E1,2.5425339E2,1.01247795E2,2.0427121E2,2.8084607E2,1.9991235E2,1.9517218E2,6.42101E1,1.3060376E2,1.5957938E2,1.0771579E2,3.2561333E1,2.6993277E2,2.8993233E1,3.1786573E1,1.5429646E1,3.558797E1,1.3701042E2,1.5436713E2,3.7624382E1,5.6301502E1,1.4807948E2,2.1279055E1],"tree_param":{"num_deleted":"0","num_feature":"62","num_nodes":"53","size_leaf_vector":"1"}},{"base_weights":[-2.7492852E-3,-3.3497337E-1,8.958559E-1,-6.3545394E-1,-5.7680286E-2,7.13454E-1,1.5438027E0,-8.606261E-1,-4.598249E-1,-2.1685787E-1,7.962622E-2,5.1808727E-1,9.068319E-1,9.4552994E-2,1.4465295E-1,-9.0616727E-1,2.5357254E-2,-6.0953933E-1,-3.1510836E-1,-3.1753945E-1,-1.2522997E-1,3.0174209E-2,2.8647637E-1,3.8978416E-1,6.534317E-1,7.417747E-1,7.0212916E-2,-1.06722794E-1,-5.7190772E-2,-4.2447947E-2,-0E0,-4.016349E-3,-2.3311492E-2,-2.5227856E-2,-9.2022605E-3,-1.6275128E-2,2.8354006E-3,-9.1548386E-4,1.4102209E-2,9.163528E-3,4.0964518E-2,2.8980728E-2,1.0598407E-2,1.713781E-2,4.7822565E-2,5.378379E-2,3.181053E-2],"categories":[],"categories_nodes":[],"categories_segments":[],"categories_sizes":[],"default_left":[0,0,0,0,0,0,0,1,1,1,1,1,1,0,0,0,0,1,0,1,0,0,0,0,0,1,0,0,0,0,0,0,0,0,0,0,0,0,0,0,0,0,0,0,0,0,0],"id":12,"left_children":[1,3,5,7,9,11,13,15,17,19,21,23,25,-1,-1,27,-1,29,31,33,35,37,39,41,43,45,-1,-1,-1,-1,-1,-1,-1,-1,-1,-1,-1,-1,-1,-1,-1,-1,-1,-1,-1,-1,-1],"loss_changes":[9.2197406E2,1.8712018E2,9.469873E1,4.067627E1,2.593326E1,2.2399017E1,7.227783E0,2.748288E1,1.1848846E1,4.4261627E0,5.9662304E0,4.1118164E0,5.011078E0,0E0,0E0,1.0429169E1,0E0,4.4861526E0,2.269577E0,2.0568619E0,6.235869E0,4.380438E0,4.5455894E0,9.8485374E-1,2.5309448E0,7.975693E-1,0E0,0E0,0E0,0E0,0E0,0E0,0E0,0E0,0E0,0E0,0E0,0E0,0E0,0E0,0E0,0E0,0E0,0E0,0E0,0E0,0E0],"parents":[2147483647,0,0,1,1,2,2,3,3,4,4,5,5,6,6,7,7,8,8,9,9,10,10,11,11,12,12,15,15,17,17,18,18,19,19,20,20,21,21,22,22,23,23,24,24,25,25],"right_children":[2,4,6,8,10,12,14,16,18,20,22,24,26,-1,-1,28,-1,30,32,34,36,38,40,42,44,46,-1,-1,-1,-1,-1,-1,-1,-1,-1,-1,-1,-1,-1,-1,-1,-1,-1,-1,-1,-1,-1],"split_conditions":[1.0542205E1,8.946505E0,1.242922E1,8.335911E0,9.615872E0,1.1281951E1,1.4038655E1,3.4752E5,1.3E0,1.718E4,4.9335E4,5.67E4,3.024E5,9.4552994E-2,1.4465295E-1,6.908755E0,2.5357254E-2,7.42E2,2E0,1.3162721E0,3E0,1.0185597E1,2.024E3,9.50308E0,5.0431213E0,1.2056E2,7.0212916E-2,-1.06722794E-1,-5.7190772E-2,-4.2447947E-2,-0E0,-4.016349E-3,-2.3311492E-2,-2.5227856E-2,-9.2022605E-3,-1.6275128E-2,2.8354006E-3,-9.1548386E-4,1.4102209E-2,9.163528E-3,4.0964518E-2,2.8980728E-2,1.0598407E-2,1.713781E-2,4.7822565E-2,5.378379E-2,3.181053E-2],"split_indices":[30,30,30,30,30,30,30,36,9,36,47,47,38,0,0,30,0,11,55,46,44,30,34,10,10,50,0,0,0,0,0,0,0,0,0,0,0,0,0,0,0,0,0,0,0,0,0],"split_type":[0,0,0,0,0,0,0,0,0,0,0,0,0,0,0,0,0,0,0,0,0,0,0,0,0,0,0,0,0,0,0,0,0,0,0,0,0,0,0,0,0,0,0,0,0,0,0],"sum_hessian":[3.0899304E3,2.257288E3,8.3264233E2,1.080574E3,1.1767141E3,6.5228796E2,1.8035435E2,4.6908313E2,6.1149084E2,5.49604E2,6.271101E2,3.2906628E2,3.232217E2,1.5446187E2,2.589248E1,4.5372708E2,1.5356069E1,2.9492438E2,3.165665E2,2.5388142E2,2.9572256E2,5.121251E2,1.1498496E2,1.7533351E2,1.5373276E2,1.593522E2,1.6386949E2,2.510827E1,4.286188E2,2.7987003E2,1.505435E1,4.3744576E1,2.728219E2,1.8241397E2,7.146745E1,1.7753728E2,1.1818529E2,4.0658014E2,1.05545006E2,8.270838E1,3.2276585E1,1.4061804E2,3.4715466E1,2.5337273E1,1.283955E2,1.2187788E2,3.7474327E1],"tree_param":{"num_deleted":"0","num_feature":"62","num_nodes":"47","size_leaf_vector":"1"}},{"base_weights":[-2.0960942E-2,-3.892505E-1,6.5884894E-1,-7.5665873E-1,-1.9850728E-1,5.0741184E-1,1.4942654E0,-1.024746E0,-6.1277306E-1,-3.2529533E-1,-3.2121275E-2,2.8299987E-1,7.480147E-1,1.404031E0,1.4777711E-1,-1.459345E0,-9.230187E-1,-7.328193E-1,-4.7643957E-1,-4.3493614E-1,-2.0275909E-1,-1.4199632E-1,6.7543E-2,1.730064E-1,4.0103406E-1,6.947945E-1,7.284272E-2,8.293235E-2,1.08554706E-1,-1.1954339E-1,-6.980874E-2,-4.5909673E-2,-6.996356E-2,-5.12546E-2,-1.7749675E-2,-2.2520186E-2,-5.301971E-2,-2.3498505E-2,-3.7917543E-2,-2.7874445E-3,-2.2416582E-2,-0E0,-1.3116731E-2,-4.4710855E-3,1.1222588E-2,2.8230376E-3,1.9275373E-2,2.084834E-2,3.7435994E-2,4.1139323E-2,5.5514198E-2],"categories":[],"categories_nodes":[],"categories_segments":[],"categories_sizes":[],"default_left":[0,0,0,0,0,0,0,0,1,1,1,0,1,0,0,0,0,0,0,1,0,0,0,0,0,0,0,0,0,0,0,0,0,0,0,0,0,0,0,0,0,0,0,0,0,0,0,0,0,0,0],"id":13,"left_children":[1,3,5,7,9,11,13,15,17,19,21,23,25,27,-1,29,31,33,35,37,39,41,43,45,47,49,-1,-1,-1,-1,-1,-1,-1,-1,-1,-1,-1,-1,-1,-1,-1,-1,-1,-1,-1,-1,-1,-1,-1,-1,-1],"loss_changes":[7.7330975E2,1.3912787E2,1.339761E2,2.368805E1,2.7407806E1,4.811966E1,4.072235E0,6.2825317E0,5.452713E0,9.075363E0,6.437687E0,5.3822594E0,5.218033E0,2.3162842E-1,0E0,6.569977E-1,2.9759674E0,2.5298004E0,7.853031E0,2.858673E0,7.2225485E0,2.373334E0,4.1957846E0,3.4219856E0,1.8532791E0,1.7996063E0,0E0,0E0,0E0,0E0,0E0,0E0,0E0,0E0,0E0,0E0,0E0,0E0,0E0,0E0,0E0,0E0,0E0,0E0,0E0,0E0,0E0,0E0,0E0,0E0,0E0],"parents":[2147483647,0,0,1,1,2,2,3,3,4,4,5,5,6,6,7,7,8,8,9,9,10,10,11,11,12,12,13,13,15,15,16,16,17,17,18,18,19,19,20,20,21,21,22,22,23,23,24,24,25,25],"right_children":[2,4,6,8,10,12,14,16,18,20,22,24,26,28,-1,30,32,34,36,38,40,42,44,46,48,50,-1,-1,-1,-1,-1,-1,-1,-1,-1,-1,-1,-1,-1,-1,-1,-1,-1,-1,-1,-1,-1,-1,-1,-1,-1],"split_conditions":[2.15E4,5.15E3,2.5E5,3E3,1.205E4,6E4,2.15E6,1.24E3,3.78E1,1.008E4,1.625E4,2.0946E2,2.8503765E1,5.796E5,1.4777711E-1,8E0,6.9959897E-1,4E0,2.001E3,1.3482E2,1.987E3,1.97E3,3.8639789E0,3.4725E4,6.6010094E0,1.280525E5,7.284272E-2,8.293235E-2,1.08554706E-1,-1.1954339E-1,-6.980874E-2,-4.5909673E-2,-6.996356E-2,-5.12546E-2,-1.7749675E-2,-2.2520186E-2,-5.301971E-2,-2.3498505E-2,-3.7917543E-2,-2.7874445E-3,-2.2416582E-2,-0E0,-1.3116731E-2,-4.4710855E-3,1.1222588E-2,2.8230376E-3,1.9275373E-2,2.084834E-2,3.7435994E-2,4.1139323E-2,5.5514198E-2],"split_indices":[28,28,28,28,28,28,28,28,13,47,47,51,10,47,0,55,46,58,16,51,16,16,12,28,12,28,0,0,0,0,0,0,0,0,0,0,0,0,0,0,0,0,0,0,0,0,0,0,0,0,0],"split_type":[0,0,0,0,0,0,0,0,0,0,0,0,0,0,0,0,0,0,0,0,0,0,0,0,0,0,0,0,0,0,0,0,0,0,0,0,0,0,0,0,0,0,0,0,0,0,0,0,0,0,0],"sum_hessian":[3.0891948E3,2.0051854E3,1.0840094E3,6.821904E2,1.322995E3,9.198004E2,1.6420903E2,2.3371858E2,4.4847186E2,7.457243E2,5.772707E2,4.795434E2,4.4025705E2,1.4917422E2,1.50348015E1,4.038389E1,1.9333469E2,2.3175049E2,2.1672137E2,3.8676767E2,3.589566E2,2.812394E2,2.9603125E2,2.5510602E2,2.2443738E2,3.8665274E2,5.3604298E1,9.4094734E1,5.5079483E1,1.926176E1,2.1122128E1,7.409678E1,1.19237915E2,2.111609E2,2.058958E1,1.5545543E2,6.126595E1,2.4899883E2,1.3776884E2,1.6848582E2,1.9047078E2,7.474995E1,2.0648947E2,1.210319E2,1.7499936E2,1.26562515E2,1.285435E2,1.5237122E2,7.206616E1,2.5885864E2,1.2779409E2],"tree_param":{"num_deleted":"0","num_feature":"62","num_nodes":"51","size_leaf_vector":"1"}},{"base_weights":[-1.0592885E-2,-2.829023E-1,7.675914E-1,-6.204495E-1,-6.423903E-2,6.0785985E-1,1.3512825E0,-1.0719892E0,-5.390173E-1,-2.009943E-1,8.110107E-2,4.4383422E-1,7.858077E-1,1.1283187E0,1.1025289E-1,-6.533911E-1,-1.2862422E0,-6.5221626E-1,-4.0260997E-1,-3.3129144E-1,-1.2241425E-1,5.7086132E-2,4.4472355E-2,5.121242E-2,4.0585354E-1,6.8709E-1,6.36695E-2,5.3615034E-2,8.3437555E-2,-1.2962736E-2,-5.6580324E-2,-4.5852672E-2,-9.252863E-2,-4.6841066E-2,-2.0193394E-2,-1.9398939E-2,-4.1164186E-2,-2.3411227E-2,-4.483123E-3,-2.073837E-3,-1.8006543E-2,1.2138472E-2,-4.981842E-4,1.8645544E-2,3.3643194E-2,2.855516E-2,4.831956E-2],"categories":[],"categories_nodes":[],"categories_segments":[],"categories_sizes":[],"default_left":[0,0,0,0,0,0,0,0,1,0,1,0,1,0,0,0,0,1,1,0,1,1,0,0,0,1,0,0,0,0,0,0,0,0,0,0,0,0,0,0,0,0,0,0,0,0,0],"id":14,"left_children":[1,3,5,7,9,11,13,15,17,19,21,23,25,27,-1,29,31,33,35,37,39,41,-1,-1,43,45,-1,-1,-1,-1,-1,-1,-1,-1,-1,-1,-1,-1,-1,-1,-1,-1,-1,-1,-1,-1,-1],"loss_changes":[6.586787E2,1.6923654E2,7.187305E1,3.065976E1,2.8060007E1,1.6612076E1,6.757965E0,8.918777E0,1.0252274E1,6.7881393E0,8.482011E0,2.3321457E0,2.4087524E0,7.545471E-1,0E0,2.8645802E0,1.9847107E0,5.992676E0,7.159733E0,8.547363E-1,5.81625E0,5.5293694E0,0E0,0E0,2.6503677E0,2.1105957E-1,0E0,0E0,0E0,0E0,0E0,0E0,0E0,0E0,0E0,0E0,0E0,0E0,0E0,0E0,0E0,0E0,0E0,0E0,0E0,0E0,0E0],"parents":[2147483647,0,0,1,1,2,2,3,3,4,4,5,5,6,6,7,7,8,8,9,9,10,10,11,11,12,12,13,13,15,15,16,16,17,17,18,18,19,19,20,20,21,21,24,24,25,25],"right_children":[2,4,6,8,10,12,14,16,18,20,22,24,26,28,-1,30,32,34,36,38,40,42,-1,-1,44,46,-1,-1,-1,-1,-1,-1,-1,-1,-1,-1,-1,-1,-1,-1,-1,-1,-1,-1,-1,-1,-1],"split_conditions":[1.059666E1,8.853808E0,1.242922E1,7.6014023E0,9.56721E0,1.1202806E1,1.3122365E1,1.5881E2,6.5E3,2.021E3,1.2864E5,1E0,1.2561342E1,6.74E-1,1.1025289E-1,1.961E3,8.5E1,8.1E1,1.989E3,9.457278E0,1.2042E2,5.02E1,4.4472355E-2,5.121242E-2,2.022E3,1.4E1,6.36695E-2,5.3615034E-2,8.3437555E-2,-1.2962736E-2,-5.6580324E-2,-4.5852672E-2,-9.252863E-2,-4.6841066E-2,-2.0193394E-2,-1.9398939E-2,-4.1164186E-2,-2.3411227E-2,-4.483123E-3,-2.073837E-3,-1.8006543E-2,1.2138472E-2,-4.981842E-4,1.8645544E-2,3.3643194E-2,2.855516E-2,4.831956E-2],"split_indices":[30,30,30,30,30,30,30,51,47,34,47,44,41,54,0,16,18,17,16,30,51,50,0,0,34,17,0,0,0,0,0,0,0,0,0,0,0,0,0,0,0,0,0,0,0,0,0],"split_type":[0,0,0,0,0,0,0,0,0,0,0,0,0,0,0,0,0,0,0,0,0,0,0,0,0,0,0,0,0,0,0,0,0,0,0,0,0,0,0,0,0,0,0,0,0,0,0],"sum_hessian":[3.1105457E3,2.305822E3,8.0472375E2,9.0356616E2,1.4022559E3,6.345534E2,1.7017035E2,1.3443738E2,7.691288E2,7.2739453E2,6.748613E2,3.3527756E2,2.9927582E2,1.0261267E2,6.755768E1,4.8460903E1,8.597648E1,4.135738E2,3.55555E2,2.6623148E2,4.6116306E2,6.5122845E2,2.3632868E1,3.0027067E1,3.052505E2,1.9689377E2,1.02382065E2,3.3163265E1,6.944941E1,1.7061117E1,3.1399786E1,1.54933405E1,7.048314E1,3.5570828E2,5.786552E1,2.402391E2,1.15315895E2,2.4165585E2,2.4575617E1,2.918855E2,1.6927756E2,2.2845145E2,4.22777E2,1.4261546E2,1.6263501E2,3.1789152E1,1.6510461E2],"tree_param":{"num_deleted":"0","num_feature":"62","num_nodes":"47","size_leaf_vector":"1"}},{"base_weights":[5.7346146E-3,-3.26022E-1,6.187955E-1,-5.934539E-1,-1.3026394E-1,4.3436378E-1,1.164274E0,-7.964485E-1,-4.6762547E-1,-2.373793E-1,4.268451E-2,3.0618048E-1,6.7236143E-1,9.594322E-1,1.536635E0,-4.848882E-1,-9.4468904E-1,-5.455502E-1,-2.8718618E-1,-3.4795886E-1,-1.519556E-1,-1.9382451E-1,1.2807384E-1,2.054383E-1,4.3675008E-1,3.5398808E-1,7.347991E-1,8.928436E-1,8.574761E-2,1.3684989E0,1.429042E-1,-5.0008453E-2,-1.7649112E-2,-7.8868106E-2,-4.707656E-2,-3.7836086E-2,-6.2871203E-3,-1.228571E-2,-4.33038E-2,-3.181823E-2,-1.4553874E-2,-8.678171E-3,-3.2702446E-2,-0E0,-2.153235E-2,5.1820804E-3,3.0700888E-2,9.490895E-3,2.338433E-2,2.3550551E-2,3.5817195E-2,1.666575E-3,3.1160345E-2,3.0628035E-2,5.2077435E-2,3.5542235E-2,6.234838E-2,9.903742E-2,6.050126E-2],"categories":[],"categories_nodes":[],"categories_segments":[],"categories_sizes":[],"default_left":[0,0,0,1,1,1,0,0,1,0,0,0,0,0,0,1,0,0,1,0,0,0,0,1,0,0,0,0,0,0,0,0,0,0,0,0,0,0,0,0,0,0,0,0,0,0,0,0,0,0,0,0,0,0,0,0,0,0,0],"id":15,"left_children":[1,3,5,7,9,11,13,15,17,19,21,23,25,27,29,31,33,35,37,39,41,43,45,47,49,51,53,55,-1,57,-1,-1,-1,-1,-1,-1,-1,-1,-1,-1,-1,-1,-1,-1,-1,-1,-1,-1,-1,-1,-1,-1,-1,-1,-1,-1,-1,-1,-1],"loss_changes":[6.321502E2,1.04366394E2,1.0734515E2,1.9673218E1,2.1891535E1,2.3489426E1,1.6577484E1,1.2488937E1,6.17614E0,6.116516E0,8.83606E0,6.107334E0,3.9342804E0,2.763977E-1,3.157959E0,4.7347317E0,9.040512E0,2.8726883E0,4.946578E0,4.155983E0,2.1269617E0,2.625968E0,4.7214203E0,2.1177807E0,5.4771805E-1,1.2165847E0,1.1242294E0,1.4603424E-1,0E0,1.5879822E-1,0E0,0E0,0E0,0E0,0E0,0E0,0E0,0E0,0E0,0E0,0E0,0E0,0E0,0E0,0E0,0E0,0E0,0E0,0E0,0E0,0E0,0E0,0E0,0E0,0E0,0E0,0E0,0E0,0E0],"parents":[2147483647,0,0,1,1,2,2,3,3,4,4,5,5,6,6,7,7,8,8,9,9,10,10,11,11,12,12,13,13,14,14,15,15,16,16,17,17,18,18,19,19,20,20,21,21,22,22,23,23,24,24,25,25,26,26,27,27,29,29],"right_children":[2,4,6,8,10,12,14,16,18,20,22,24,26,28,30,32,34,36,38,40,42,44,46,48,50,52,54,56,-1,58,-1,-1,-1,-1,-1,-1,-1,-1,-1,-1,-1,-1,-1,-1,-1,-1,-1,-1,-1,-1,-1,-1,-1,-1,-1,-1,-1,-1,-1],"split_conditions":[1.0126671E1,8.839421E0,1.2023762E1,1.0137855E0,1.5450689E0,1.1456366E1,1.29598465E1,1.2946E2,9.441531E0,9.282056E0,9.17378E0,1.0819798E1,8.148148E-1,2.723755E0,1.4580978E1,3.1E1,8.193124E0,2.6932733E0,1.625E2,7.334E-1,1.128E3,8.8461536E-1,1.173E5,5.9E1,2.022E3,1.0918736E1,-3.8222428E-3,3.7700205E0,8.574761E-2,2E0,1.429042E-1,-5.0008453E-2,-1.7649112E-2,-7.8868106E-2,-4.707656E-2,-3.7836086E-2,-6.2871203E-3,-1.228571E-2,-4.33038E-2,-3.181823E-2,-1.4553874E-2,-8.678171E-3,-3.2702446E-2,-0E0,-2.153235E-2,5.1820804E-3,3.0700888E-2,9.490895E-3,2.338433E-2,2.3550551E-2,3.5817195E-2,1.666575E-3,3.1160345E-2,3.0628035E-2,5.2077435E-2,3.5542235E-2,6.234838E-2,9.903742E-2,6.050126E-2],"split_indices":[30,30,30,43,43,48,30,51,48,30,30,30,2,43,30,17,30,43,51,52,0,2,37,17,34,30,8,10,0,58,0,0,0,0,0,0,0,0,0,0,0,0,0,0,0,0,0,0,0,0,0,0,0,0,0,0,0,0,0],"split_type":[0,0,0,0,0,0,0,0,0,0,0,0,0,0,0,0,0,0,0,0,0,0,0,0,0,0,0,0,0,0,0,0,0,0,0,0,0,0,0,0,0,0,0,0,0,0,0,0,0,0,0,0,0,0,0,0,0,0,0],"sum_hessian":[3.1050488E3,2.0134176E3,1.0916311E3,8.474261E2,1.1659915E3,8.184347E2,2.7319644E2,3.1891492E2,5.2851117E2,7.249867E2,4.4100482E2,5.36577E2,2.8185767E2,1.7988657E2,9.330988E1,1.06612564E2,2.1230237E2,3.6288882E2,1.6562234E2,3.080407E2,4.1694598E2,1.1240258E2,3.2860226E2,3.0976575E2,2.2681128E2,5.0501827E1,2.3135585E2,1.5484995E2,2.5036627E1,7.633201E1,1.6977873E1,4.4604618E1,6.200795E1,1.0113663E2,1.1116573E2,3.4183975E2,2.1049088E1,1.3290044E2,3.2721912E1,1.4700731E2,1.610334E2,3.9678796E2,2.0158003E1,4.741536E1,6.498722E1,2.899146E2,3.868765E1,2.2429355E2,8.547218E1,1.3422932E2,9.2581955E1,1.6411386E1,3.409044E1,3.9895596E1,1.9146025E2,2.145725E1,1.333927E2,5.705027E1,1.928174E1],"tree_param":{"num_deleted":"0","num_feature":"62","num_nodes":"59","size_leaf_vector":"1"}},{"base_weights":[-2.9230774E-3,-2.5238946E-1,6.8506646E-1,-5.182507E-1,-1.735906E-2,5.607729E-1,1.2381555E0,-7.685966E-1,-4.051158E-1,-1.2527801E-1,1.0157041E-1,3.7876943E-1,6.951727E-1,1.1145039E0,1.21941976E-1,-8.374928E-1,1.8566405E-2,-4.683463E-1,-2.133723E-1,-3.1435706E-2,-2.1196039E-1,6.6718526E-2,4.02366E-1,3.098466E-1,5.836176E-1,3.5932325E-2,7.9425645E-1,1.2100626E0,4.9938798E-2,-1.0352706E-1,-5.0989192E-2,-4.330108E-2,-2.6555793E-2,-1.0109029E-2,-3.7132304E-2,-7.14952E-3,4.8142252E-3,-2.1725053E-2,-9.516764E-3,1.0436219E-2,-0E0,3.752077E-2,-0E0,9.093126E-3,2.5684938E-2,2.9117424E-2,5.355245E-2,6.110869E-2,4.1078568E-2,5.7357445E-2,8.8292964E-2],"categories":[],"categories_nodes":[],"categories_segments":[],"categories_sizes":[],"default_left":[0,0,0,0,0,0,0,1,1,1,1,1,1,0,0,0,0,0,1,1,1,0,1,1,0,0,1,1,0,0,0,0,0,0,0,0,0,0,0,0,0,0,0,0,0,0,0,0,0,0,0],"id":16,"left_children":[1,3,5,7,9,11,13,15,17,19,21,23,25,27,-1,29,-1,31,33,35,37,39,41,43,45,-1,47,49,-1,-1,-1,-1,-1,-1,-1,-1,-1,-1,-1,-1,-1,-1,-1,-1,-1,-1,-1,-1,-1,-1,-1],"loss_changes":[5.1734607E2,1.3772205E2,5.2194946E1,2.754773E1,1.5181662E1,1.442453E1,5.4132843E0,2.3892044E1,7.701782E0,4.7350245E0,5.1414413E0,2.6617393E0,3.6088715E0,1.0223846E0,0E0,1.1351227E1,0E0,5.1227264E0,2.861702E0,2.4914043E0,1.81289E0,3.0400922E0,3.224452E0,2.1334991E0,1.8598557E-1,0E0,2.3885345E0,1.2626648E-1,0E0,0E0,0E0,0E0,0E0,0E0,0E0,0E0,0E0,0E0,0E0,0E0,0E0,0E0,0E0,0E0,0E0,0E0,0E0,0E0,0E0,0E0,0E0],"parents":[2147483647,0,0,1,1,2,2,3,3,4,4,5,5,6,6,7,7,8,8,9,9,10,10,11,11,12,12,13,13,15,15,17,17,18,18,19,19,20,20,21,21,22,22,23,23,24,24,26,26,27,27],"right_children":[2,4,6,8,10,12,14,16,18,20,22,24,26,28,-1,30,-1,32,34,36,38,40,42,44,46,-1,48,50,-1,-1,-1,-1,-1,-1,-1,-1,-1,-1,-1,-1,-1,-1,-1,-1,-1,-1,-1,-1,-1,-1,-1],"split_conditions":[3.4725E4,8E3,3E5,3.615E3,1.55E4,7E4,2.15E6,1.4301488E0,1.0016173E0,9.877E1,2.2019887E0,1.9161716E0,1.3823805E0,3E0,1.21941976E-1,1E3,1.8566405E-2,9.755226E0,1.8807E2,1.5985454E0,8E-1,2E0,5.118E-1,1.9404928E-1,5E3,3.5932325E-2,9.919755E0,2.375E5,4.9938798E-2,-1.0352706E-1,-5.0989192E-2,-4.330108E-2,-2.6555793E-2,-1.0109029E-2,-3.7132304E-2,-7.14952E-3,4.8142252E-3,-2.1725053E-2,-9.516764E-3,1.0436219E-2,-0E0,3.752077E-2,-0E0,9.093126E-3,2.5684938E-2,2.9117424E-2,5.355245E-2,6.110869E-2,4.1078568E-2,5.7357445E-2,8.8292964E-2],"split_indices":[28,28,28,28,28,28,28,39,39,51,9,43,43,59,0,28,0,35,51,43,2,57,52,46,15,0,35,47,0,0,0,0,0,0,0,0,0,0,0,0,0,0,0,0,0,0,0,0,0,0,0],"split_type":[0,0,0,0,0,0,0,0,0,0,0,0,0,0,0,0,0,0,0,0,0,0,0,0,0,0,0,0,0,0,0,0,0,0,0,0,0,0,0,0,0,0,0,0,0,0,0,0,0,0,0],"sum_hessian":[3.0168523E3,2.2157903E3,8.010619E2,1.0365782E3,1.1792122E3,6.570141E2,1.4404779E2,3.1780847E2,7.187697E2,6.244655E2,5.5474664E2,2.8440097E2,3.726131E2,1.2247959E2,2.1568207E1,2.9956854E2,1.8239958E1,5.344001E2,1.843696E2,3.0804672E2,3.164188E2,5.0193533E2,5.281128E1,2.1895166E2,6.54493E1,1.5229828E2,2.2031482E2,9.294554E1,2.953405E1,2.4044039E1,2.7552448E2,1.3958539E2,3.9481473E2,1.6065715E2,2.371246E1,1.856596E2,1.2238711E2,1.1019989E2,2.062189E2,2.137131E2,2.8822223E2,3.673029E1,1.6080988E1,7.31797E1,1.4577197E2,4.427562E1,2.1173683E1,1.23117935E2,9.7196884E1,2.7651665E1,6.529388E1],"tree_param":{"num_deleted":"0","num_feature":"62","num_nodes":"51","size_leaf_vector":"1"}},{"base_weights":[2.2167244E-3,-2.72554E-1,5.2935785E-1,-5.5040723E-1,-1.2506668E-1,3.7368134E-1,1.0090048E0,-7.2281057E-1,-4.160137E-1,-2.5803807E-1,-3.534818E-2,2.6230335E-1,5.126057E-1,8.8824135E-1,9.516096E-2,-9.3672805E-2,-6.573422E-1,-4.479611E-1,1.5790075E-2,-2.9030794E-1,-0E0,-1.337211E-1,6.8201E-2,1.18494295E-1,3.8445583E-1,4.3520322E-1,6.527381E-1,7.527641E-1,1.09965E0,-4.849059E-2,-2.1343583E-2,-3.524725E-2,-1.8101707E-2,-7.291103E-3,-2.2919333E-2,-1.642351E-2,1.2649466E-2,-1.8623088E-2,-5.4194094E-3,-3.798738E-3,1.1780694E-2,2.6542847E-3,1.9887948E-2,-0E0,2.9655723E-2,1.808918E-2,3.2157402E-2,4.97162E-2,2.4186263E-2,4.418488E-2,6.99388E-2,4.044731E-2,8.11047E-2],"categories":[],"categories_nodes":[],"categories_segments":[],"categories_sizes":[],"default_left":[0,0,0,1,0,0,0,0,0,1,0,0,0,0,0,0,0,0,0,0,0,1,0,0,1,1,0,1,0,0,0,0,0,0,0,0,0,0,0,0,0,0,0,0,0,0,0,0,0,0,0,0,0],"id":17,"left_children":[1,3,5,7,9,11,13,15,17,19,21,23,25,27,-1,-1,29,31,-1,33,35,37,39,41,43,45,47,49,51,-1,-1,-1,-1,-1,-1,-1,-1,-1,-1,-1,-1,-1,-1,-1,-1,-1,-1,-1,-1,-1,-1,-1,-1],"loss_changes":[4.3513794E2,7.979402E1,7.477487E1,1.3987167E1,1.4990368E1,1.0913765E1,8.793655E0,9.730759E0,8.45388E0,4.495949E0,8.026121E0,6.9943867E0,2.011589E0,2.6249847E0,0E0,0E0,4.9160156E0,4.157173E0,0E0,3.847847E0,2.5700464E0,2.580502E0,5.2623935E0,2.4675071E0,4.870243E0,6.595459E-1,1.4067345E0,5.467377E-1,1.2852707E0,0E0,0E0,0E0,0E0,0E0,0E0,0E0,0E0,0E0,0E0,0E0,0E0,0E0,0E0,0E0,0E0,0E0,0E0,0E0,0E0,0E0,0E0,0E0,0E0],"parents":[2147483647,0,0,1,1,2,2,3,3,4,4,5,5,6,6,7,7,8,8,9,9,10,10,11,11,12,12,13,13,16,16,17,17,19,19,20,20,21,21,22,22,23,23,24,24,25,25,26,26,27,27,28,28],"right_children":[2,4,6,8,10,12,14,16,18,20,22,24,26,28,-1,-1,30,32,-1,34,36,38,40,42,44,46,48,50,52,-1,-1,-1,-1,-1,-1,-1,-1,-1,-1,-1,-1,-1,-1,-1,-1,-1,-1,-1,-1,-1,-1,-1,-1],"split_conditions":[2.5E4,5.7175E3,1.75E5,1.0142857E0,9.64E3,6E4,7E5,1E3,1.1431293E1,8.493E3,1E0,5.6E1,2.023E3,1.2875442E1,9.516096E-2,-9.3672805E-2,4.35E2,4.7E3,1.5790075E-2,5.1E1,2.066747E0,1.113E4,2.022E3,2.023E3,5.8651965E-2,6.48E1,7E0,6.3E1,5.336E-1,-4.849059E-2,-2.1343583E-2,-3.524725E-2,-1.8101707E-2,-7.291103E-3,-2.2919333E-2,-1.642351E-2,1.2649466E-2,-1.8623088E-2,-5.4194094E-3,-3.798738E-3,1.1780694E-2,2.6542847E-3,1.9887948E-2,-0E0,2.9655723E-2,1.808918E-2,3.2157402E-2,4.97162E-2,2.4186263E-2,4.418488E-2,6.99388E-2,4.044731E-2,8.11047E-2],"split_indices":[28,28,28,9,28,28,28,28,48,15,31,17,34,48,0,0,56,28,0,18,12,4,34,34,46,14,22,17,54,0,0,0,0,0,0,0,0,0,0,0,0,0,0,0,0,0,0,0,0,0,0,0,0],"split_type":[0,0,0,0,0,0,0,0,0,0,0,0,0,0,0,0,0,0,0,0,0,0,0,0,0,0,0,0,0,0,0,0,0,0,0,0,0,0,0,0,0,0,0,0,0,0,0,0,0,0,0,0,0],"sum_hessian":[3.000663E3,1.9708956E3,1.0297676E3,6.795871E2,1.2913085E3,7.803622E2,2.4940536E2,2.9208463E2,3.8750247E2,5.134881E2,7.7782043E2,4.3961484E2,3.4074738E2,1.9777379E2,5.163158E1,2.2643608E1,2.6944104E2,3.7166553E2,1.5836949E1,4.5891504E2,5.457304E1,4.0583157E2,3.7198883E2,2.0770999E2,2.3190483E2,2.2738646E2,1.133609E2,1.2605177E2,7.172202E1,2.1803244E2,5.1408592E1,2.471131E2,1.24552414E2,1.1254436E2,3.4637067E2,2.1976477E1,3.259656E1,9.899785E1,3.0683374E2,1.6705768E2,2.0493115E2,1.5064607E2,5.706391E1,3.52101E1,1.9669473E2,5.9496456E1,1.6789001E2,8.102664E1,3.2334263E1,1.022565E2,2.3795275E1,1.7013103E1,5.4708916E1],"tree_param":{"num_deleted":"0","num_feature":"62","num_nodes":"53","size_leaf_vector":"1"}},{"base_weights":[2.6201705E-2,-2.0972458E-1,6.12547E-1,-3.9388567E-1,4.284841E-3,4.136239E-1,9.21324E-1,-7.238028E-1,-3.1055853E-1,-6.753167E-2,1.1643502E-1,2.8607503E-1,5.273766E-1,5.0219405E-2,1.1911969E0,-7.891801E-1,4.565645E-4,-3.2509252E-1,8.302507E-3,-1.265039E-1,5.1121257E-2,7.538665E-2,4.3767914E-2,8.306983E-2,3.325762E-1,3.6333087E-1,6.787681E-1,1.0941384E0,1.1636862E-1,-7.525657E-2,-4.5019653E-2,-2.8120553E-2,-1.729236E-2,-9.797312E-3,1.2245278E-2,9.950291E-3,-0E0,-1.1786771E-3,1.1507603E-2,-0E0,1.6010176E-2,2.3633143E-2,5.5384793E-4,1.4989131E-2,3.571144E-2,1.673384E-2,4.7864303E-2,8.015628E-2,4.9058676E-2],"categories":[],"categories_nodes":[],"categories_segments":[],"categories_sizes":[],"default_left":[0,0,0,0,0,0,1,1,1,0,0,0,1,0,0,0,0,1,0,1,0,0,0,0,1,0,1,0,0,0,0,0,0,0,0,0,0,0,0,0,0,0,0,0,0,0,0,0,0],"id":18,"left_children":[1,3,5,7,9,11,13,15,17,19,21,23,25,-1,27,29,-1,31,-1,33,35,37,-1,39,41,43,45,47,-1,-1,-1,-1,-1,-1,-1,-1,-1,-1,-1,-1,-1,-1,-1,-1,-1,-1,-1,-1,-1],"loss_changes":[4.3105347E2,8.7944305E1,5.2857666E1,3.1278076E1,8.308951E0,6.7161484E0,1.2344055E1,1.2444458E1,6.371689E0,4.420273E0,7.9859447E0,1.8998375E0,5.4244843E0,0E0,1.9316101E0,5.473419E0,0E0,4.8962173E0,0E0,2.6770191E0,1.1106819E0,3.690626E0,0E0,8.2892585E-1,1.0362625E0,2.2448902E0,1.019043E0,1.2563934E0,0E0,0E0,0E0,0E0,0E0,0E0,0E0,0E0,0E0,0E0,0E0,0E0,0E0,0E0,0E0,0E0,0E0,0E0,0E0,0E0,0E0],"parents":[2147483647,0,0,1,1,2,2,3,3,4,4,5,5,6,6,7,7,8,8,9,9,10,10,11,11,12,12,14,14,15,15,17,17,19,19,20,20,21,21,23,23,24,24,25,25,26,26,27,27],"right_children":[2,4,6,8,10,12,14,16,18,20,22,24,26,-1,28,30,-1,32,-1,34,36,38,-1,40,42,44,46,48,-1,-1,-1,-1,-1,-1,-1,-1,-1,-1,-1,-1,-1,-1,-1,-1,-1,-1,-1,-1,-1],"split_conditions":[3.4725E4,9.64E3,1.466675E5,3E3,2.023E3,1.4615238E0,3.906E5,8.85E1,3.070238E0,2E4,2.9476025E0,4.445E4,8.82E4,5.0219405E-2,2.15E6,1.25E3,4.565645E-4,1.17312E3,8.302507E-3,2.2019887E0,1E0,1.65E4,4.3767914E-2,5.44E2,7E1,5.3335E4,2.2922E3,2E0,1.1636862E-1,-7.525657E-2,-4.5019653E-2,-2.8120553E-2,-1.729236E-2,-9.797312E-3,1.2245278E-2,9.950291E-3,-0E0,-1.1786771E-3,1.1507603E-2,-0E0,1.6010176E-2,2.3633143E-2,5.5384793E-4,1.4989131E-2,3.571144E-2,1.673384E-2,4.7864303E-2,8.015628E-2,4.9058676E-2],"split_indices":[28,28,28,28,34,9,47,13,9,28,9,28,47,0,28,28,0,15,0,9,59,28,0,49,18,28,15,59,0,0,0,0,0,0,0,0,0,0,0,0,0,0,0,0,0,0,0,0,0],"split_type":[0,0,0,0,0,0,0,0,0,0,0,0,0,0,0,0,0,0,0,0,0,0,0,0,0,0,0,0,0,0,0,0,0,0,0,0,0,0,0,0,0,0,0,0,0,0,0,0,0],"sum_hessian":[3.1109048E3,2.2168328E3,8.9407196E2,1.1948396E3,1.0219931E3,5.4729004E2,3.4678195E2,2.3669861E2,9.5814105E2,6.154398E2,4.0655328E2,2.6473224E2,2.825578E2,2.1912202E2,1.27659935E2,2.190042E2,1.7694414E1,9.3047174E2,2.7669281E1,4.190786E2,1.9636122E2,3.8089807E2,2.5655209E1,5.5293663E1,2.0943857E2,1.4094865E2,1.4160913E2,1.1222632E2,1.54336195E1,4.9746403E1,1.6925778E2,3.6182343E2,5.686483E2,3.9727692E2,2.1801718E1,7.2068954E1,1.2429227E2,1.8777411E2,1.9312395E2,3.486445E1,2.0429216E1,1.9152856E2,1.7909988E1,8.378045E1,5.7168205E1,1.5764232E1,1.25844894E2,8.1554565E1,3.0671751E1],"tree_param":{"num_deleted":"0","num_feature":"62","num_nodes":"49","size_leaf_vector":"1"}},{"base_weights":[-1.387365E-2,-2.5532094E-1,4.776819E-1,-5.0501937E-1,-1.1913877E-1,3.5534078E-1,9.729905E-1,-6.209257E-1,-3.3740523E-1,-2.3578301E-1,-3.6102917E-2,2.314142E-1,5.200209E-1,4.3792207E-2,7.017123E-2,-7.829087E-1,-4.4952476E-1,-3.7330994E-1,1.5657399E-2,-3.3254197E-1,-1.2891681E-1,3.0216038E-2,-1.7234243E-1,1.4675625E-1,3.502572E-1,2.9363787E-1,5.565307E-1,-3.0640429E-2,-5.8837134E-2,-1.1929692E-3,-3.206822E-2,-2.960807E-2,-1.2499059E-2,-2.37819E-2,-0E0,-1.9674337E-2,-0E0,-6.236865E-3,6.386755E-3,-2.514236E-2,-6.9693034E-3,1.4062425E-2,3.4427103E-3,1.567056E-2,3.262583E-2,9.154332E-3,2.892452E-2,3.963508E-2,2.2387639E-2],"categories":[],"categories_nodes":[],"categories_segments":[],"categories_sizes":[],"default_left":[0,0,0,1,0,0,1,0,0,1,1,1,0,0,0,0,0,1,0,0,1,0,0,1,0,0,0,0,0,0,0,0,0,0,0,0,0,0,0,0,0,0,0,0,0,0,0,0,0],"id":19,"left_children":[1,3,5,7,9,11,13,15,17,19,21,23,25,-1,-1,27,29,31,-1,33,35,37,39,41,43,45,47,-1,-1,-1,-1,-1,-1,-1,-1,-1,-1,-1,-1,-1,-1,-1,-1,-1,-1,-1,-1,-1,-1],"loss_changes":[3.6332535E2,6.901686E1,5.897673E1,1.2558319E1,1.2541561E1,1.5420647E1,2.30484E0,9.764343E0,6.437649E0,4.989685E0,7.320997E0,3.982233E0,1.5433426E0,0E0,0E0,4.8269196E0,2.2535324E0,2.872631E0,0E0,1.8450089E0,5.5030527E0,4.278946E0,2.9762306E0,1.3511267E0,1.9273968E0,3.4921694E-1,1.0863647E0,0E0,0E0,0E0,0E0,0E0,0E0,0E0,0E0,0E0,0E0,0E0,0E0,0E0,0E0,0E0,0E0,0E0,0E0,0E0,0E0,0E0,0E0],"parents":[2147483647,0,0,1,1,2,2,3,3,4,4,5,5,6,6,7,7,8,8,9,9,10,10,11,11,12,12,15,15,16,16,17,17,19,19,20,20,21,21,22,22,23,23,24,24,25,25,26,26],"right_children":[2,4,6,8,10,12,14,16,18,20,22,24,26,-1,-1,28,30,32,-1,34,36,38,40,42,44,46,48,-1,-1,-1,-1,-1,-1,-1,-1,-1,-1,-1,-1,-1,-1,-1,-1,-1,-1,-1,-1,-1,-1],"split_conditions":[2.413E4,6E3,2.134175E5,1.2752979E0,9.64E3,7E4,1.3178208E5,3.615E3,9.46E1,1.3743794E0,1.254E2,5E4,1.1893955E0,4.3792207E-2,7.017123E-2,1.3417E2,3.8E1,1.286984E4,1.5657399E-2,5E0,3.65E1,2.0837133E4,9.679468E0,4.997E-1,5.6479087E0,9.25E4,8E0,-3.0640429E-2,-5.8837134E-2,-1.1929692E-3,-3.206822E-2,-2.960807E-2,-1.2499059E-2,-2.37819E-2,-0E0,-1.9674337E-2,-0E0,-6.236865E-3,6.386755E-3,-2.514236E-2,-6.9693034E-3,1.4062425E-2,3.4427103E-3,1.567056E-2,3.262583E-2,9.154332E-3,2.892452E-2,3.963508E-2,2.2387639E-2],"split_indices":[28,28,28,9,28,28,3,28,13,9,51,47,9,0,0,51,18,47,0,59,14,36,35,52,12,28,22,0,0,0,0,0,0,0,0,0,0,0,0,0,0,0,0,0,0,0,0,0,0],"split_type":[0,0,0,0,0,0,0,0,0,0,0,0,0,0,0,0,0,0,0,0,0,0,0,0,0,0,0,0,0,0,0,0,0,0,0,0,0,0,0,0,0,0,0,0,0,0,0,0,0],"sum_hessian":[3.062881E3,2.056086E3,1.0067953E3,7.214501E2,1.3346359E3,8.103793E2,1.96416E2,4.2068616E2,3.0076392E2,5.4750055E2,7.871353E2,4.6802805E2,3.4235123E2,4.5270462E1,1.5114554E2,2.1108603E2,2.0960011E2,2.855248E2,1.5239098E1,2.7979926E2,2.677013E2,5.2268463E2,2.6445068E2,2.8096918E2,1.8705887E2,5.358829E1,2.8876294E2,5.475736E1,1.5632867E2,1.7886787E1,1.9171332E2,1.9964854E2,8.587627E1,2.562609E2,2.3538345E1,1.1327207E2,1.5442921E2,1.7369968E2,3.4898495E2,5.95739E1,2.048768E2,1.5784564E2,1.2312352E2,1.0931063E2,7.774823E1,3.0730934E1,2.2857357E1,2.3855339E2,5.020956E1],"tree_param":{"num_deleted":"0","num_feature":"62","num_nodes":"49","size_leaf_vector":"1"}},{"base_weights":[-0E0,-1.9544834E-1,5.070835E-1,-3.7346962E-1,-2.8365327E-2,3.1672513E-1,7.6231146E-1,3.804987E-2,-3.9014345E-1,-1.24909244E-1,6.401611E-2,1.5325226E-1,3.68295E-1,6.3851804E-1,7.185692E-2,-5.789121E-1,-3.1832048E-1,-1.7333224E-1,-0E0,3.5247527E-2,4.096838E-1,7.636369E-2,3.1677985E-1,3.041298E-1,5.305415E-1,6.573754E-1,1.6260594E-2,-6.977552E-2,-3.521923E-2,-1.4839243E-3,-2.2835234E-2,-1.1370716E-3,-1.3916356E-2,-3.4515057E-2,4.6416176E-3,-1.2019438E-3,9.857472E-3,4.2907423E-3,4.7578312E-2,-0E0,7.807447E-3,3.125918E-2,5.364983E-3,2.1285532E-2,-0E0,2.9313365E-2,5.4330993E-2,4.6145864E-2,2.7738623E-2],"categories":[],"categories_nodes":[],"categories_segments":[],"categories_sizes":[],"default_left":[0,0,0,1,1,0,1,0,0,0,1,0,0,0,0,0,0,0,1,1,0,1,1,1,0,0,0,0,0,0,0,0,0,0,0,0,0,0,0,0,0,0,0,0,0,0,0,0,0],"id":20,"left_children":[1,3,5,7,9,11,13,-1,15,17,19,21,23,25,-1,27,29,31,33,35,37,39,41,43,45,47,-1,-1,-1,-1,-1,-1,-1,-1,-1,-1,-1,-1,-1,-1,-1,-1,-1,-1,-1,-1,-1,-1,-1],"loss_changes":[2.9897748E2,6.405598E1,3.9152023E1,1.6379105E1,1.0129232E1,3.3208961E0,1.1204605E1,0E0,1.2616821E1,3.5627766E0,5.0095987E0,9.865587E-1,2.499611E0,5.710144E-1,0E0,3.922226E0,5.0737762E0,1.970459E0,4.9743433E0,3.3716707E0,3.07059E0,3.351192E-1,4.1270804E-1,1.1200352E0,4.8690605E-1,4.2423248E-1,0E0,0E0,0E0,0E0,0E0,0E0,0E0,0E0,0E0,0E0,0E0,0E0,0E0,0E0,0E0,0E0,0E0,0E0,0E0,0E0,0E0,0E0,0E0],"parents":[2147483647,0,0,1,1,2,2,3,3,4,4,5,5,6,6,8,8,9,9,10,10,11,11,12,12,13,13,15,15,16,16,17,17,18,18,19,19,20,20,21,21,22,22,23,23,24,24,25,25],"right_children":[2,4,6,8,10,12,14,-1,16,18,20,22,24,26,-1,28,30,32,34,36,38,40,42,44,46,48,-1,-1,-1,-1,-1,-1,-1,-1,-1,-1,-1,-1,-1,-1,-1,-1,-1,-1,-1,-1,-1,-1,-1],"split_conditions":[1.0341775E1,8.987322E0,1.17280445E1,2.4977043E-1,9.6959095E0,1E0,1.3017005E1,3.804987E-2,8.160804E0,9.770013E0,2.7902374E-1,8.411E-1,1.1289794E1,4.89E2,7.185692E-2,6.908755E0,6.612492E-2,5.3E1,5.008781E-2,4.9E3,3.335E-1,3.7344284E0,8.982E-1,1.502E2,2.74932E5,6E0,1.6260594E-2,-6.977552E-2,-3.521923E-2,-1.4839243E-3,-2.2835234E-2,-1.1370716E-3,-1.3916356E-2,-3.4515057E-2,4.6416176E-3,-1.2019438E-3,9.857472E-3,4.2907423E-3,4.7578312E-2,-0E0,7.807447E-3,3.125918E-2,5.364983E-3,2.1285532E-2,-0E0,2.9313365E-2,5.4330993E-2,4.6145864E-2,2.7738623E-2],"split_indices":[30,30,30,29,48,31,48,0,30,30,40,53,30,0,0,30,46,18,46,15,29,10,53,14,36,60,0,0,0,0,0,0,0,0,0,0,0,0,0,0,0,0,0,0,0,0,0,0,0],"split_type":[0,0,0,0,0,0,0,0,0,0,0,0,0,0,0,0,0,0,0,0,0,0,0,0,0,0,0,0,0,0,0,0,0,0,0,0,0,0,0,0,0,0,0,0,0,0,0,0,0],"sum_hessian":[3.0118035E3,2.172395E3,8.394085E2,1.0473502E3,1.1250448E3,4.846504E2,3.5475812E2,1.6375296E1,1.030975E3,5.575522E2,5.674926E2,1.23313965E2,3.6133643E2,2.5974146E2,9.501665E1,2.7770654E2,7.5326843E2,4.0788303E2,1.4966917E2,5.28204E2,3.9288616E1,9.029205E1,3.302191E1,2.6625983E2,9.5076584E1,2.4411192E2,1.5629538E1,2.26116E1,2.5509496E2,6.3341675E1,6.8992676E2,8.382019E1,3.2406284E2,1.5514501E1,1.3415468E2,3.5061514E2,1.7758884E2,2.0929432E1,1.8359184E1,2.808378E1,6.220827E1,1.6068207E1,1.6953705E1,2.5123685E2,1.5022986E1,7.716928E1,1.7907305E1,2.058827E2,3.8229218E1],"tree_param":{"num_deleted":"0","num_feature":"62","num_nodes":"49","size_leaf_vector":"1"}},{"base_weights":[-8.492328E-3,-1.915723E-1,3.8779107E-1,-2.6854616E-1,3.062474E-3,2.7138346E-1,7.666049E-1,-7.6096304E-2,-2.5253507E-1,-9.913E-2,9.4409876E-2,1.5375334E-1,3.8295874E-1,6.1486584E-1,6.5454535E-2,-3.3864763E-1,-1.6825077E-1,-0E0,-1.8649006E-1,3.0480381E-2,3.0211416E-1,-1.8685169E-3,2.168973E-1,-0E0,4.105001E-1,4.5423143E-2,1.9988934E-2,-4.6212804E-2,-1.9574696E-2,-1.685853E-2,-3.1399147E-3,-2.3049781E-2,2.6467517E-3,-1.4096785E-2,-0E0,5.8760676E-3,-9.0482235E-3,1.1793204E-3,3.137288E-2,-1.4250559E-2,7.6201633E-3,-0E0,1.7203871E-2,1.6809687E-2,3.179311E-2],"categories":[],"categories_nodes":[],"categories_segments":[],"categories_sizes":[],"default_left":[1,1,0,0,1,0,0,0,0,0,1,1,0,0,0,1,1,0,1,1,0,0,0,0,0,0,0,0,0,0,0,0,0,0,0,0,0,0,0,0,0,0,0,0,0],"id":21,"left_children":[1,3,5,7,9,11,13,-1,15,17,19,21,23,25,-1,27,29,31,33,35,37,39,41,-1,43,-1,-1,-1,-1,-1,-1,-1,-1,-1,-1,-1,-1,-1,-1,-1,-1,-1,-1,-1,-1],"loss_changes":[2.2436911E2,3.214392E1,4.1459305E1,1.9249283E1,5.5635653E0,9.054859E0,4.8950653E0,0E0,1.0135017E1,2.1324308E0,3.8041573E0,3.9634962E0,4.0519943E0,1.4690895E0,0E0,1.0053375E1,7.484873E0,2.2834368E0,5.489111E-1,2.3710325E0,2.7074041E0,2.6646516E0,2.2258663E0,0E0,2.6698112E0,0E0,0E0,0E0,0E0,0E0,0E0,0E0,0E0,0E0,0E0,0E0,0E0,0E0,0E0,0E0,0E0,0E0,0E0,0E0,0E0],"parents":[2147483647,0,0,1,1,2,2,3,3,4,4,5,5,6,6,8,8,9,9,10,10,11,11,12,12,13,13,15,15,16,16,17,17,18,18,19,19,20,20,21,21,22,22,24,24],"right_children":[2,4,6,8,10,12,14,-1,16,18,20,22,24,26,-1,28,30,32,34,36,38,40,42,-1,44,-1,-1,-1,-1,-1,-1,-1,-1,-1,-1,-1,-1,-1,-1,-1,-1,-1,-1,-1,-1],"split_conditions":[3.75E4,1.574773E4,2.375E5,1.11125E3,3.3E1,8.595495E4,5.796E5,-7.6096304E-2,4.98E1,6E0,8.55E1,5.08E1,3.05E1,3E0,6.5454535E-2,3.0530227E-2,3.4E1,2.375E4,6.35E1,1.3482E2,6E0,2.016E4,4.794E-1,-0E0,7.56E4,4.5423143E-2,1.9988934E-2,-4.6212804E-2,-1.9574696E-2,-1.685853E-2,-3.1399147E-3,-2.3049781E-2,2.6467517E-3,-1.4096785E-2,-0E0,5.8760676E-3,-9.0482235E-3,1.1793204E-3,3.137288E-2,-1.4250559E-2,7.6201633E-3,-0E0,1.7203871E-2,1.6809687E-2,3.179311E-2],"split_indices":[47,47,47,47,17,36,47,0,14,55,14,14,14,57,0,46,17,5,14,51,11,37,52,0,47,0,0,0,0,0,0,0,0,0,0,0,0,0,0,0,0,0,0,0,0],"split_type":[0,0,0,0,0,0,0,0,0,0,0,0,0,0,0,0,0,0,0,0,0,0,0,0,0,0,0,0,0,0,0,0,0,0,0,0,0,0,0,0,0,0,0,0,0],"sum_hessian":[3.0953462E3,2.1198418E3,9.755044E2,1.5241642E3,5.956777E2,7.497409E2,2.2576347E2,2.5122234E1,1.4990419E3,2.737958E2,3.2188184E2,3.7175412E2,3.779868E2,1.3804071E2,8.772277E1,7.3238336E2,7.6665857E2,1.3548819E2,1.3830763E2,2.518015E2,7.0080345E1,1.0095865E2,2.707955E2,2.5039097E1,3.529477E2,1.09213104E2,2.8827604E1,7.657143E1,6.5581195E2,4.4256113E2,3.240974E2,1.6920624E1,1.1856756E2,1.1913083E2,1.91768E1,1.9336005E2,5.844146E1,2.9526531E1,4.0553814E1,3.99116E1,6.1047047E1,4.7368313E1,2.2342717E2,1.12941246E2,2.4000644E2],"tree_param":{"num_deleted":"0","num_feature":"62","num_nodes":"45","size_leaf_vector":"1"}},{"base_weights":[3.052308E-3,-1.7633972E-1,4.6812385E-1,-4.636433E-1,-9.558834E-2,3.78176E-1,9.0366894E-1,-5.063908E-1,3.747488E-2,-1.7648594E-1,4.7529373E-2,2.7453965E-1,4.809253E-1,8.056009E-1,9.0856664E-2,-3.014575E-1,-6.3310224E-1,-2.4897325E-1,-4.3801475E-2,2.654035E-2,4.050419E-2,-0E0,2.9309165E-1,4.5067814E-1,5.5537067E-2,8.6461484E-1,3.155133E-2,-3.6665092E-3,-2.64159E-2,-4.5931395E-2,-5.9223375E-3,-2.563955E-2,-1.4323877E-2,-9.574504E-3,5.007092E-3,-3.3103505E-3,5.8812685E-3,2.0968666E-2,5.561795E-3,3.0908694E-2,1.0068483E-2,3.0327085E-2,6.191813E-2],"categories":[],"categories_nodes":[],"categories_segments":[],"categories_sizes":[],"default_left":[0,0,0,1,0,0,0,0,0,1,1,0,1,1,0,0,1,0,0,0,0,0,0,1,0,0,0,0,0,0,0,0,0,0,0,0,0,0,0,0,0,0,0],"id":22,"left_children":[1,3,5,7,9,11,13,15,-1,17,19,21,23,25,-1,27,29,31,33,35,-1,-1,37,39,-1,41,-1,-1,-1,-1,-1,-1,-1,-1,-1,-1,-1,-1,-1,-1,-1,-1,-1],"loss_changes":[2.5951825E2,5.1127907E1,3.1958755E1,2.1460365E1,2.0474524E1,6.5474167E0,2.9438248E0,1.0763969E1,0E0,1.040778E1,6.478313E0,1.6788025E0,1.7851791E0,3.0509186E-1,0E0,3.7023335E0,7.806473E0,2.4107819E0,4.939289E0,2.9261308E0,0E0,0E0,1.0133915E0,4.9324036E-1,0E0,5.49881E-1,0E0,0E0,0E0,0E0,0E0,0E0,0E0,0E0,0E0,0E0,0E0,0E0,0E0,0E0,0E0,0E0,0E0],"parents":[2147483647,0,0,1,1,2,2,3,3,4,4,5,5,6,6,7,7,9,9,10,10,11,11,12,12,13,13,15,15,16,16,17,17,18,18,19,19,22,22,23,23,25,25],"right_children":[2,4,6,8,10,12,14,16,-1,18,20,22,24,26,-1,28,30,32,34,36,-1,-1,38,40,-1,42,-1,-1,-1,-1,-1,-1,-1,-1,-1,-1,-1,-1,-1,-1,-1,-1,-1],"split_conditions":[3.2E4,4.2875E3,3E5,4.063E5,1.5E4,8E4,2.15E6,8E1,3.747488E-2,1.834692E4,1.1918397E1,1.0322474E0,3.0567174E0,5.4E1,9.0856664E-2,1E0,8.5E1,8.784927E0,1.7494079E0,7.029E-1,4.050419E-2,-0E0,7E0,8.626E-1,5.5537067E-2,4.995E-1,3.155133E-2,-3.6665092E-3,-2.64159E-2,-4.5931395E-2,-5.9223375E-3,-2.563955E-2,-1.4323877E-2,-9.574504E-3,5.007092E-3,-3.3103505E-3,5.8812685E-3,2.0968666E-2,5.561795E-3,3.0908694E-2,1.0068483E-2,3.0327085E-2,6.191813E-2],"split_indices":[28,28,28,36,28,28,28,18,0,37,48,43,43,18,0,21,17,48,43,54,0,0,60,53,0,54,0,0,0,0,0,0,0,0,0,0,0,0,0,0,0,0,0],"split_type":[0,0,0,0,0,0,0,0,0,0,0,0,0,0,0,0,0,0,0,0,0,0,0,0,0,0,0,0,0,0,0,0,0,0,0,0,0,0,0,0,0,0,0],"sum_hessian":[3.1046208E3,2.2384507E3,8.6617017E2,4.867264E2,1.7517242E3,7.214053E2,1.4476488E2,4.688568E2,1.7869602E1,1.1253911E3,6.263332E2,3.6696777E2,3.544375E2,1.2313942E2,2.1625456E1,1.8407852E2,2.847783E2,7.205814E2,4.0480966E2,6.0672235E2,1.961085E1,2.5506016E1,3.4146176E2,3.313221E2,2.311536E1,1.001725E2,2.2966917E1,5.591815E1,1.2816037E2,2.5501729E2,2.976101E1,1.3273212E2,5.878493E2,2.2627916E2,1.785305E2,2.614956E2,3.4522675E2,3.023217E2,3.9140064E1,3.115766E2,1.9745543E1,1.7580881E1,8.259162E1],"tree_param":{"num_deleted":"0","num_feature":"62","num_nodes":"43","size_leaf_vector":"1"}},{"base_weights":[-6.0802004E-3,-2.1214463E-1,3.3311614E-1,-3.3185267E-1,-5.639413E-2,1.6422366E-1,5.354856E-1,-6.607927E-1,-2.8861636E-1,-1.2016857E-1,5.7435617E-2,1.284657E-1,4.61277E-1,4.387286E-1,8.042149E-1,-7.8671885E-1,9.773277E-3,-3.164081E-1,7.402826E-3,-9.500408E-2,-4.06404E-1,-8.4131606E-2,1.7053242E-1,7.0410736E-2,2.3123041E-1,5.235278E-1,1.0721258E-2,4.9030083E-1,2.4855211E-1,8.678161E-1,1.4950604E-2,-1.256868E-2,-5.807327E-2,-1.7046802E-2,-2.7590798E-2,2.601218E-2,-8.698607E-3,-8.455002E-3,2.8110428E-3,-0E0,-4.440221E-2,-1.1550724E-2,9.498097E-3,6.788445E-3,3.0557476E-2,8.095296E-3,-5.6905235E-4,6.5425118E-3,2.1106625E-2,4.1191787E-2,1.6170254E-2,2.9281532E-2,4.7982097E-2,-0E0,1.9833587E-2,4.5993134E-2,7.112764E-2],"categories":[],"categories_nodes":[],"categories_segments":[],"categories_sizes":[],"default_left":[0,0,0,0,1,1,0,1,1,0,0,0,1,1,1,0,0,1,0,0,1,1,0,0,1,0,0,0,0,0,0,0,0,0,0,0,0,0,0,0,0,0,0,0,0,0,0,0,0,0,0,0,0,0,0,0,0],"id":23,"left_children":[1,3,5,7,9,11,13,15,17,19,21,23,25,27,29,31,-1,33,35,37,39,41,43,45,47,49,-1,51,53,55,-1,-1,-1,-1,-1,-1,-1,-1,-1,-1,-1,-1,-1,-1,-1,-1,-1,-1,-1,-1,-1,-1,-1,-1,-1,-1,-1],"loss_changes":[2.2140102E2,3.6255035E1,3.9819412E1,1.4358681E1,6.3639145E0,6.102398E0,1.208931E1,1.36701355E1,8.55854E0,3.3154736E0,4.974275E0,3.0873156E0,2.182827E-1,2.8303833E0,3.4488144E0,4.0830917E0,0E0,4.3557434E0,4.68273E0,2.42522E0,3.7936358E0,2.6819677E0,2.6194668E0,1.7297668E0,1.7311954E0,5.7721138E-2,0E0,1.7663574E0,8.507905E-1,1.4690399E0,0E0,0E0,0E0,0E0,0E0,0E0,0E0,0E0,0E0,0E0,0E0,0E0,0E0,0E0,0E0,0E0,0E0,0E0,0E0,0E0,0E0,0E0,0E0,0E0,0E0,0E0,0E0],"parents":[2147483647,0,0,1,1,2,2,3,3,4,4,5,5,6,6,7,7,8,8,9,9,10,10,11,11,12,12,13,13,14,14,15,15,17,17,18,18,19,19,20,20,21,21,22,22,23,23,24,24,25,25,27,27,28,28,29,29],"right_children":[2,4,6,8,10,12,14,16,18,20,22,24,26,28,30,32,-1,34,36,38,40,42,44,46,48,50,-1,52,54,56,-1,-1,-1,-1,-1,-1,-1,-1,-1,-1,-1,-1,-1,-1,-1,-1,-1,-1,-1,-1,-1,-1,-1,-1,-1,-1,-1],"split_conditions":[2E4,8E3,7E4,2E3,1.5526786E0,2.4779308E0,3E5,4.25958E3,2.30563E0,3.98E2,3E0,4.25E4,1.9387146E-2,1.0313E2,1.1637E2,1.951E3,9.773277E-3,1.2325E2,1.3001E2,1.75E4,1.07973E3,4.9E3,1.8809695E5,6.3E1,1.8804567E-1,4E0,1.0721258E-2,2.76318E0,8.82375E4,5.46E2,1.4950604E-2,-1.256868E-2,-5.807327E-2,-1.7046802E-2,-2.7590798E-2,2.601218E-2,-8.698607E-3,-8.455002E-3,2.8110428E-3,-0E0,-4.440221E-2,-1.1550724E-2,9.498097E-3,6.788445E-3,3.0557476E-2,8.095296E-3,-5.6905235E-4,6.5425118E-3,2.1106625E-2,4.1191787E-2,1.6170254E-2,2.9281532E-2,4.7982097E-2,-0E0,1.9833587E-2,4.5993134E-2,7.112764E-2],"split_indices":[28,28,28,28,43,43,28,15,43,0,44,28,8,51,51,16,0,51,51,28,15,15,3,56,46,22,0,43,28,49,0,0,0,0,0,0,0,0,0,0,0,0,0,0,0,0,0,0,0,0,0,0,0,0,0,0,0],"split_type":[0,0,0,0,0,0,0,0,0,0,0,0,0,0,0,0,0,0,0,0,0,0,0,0,0,0,0,0,0,0,0,0,0,0,0,0,0,0,0,0,0,0,0,0,0,0,0,0,0,0,0,0,0,0,0,0,0],"sum_hessian":[3.1689875E3,1.9740892E3,1.1948982E3,1.1107142E3,8.6337506E2,6.556514E2,5.392467E2,1.24367775E2,9.863464E2,5.6132526E2,3.0204984E2,5.901279E2,6.552352E1,4.013666E2,1.3788013E2,1.0912599E2,1.5241783E1,9.060417E2,8.0304726E1,5.211505E2,4.017476E1,1.2862653E2,1.7342331E2,3.8647314E2,2.0365479E2,5.003104E1,1.5492481E1,3.092348E2,9.213179E1,1.2180397E2,1.6076155E1,1.6091837E1,9.303416E1,5.730001E2,3.3304156E2,2.3733297E1,5.657143E1,4.306782E2,9.047229E1,1.7107841E1,2.3066917E1,9.679861E1,3.1827927E1,1.4474791E2,2.8675404E1,2.4495006E2,1.4152309E2,8.704511E1,1.16609665E2,3.3041676E1,1.6989367E1,2.6057767E2,4.8657143E1,1.8745543E1,7.338625E1,7.000709E1,5.1796886E1],"tree_param":{"num_deleted":"0","num_feature":"62","num_nodes":"57","size_leaf_vector":"1"}},{"base_weights":[-9.153881E-3,-1.8573855E-1,3.477593E-1,-3.6759314E-1,-9.268962E-2,2.7309915E-1,7.870007E-1,-4.2766318E-1,-1.2453301E-1,-1.4460924E-1,1.2916319E-2,1.5354796E-1,3.760375E-1,6.920252E-1,8.413407E-2,-7.2140194E-2,-3.975411E-1,-2.3324585E-2,-5.3774778E-2,-1.9528054E-1,-1.7858235E-2,4.2001776E-2,-2.2338854E-2,8.50001E-2,2.6469624E-1,3.322215E-1,6.485821E-1,8.6945695E-1,3.516827E-2,-1.2860093E-2,-3.0847253E-2,3.1316135E-2,-7.888018E-3,-1.9133566E-2,-9.723148E-3,-1.6511431E-2,5.470953E-3,-1.935781E-6,1.530467E-2,8.161271E-3,-2.0295721E-3,1.9813895E-3,2.2381462E-2,2.2925409E-2,-0E0,5.4076858E-2,2.9521301E-2,3.4911264E-2,7.081444E-2],"categories":[],"categories_nodes":[],"categories_segments":[],"categories_sizes":[],"default_left":[0,0,0,1,0,0,0,0,0,1,0,1,1,1,0,0,0,0,0,1,1,0,0,0,0,1,0,0,0,0,0,0,0,0,0,0,0,0,0,0,0,0,0,0,0,0,0,0,0],"id":24,"left_children":[1,3,5,7,9,11,13,15,17,19,21,23,25,27,-1,-1,29,31,-1,33,35,37,-1,39,41,43,45,47,-1,-1,-1,-1,-1,-1,-1,-1,-1,-1,-1,-1,-1,-1,-1,-1,-1,-1,-1,-1,-1],"loss_changes":[1.9411897E2,3.428257E1,3.1769806E1,9.319397E0,7.7122507E0,9.970451E0,3.3523178E0,8.591293E0,8.704249E0,5.6626987E0,4.09284E0,2.627081E0,4.023056E0,1.3825264E0,0E0,0E0,6.202194E0,5.50233E0,0E0,2.3366013E0,6.5663915E0,3.5992908E0,0E0,1.2798586E0,1.9877539E0,1.4443436E0,2.01931E-2,1.1367912E0,0E0,0E0,0E0,0E0,0E0,0E0,0E0,0E0,0E0,0E0,0E0,0E0,0E0,0E0,0E0,0E0,0E0,0E0,0E0,0E0,0E0],"parents":[2147483647,0,0,1,1,2,2,3,3,4,4,5,5,6,6,7,7,8,8,9,9,10,10,11,11,12,12,13,13,16,16,17,17,19,19,20,20,21,21,23,23,24,24,25,25,26,26,27,27],"right_children":[2,4,6,8,10,12,14,16,18,20,22,24,26,28,-1,-1,30,32,-1,34,36,38,-1,40,42,44,46,48,-1,-1,-1,-1,-1,-1,-1,-1,-1,-1,-1,-1,-1,-1,-1,-1,-1,-1,-1,-1,-1],"split_conditions":[1.0091252E1,8.598496E0,1.2445093E1,4.14368E3,9.615872E0,1.1002116E1,1.4580978E1,6.908755E0,1.8E1,4.6708655E0,1.629E2,1.624845E0,2.5725179E0,1.7637858E-1,8.413407E-2,-7.2140194E-2,4.7E1,7.797086E0,-5.3774778E-2,9.838949E0,9.9246E2,8.73E1,-2.2338854E-2,1E0,3.748908E4,2.2613587E0,1E0,1.7142579E-2,3.516827E-2,-1.2860093E-2,-3.0847253E-2,3.1316135E-2,-7.888018E-3,-1.9133566E-2,-9.723148E-3,-1.6511431E-2,5.470953E-3,-1.935781E-6,1.530467E-2,8.161271E-3,-2.0295721E-3,1.9813895E-3,2.2381462E-2,2.2925409E-2,-0E0,5.4076858E-2,2.9521301E-2,3.4911264E-2,7.081444E-2],"split_indices":[30,30,30,15,30,30,30,30,55,12,13,43,43,46,0,0,18,30,0,35,15,13,0,27,36,9,45,40,0,0,0,0,0,0,0,0,0,0,0,0,0,0,0,0,0,0,0,0,0],"split_type":[0,0,0,0,0,0,0,0,0,0,0,0,0,0,0,0,0,0,0,0,0,0,0,0,0,0,0,0,0,0,0,0,0,0,0,0,0,0,0,0,0,0,0,0,0,0,0,0,0],"sum_hessian":[3.0826204E3,2.0651162E3,1.0175043E3,6.933218E2,1.3717943E3,8.7315393E2,1.4435037E2,5.5093445E2,1.4238733E2,9.2854004E2,4.4325424E2,4.1094952E2,4.622044E2,1.2395757E2,2.0392803E1,2.1291515E1,5.2964294E2,1.2630784E2,1.6079485E1,6.5515424E2,2.7338583E2,4.133146E2,2.9939634E1,2.6264502E2,1.483045E2,4.0365704E2,5.8547367E1,5.4148014E1,6.980956E1,1.356566E2,3.9398636E2,1.7682062E1,1.0862578E2,2.1623094E2,4.389233E2,8.687143E1,1.8651439E2,3.3209967E2,8.121493E1,2.0721654E2,5.5428463E1,3.9546295E1,1.0875822E2,3.8694446E2,1.6712566E1,2.7753706E1,3.0793663E1,2.291783E1,3.1230183E1],"tree_param":{"num_deleted":"0","num_feature":"62","num_nodes":"49","size_leaf_vector":"1"}},{"base_weights":[-1.6033441E-3,-1.5748802E-1,3.385949E-1,-3.651431E-1,-8.7193586E-2,2.6393014E-1,7.308982E-1,-6.483294E-1,-3.1659308E-1,-1.5733784E-1,1.3394319E-3,1.7555508E-1,3.5387897E-1,6.3200015E-1,7.23253E-2,-6.612059E-2,-2.839655E-2,-5.4970735E-1,-2.4515752E-1,-2.1940832E-1,-1.2880195E-2,1.1198975E-1,-5.0929967E-2,2.0235834E-1,-0E0,2.2783144E-1,4.0946242E-1,1.1601249E-2,6.8367213E-1,-4.7247898E-2,-8.061824E-3,-2.0231005E-2,-5.6190863E-3,-1.2748494E-2,-2.6189152E-2,2.289148E-2,-2.7900087E-3,-3.4147114E-3,1.3698927E-2,-9.028706E-3,-0E0,2.7030006E-2,1.109033E-2,-2.4392842E-3,1.6326673E-3,1.8012492E-2,5.2564256E-3,2.8853483E-2,1.8062479E-3,1.8090444E-2,4.9550444E-2],"categories":[],"categories_nodes":[],"categories_segments":[],"categories_sizes":[],"default_left":[0,0,0,0,0,0,0,0,0,1,1,1,1,0,0,0,0,1,0,0,0,0,1,0,0,1,1,0,0,0,0,0,0,0,0,0,0,0,0,0,0,0,0,0,0,0,0,0,0,0,0],"id":25,"left_children":[1,3,5,7,9,11,13,15,17,19,21,23,25,27,-1,-1,-1,29,31,33,35,37,39,41,43,45,47,-1,49,-1,-1,-1,-1,-1,-1,-1,-1,-1,-1,-1,-1,-1,-1,-1,-1,-1,-1,-1,-1,-1,-1],"loss_changes":[1.6129074E2,2.9876854E1,2.6443611E1,5.7264023E0,9.962741E0,5.620716E0,2.4728317E0,3.2690678E0,6.3364143E0,7.596653E0,4.051266E0,2.0915937E0,1.7855492E0,1.5864754E0,0E0,0E0,0E0,5.737955E0,2.7751064E0,2.0840874E0,2.4147747E0,3.7361162E0,1.8353851E0,1.7928009E0,5.5681728E-2,3.157773E-1,1.7950935E0,0E0,1.1335831E0,0E0,0E0,0E0,0E0,0E0,0E0,0E0,0E0,0E0,0E0,0E0,0E0,0E0,0E0,0E0,0E0,0E0,0E0,0E0,0E0,0E0,0E0],"parents":[2147483647,0,0,1,1,2,2,3,3,4,4,5,5,6,6,7,7,8,8,9,9,10,10,11,11,12,12,13,13,17,17,18,18,19,19,20,20,21,21,22,22,23,23,24,24,25,25,26,26,28,28],"right_children":[2,4,6,8,10,12,14,16,18,20,22,24,26,28,-1,-1,-1,30,32,34,36,38,40,42,44,46,48,-1,50,-1,-1,-1,-1,-1,-1,-1,-1,-1,-1,-1,-1,-1,-1,-1,-1,-1,-1,-1,-1,-1,-1],"split_conditions":[1.0185597E1,8.517393E0,1.2445093E1,1.9E1,9.396903E0,1.1156265E1,1.4038655E1,1E0,7.6014023E0,1.6502742E0,3.744E1,4.3223858E-2,1.3190713E0,5.257E-1,7.23253E-2,-6.612059E-2,-2.839655E-2,6.7E1,3.63825E3,2.6962355E1,1.6815672E0,8E0,2.2554177E-1,1E0,1.0657283E1,6.319E-1,8.009E-1,1.1601249E-2,6.32905E3,-4.7247898E-2,-8.061824E-3,-2.0231005E-2,-5.6190863E-3,-1.2748494E-2,-2.6189152E-2,2.289148E-2,-2.7900087E-3,-3.4147114E-3,1.3698927E-2,-9.028706E-3,-0E0,2.7030006E-2,1.109033E-2,-2.4392842E-3,1.6326673E-3,1.8012492E-2,5.2564256E-3,2.8853483E-2,1.8062479E-3,1.8090444E-2,4.9550444E-2],"split_indices":[30,30,30,17,30,30,30,21,30,43,50,8,43,53,0,0,0,17,15,10,43,1,46,25,30,53,52,0,15,0,0,0,0,0,0,0,0,0,0,0,0,0,0,0,0,0,0,0,0,0,0],"split_type":[0,0,0,0,0,0,0,0,0,0,0,0,0,0,0,0,0,0,0,0,0,0,0,0,0,0,0,0,0,0,0,0,0,0,0,0,0,0,0,0,0,0,0,0,0,0,0,0,0,0,0],"sum_hessian":[3.045219E3,2.0913665E3,9.538524E2,5.2326324E2,1.5681033E3,8.050995E2,1.4875296E2,7.137336E1,4.518899E2,8.836348E2,6.8446844E2,4.1482578E2,3.9027368E2,1.20695915E2,2.8057035E1,2.4639313E1,4.673405E1,1.00529106E2,3.513608E2,6.110069E2,2.7262793E2,2.281202E2,4.5634824E2,3.6316357E2,5.166219E1,1.2804834E2,2.6222534E2,1.52628355E1,1.0543308E2,7.043974E1,3.0089367E1,2.5009291E2,1.0126788E2,5.352481E2,7.575875E1,1.6431793E1,2.5619614E2,7.790795E1,1.5021225E2,1.6332503E2,2.930232E2,4.718668E1,3.159769E2,3.1687325E1,1.9974865E1,9.158915E1,3.6459183E1,2.4291074E2,1.9314608E1,1.706391E1,8.836917E1],"tree_param":{"num_deleted":"0","num_feature":"62","num_nodes":"51","size_leaf_vector":"1"}},{"base_weights":[1.8805149E-3,-1.6872005E-1,2.7863723E-1,-2.7569875E-1,-3.6303673E-2,1.7379111E-1,5.0475144E-1,-3.4948567E-1,-1.5179214E-1,-6.1116945E-2,4.5331895E-2,1.3848308E-1,4.4141173E-1,3.9490086E-1,6.4564574E-1,-3.463391E-2,-3.8603175E-1,-2.4427943E-1,-4.387074E-2,2.6570307E-2,-1.406566E-1,5.6460682E-2,2.3634037E-1,6.7841886E-3,4.028212E-2,6.0803545E-1,3.3783332E-1,7.0886636E-1,1.970515E-2,1.813056E-2,-2.2085376E-2,-3.3438444E-2,-2.0603886E-2,-1.3285577E-2,-4.443444E-2,-1.1262425E-2,6.0305145E-4,5.459147E-3,-1.0949759E-2,-1.5934953E-2,-2.7867171E-3,6.647688E-3,-1.8992902E-4,1.7760895E-2,4.554054E-4,1.94567E-2,5.0799385E-2,2.713046E-2,1.4560059E-2,5.0468326E-2,2.0414952E-2],"categories":[],"categories_nodes":[],"categories_segments":[],"categories_sizes":[],"default_left":[0,1,0,0,1,1,1,0,0,0,0,0,0,0,1,0,1,0,0,1,1,0,0,0,0,0,0,1,0,0,0,0,0,0,0,0,0,0,0,0,0,0,0,0,0,0,0,0,0,0,0],"id":26,"left_children":[1,3,5,7,9,11,13,15,17,19,-1,21,23,25,27,29,31,33,35,37,39,41,43,-1,-1,45,47,49,-1,-1,-1,-1,-1,-1,-1,-1,-1,-1,-1,-1,-1,-1,-1,-1,-1,-1,-1,-1,-1,-1,-1],"loss_changes":[1.4295288E2,2.6011864E1,2.6410133E1,8.65242E0,1.412816E1,6.6597977E0,3.992363E0,6.716812E0,3.492919E0,5.851634E0,0E0,5.260105E0,3.8597488E0,1.109909E0,1.823246E0,6.600515E0,3.803772E0,2.5395918E0,1.4797564E0,3.9230363E0,3.85857E0,1.1540794E0,1.8318844E0,0E0,0E0,2.8006935E-1,5.013199E-1,8.8251495E-1,0E0,0E0,0E0,0E0,0E0,0E0,0E0,0E0,0E0,0E0,0E0,0E0,0E0,0E0,0E0,0E0,0E0,0E0,0E0,0E0,0E0,0E0,0E0],"parents":[2147483647,0,0,1,1,2,2,3,3,4,4,5,5,6,6,7,7,8,8,9,9,11,11,12,12,13,13,14,14,15,15,16,16,17,17,18,18,19,19,20,20,21,21,22,22,25,25,26,26,27,27],"right_children":[2,4,6,8,10,12,14,16,18,20,-1,22,24,26,28,30,32,34,36,38,40,42,44,-1,-1,46,48,50,-1,-1,-1,-1,-1,-1,-1,-1,-1,-1,-1,-1,-1,-1,-1,-1,-1,-1,-1,-1,-1,-1,-1],"split_conditions":[2.0835E4,1.02E4,1.25E5,6.9E3,1.3E2,2.7507187E1,1.057E2,1.941E3,1E0,1.982E3,4.5331895E-2,5E4,8.19E-1,2.5E1,1.1637E2,1E0,3.0663928E-1,9.275839E0,8.435E3,1.3989E2,2.394E3,7.4304E3,1.23E2,6.7841886E-3,4.028212E-2,3.526352E0,9.943527E0,1.75E2,1.970515E-2,1.813056E-2,-2.2085376E-2,-3.3438444E-2,-2.0603886E-2,-1.3285577E-2,-4.443444E-2,-1.1262425E-2,6.0305145E-4,5.459147E-3,-1.0949759E-2,-1.5934953E-2,-2.7867171E-3,6.647688E-3,-1.8992902E-4,1.7760895E-2,4.554054E-4,1.94567E-2,5.0799385E-2,2.713046E-2,1.4560059E-2,5.0468326E-2,2.0414952E-2],"split_indices":[28,47,28,28,13,10,13,16,31,16,0,28,53,0,51,0,10,10,28,51,15,15,13,0,0,10,35,11,0,0,0,0,0,0,0,0,0,0,0,0,0,0,0,0,0,0,0,0,0,0,0],"split_type":[0,0,0,0,0,0,0,0,0,0,0,0,0,0,0,0,0,0,0,0,0,0,0,0,0,0,0,0,0,0,0,0,0,0,0,0,0,0,0,0,0,0,0,0,0,0,0,0,0,0,0],"sum_hessian":[3.0233809E3,1.8673604E3,1.1560204E3,1.0266555E3,8.4070483E2,7.9470935E2,3.6131107E2,6.357028E2,3.9095273E2,8.149871E2,2.5717724E1,7.074551E2,8.725424E1,2.0977937E2,1.515317E2,7.025714E1,5.654457E2,2.0309956E2,1.8785316E2,3.793158E2,4.3567133E2,3.9319678E2,3.1425833E2,3.1558216E1,5.5696026E1,3.800623E1,1.7177315E2,1.2442159E2,2.7110096E1,3.2234158E1,3.8022987E1,2.1469914E2,3.5074652E2,1.8752502E2,1.5574543E1,6.335156E1,1.2450161E2,2.9994113E2,7.937465E1,2.1003899E2,2.2563232E2,2.4041998E2,1.527768E2,2.7159387E2,4.2664448E1,1.6070892E1,2.1935339E1,9.972417E1,7.204898E1,1.07084854E2,1.7336735E1],"tree_param":{"num_deleted":"0","num_feature":"62","num_nodes":"51","size_leaf_vector":"1"}},{"base_weights":[3.4975046E-3,-1.4040628E-1,2.922884E-1,-3.0481362E-1,-5.3533603E-2,2.3620792E-1,6.430314E-1,-1.746987E-1,-3.877593E-1,-7.048828E-2,1.6602758E-1,1.5781072E-1,3.043311E-1,2.1980975E-2,7.2660655E-1,-1.1685812E-1,-3.9726667E-2,-6.136008E-1,-3.3117843E-1,-9.750536E-2,9.05758E-3,2.0989422E-3,3.465872E-2,5.9367493E-2,2.183676E-1,2.2850534E-1,3.593272E-1,5.8865763E-2,5.745914E-1,-1.6343439E-2,1.2702222E-3,-5.2206755E-2,-0E0,-3.6022093E-2,-1.7790787E-2,-5.2946934E-4,-8.729443E-3,1.7045919E-2,-7.5449585E-4,-1.4912862E-2,8.200577E-3,8.001103E-3,-7.189203E-4,4.8732115E-3,1.8616507E-2,1.6970294E-2,-0E0,1.2252724E-2,2.586505E-2,1.6248055E-2,4.452979E-2],"categories":[],"categories_nodes":[],"categories_segments":[],"categories_sizes":[],"default_left":[0,0,0,0,1,0,0,0,0,0,0,0,0,0,0,0,0,0,0,0,1,1,0,0,1,1,0,0,0,0,0,0,0,0,0,0,0,0,0,0,0,0,0,0,0,0,0,0,0,0,0],"id":27,"left_children":[1,3,5,7,9,11,13,15,17,19,21,23,25,-1,27,29,-1,31,33,35,37,39,-1,41,43,45,47,-1,49,-1,-1,-1,-1,-1,-1,-1,-1,-1,-1,-1,-1,-1,-1,-1,-1,-1,-1,-1,-1,-1,-1],"loss_changes":[1.2815825E2,2.87835E1,1.887825E1,6.7593E0,4.8904095E0,4.0719414E0,1.9751282E0,5.832468E0,3.954029E0,2.829998E0,4.5447993E0,2.1297274E0,1.0664024E0,0E0,1.9212341E-1,4.72682E0,0E0,8.923241E0,3.3859978E0,2.6824102E0,1.8938923E0,1.665327E0,0E0,8.888863E-1,1.7552433E0,1.3451042E0,4.8993683E-1,0E0,4.8693657E-1,0E0,0E0,0E0,0E0,0E0,0E0,0E0,0E0,0E0,0E0,0E0,0E0,0E0,0E0,0E0,0E0,0E0,0E0,0E0,0E0,0E0,0E0],"parents":[2147483647,0,0,1,1,2,2,3,3,4,4,5,5,6,6,7,7,8,8,9,9,10,10,11,11,12,12,14,14,15,15,17,17,18,18,19,19,20,20,21,21,23,23,24,24,25,25,26,26,28,28],"right_children":[2,4,6,8,10,12,14,16,18,20,22,24,26,-1,28,30,-1,32,34,36,38,40,-1,42,44,46,48,-1,50,-1,-1,-1,-1,-1,-1,-1,-1,-1,-1,-1,-1,-1,-1,-1,-1,-1,-1,-1,-1,-1,-1],"split_conditions":[1.0126671E1,8.598496E0,1.2611541E1,1.97E3,2.17303E0,1.1002116E1,5.662E-1,4.72E2,7.4905295E0,9.6322365E0,1E0,4.0003E-1,8.611111E-1,2.1980975E-2,1.973E3,1.07973E3,-3.9726667E-2,9.15E1,1.9E1,5.9E1,8.5E3,4.406E-1,3.465872E-2,3.9E1,3.0308008E0,1.5E2,4.0054755E0,5.8865763E-2,1.104E2,-1.6343439E-2,1.2702222E-3,-5.2206755E-2,-0E0,-3.6022093E-2,-1.7790787E-2,-5.2946934E-4,-8.729443E-3,1.7045919E-2,-7.5449585E-4,-1.4912862E-2,8.200577E-3,8.001103E-3,-7.189203E-4,4.8732115E-3,1.8616507E-2,1.6970294E-2,-0E0,1.2252724E-2,2.586505E-2,1.6248055E-2,4.452979E-2],"split_indices":[30,30,30,16,9,30,54,1,30,30,33,29,2,0,16,15,0,13,17,18,5,53,0,22,10,13,10,0,13,0,0,0,0,0,0,0,0,0,0,0,0,0,0,0,0,0,0,0,0,0,0],"split_type":[0,0,0,0,0,0,0,0,0,0,0,0,0,0,0,0,0,0,0,0,0,0,0,0,0,0,0,0,0,0,0,0,0,0,0,0,0,0,0,0,0,0,0,0,0,0,0,0,0,0,0],"sum_hessian":[3.0776255E3,2.050978E3,1.0266476E3,7.0297186E2,1.3480061E3,8.8935425E2,1.3729333E2,2.8095306E2,4.220188E2,1.2576982E3,9.030784E1,4.2397443E2,4.6537982E2,3.309248E1,1.0420086E2,2.5066766E2,3.0285393E1,7.850956E1,3.4350925E2,9.5206335E2,3.0563492E2,6.487723E1,2.5430613E1,1.707884E2,2.5318604E2,2.0760225E2,2.5777756E2,4.5208916E1,5.8991943E1,1.3380988E2,1.1685779E2,6.2232548E1,1.6277014E1,7.365617E1,2.6985306E2,2.7241666E2,6.796467E2,2.814522E1,2.774897E2,1.8391193E1,4.648604E1,1.0202621E2,6.876219E1,8.2656715E1,1.7052933E2,1.8698636E2,2.0615896E1,4.4794308E1,2.1298325E2,1.6932331E1,4.2059612E1],"tree_param":{"num_deleted":"0","num_feature":"62","num_nodes":"51","size_leaf_vector":"1"}},{"base_weights":[6.913672E-3,-1.21196516E-1,2.8749567E-1,-2.1437176E-1,2.461814E-3,2.3687509E-1,6.485196E-1,-4.4364575E-1,-1.66406E-1,-3.1470295E-2,1.7019248E-1,1.5427427E-1,3.1354988E-1,7.6276404E-1,3.2820636E-1,-5.106345E-1,-7.179019E-2,-2.567091E-1,-9.866423E-2,-1.1380736E-1,4.505063E-2,3.6026835E-2,4.414532E-1,9.057408E-2,2.6637056E-1,2.1716666E-1,3.998409E-1,3.0693011E-2,8.6113775E-1,3.5652695E-3,3.111757E-2,-3.694824E-2,-4.4636317E-3,9.740952E-3,-2.3237092E-2,-3.3164926E-2,-1.2406638E-2,-1.04664145E-2,7.127459E-5,-1.2968367E-2,-3.0139738E-3,-2.2510877E-3,1.0811406E-2,2.708994E-2,-1.011759E-3,5.122376E-2,1.4656618E-2,9.073483E-3,-0E0,1.9962218E-2,4.18394E-3,3.7177822E-3,2.0454984E-2,2.9344732E-2,4.779983E-3,3.582846E-2,6.619665E-2],"categories":[],"categories_nodes":[],"categories_segments":[],"categories_sizes":[],"default_left":[0,1,0,0,1,0,1,1,0,1,0,0,0,0,1,0,0,0,0,0,0,0,1,1,0,1,1,0,0,0,0,0,0,0,0,0,0,0,0,0,0,0,0,0,0,0,0,0,0,0,0,0,0,0,0,0,0],"id":28,"left_children":[1,3,5,7,9,11,13,15,17,19,21,23,25,27,29,31,33,35,37,39,41,43,45,47,49,51,53,-1,55,-1,-1,-1,-1,-1,-1,-1,-1,-1,-1,-1,-1,-1,-1,-1,-1,-1,-1,-1,-1,-1,-1,-1,-1,-1,-1,-1,-1],"loss_changes":[1.11810776E2,2.4814526E1,1.6509613E1,1.2511677E1,5.3685665E0,4.762005E0,2.5802193E0,4.2767677E0,5.6902676E0,4.8178773E0,5.134725E0,2.5102816E0,2.7136345E0,3.5108185E-1,5.804541E-1,2.5086594E0,2.4489045E0,6.205023E0,3.6758862E0,1.7108912E0,3.705238E0,2.6732676E0,2.09628E0,1.079884E0,4.7554493E-1,2.615098E0,2.2756805E0,0E0,4.7439575E-2,0E0,0E0,0E0,0E0,0E0,0E0,0E0,0E0,0E0,0E0,0E0,0E0,0E0,0E0,0E0,0E0,0E0,0E0,0E0,0E0,0E0,0E0,0E0,0E0,0E0,0E0,0E0,0E0],"parents":[2147483647,0,0,1,1,2,2,3,3,4,4,5,5,6,6,7,7,8,8,9,9,10,10,11,11,12,12,13,13,14,14,15,15,16,16,17,17,18,18,19,19,20,20,21,21,22,22,23,23,24,24,25,25,26,26,28,28],"right_children":[2,4,6,8,10,12,14,16,18,20,22,24,26,28,30,32,34,36,38,40,42,44,46,48,50,52,54,-1,56,-1,-1,-1,-1,-1,-1,-1,-1,-1,-1,-1,-1,-1,-1,-1,-1,-1,-1,-1,-1,-1,-1,-1,-1,-1,-1,-1,-1],"split_conditions":[2.778E4,1.2E4,4E5,3E3,8.94E1,5.7E1,1.00269985E1,6.8E1,4.6E1,3.5E1,1.6E1,8.82375E4,1.25E5,6.17E-1,2.2831616E5,9.46E1,1.4469E2,9.777925E0,8.435E3,1.07425E4,2.023E3,1.764E4,2.1E1,5.625E3,1.0175743E1,1.929E3,7.472E-1,3.0693011E-2,2.021E3,3.5652695E-3,3.111757E-2,-3.694824E-2,-4.4636317E-3,9.740952E-3,-2.3237092E-2,-3.3164926E-2,-1.2406638E-2,-1.04664145E-2,7.127459E-5,-1.2968367E-2,-3.0139738E-3,-2.2510877E-3,1.0811406E-2,2.708994E-2,-1.011759E-3,5.122376E-2,1.4656618E-2,9.073483E-3,-0E0,1.9962218E-2,4.18394E-3,3.7177822E-3,2.0454984E-2,2.9344732E-2,4.779983E-3,3.582846E-2,6.619665E-2],"split_indices":[28,47,28,28,13,17,35,17,17,17,1,28,47,52,3,13,50,35,28,28,34,38,17,6,35,16,52,0,34,0,0,0,0,0,0,0,0,0,0,0,0,0,0,0,0,0,0,0,0,0,0,0,0,0,0,0,0],"split_type":[0,0,0,0,0,0,0,0,0,0,0,0,0,0,0,0,0,0,0,0,0,0,0,0,0,0,0,0,0,0,0,0,0,0,0,0,0,0,0,0,0,0,0,0,0,0,0,0,0,0,0,0,0,0,0,0,0],"sum_hessian":[3.102994E3,2.1270457E3,9.7594836E2,1.2193662E3,9.076795E2,8.601281E2,1.1582019E2,2.0511256E2,1.0142536E3,7.482614E2,1.5941805E2,4.2371826E2,4.3640988E2,8.158238E1,3.423781E1,1.7040613E2,3.4706444E1,4.251391E2,5.891145E2,3.692462E2,3.7901526E2,1.1055252E2,4.886552E1,2.7884833E2,1.4486992E2,2.1477219E2,2.216377E2,2.4357466E1,5.722492E1,1.5212782E1,1.9025026E1,1.5168388E2,1.8722235E1,1.6705156E1,1.800129E1,9.0262405E1,3.3487668E2,3.795405E2,2.09574E2,1.5900441E2,2.1024178E2,2.1977057E2,1.5924469E2,1.6330183E1,9.422234E1,1.654812E1,3.23174E1,1.8057765E2,9.8270676E1,1.1802567E2,2.6844254E1,8.311053E1,1.3166165E2,1.9276627E2,2.887143E1,2.0699463E1,3.6525455E1],"tree_param":{"num_deleted":"0","num_feature":"62","num_nodes":"57","size_leaf_vector":"1"}},{"base_weights":[5.3569297E-3,-1.01532534E-1,2.3990402E-1,-1.6085264E-1,4.3611126E-3,1.6342144E-1,5.0562805E-1,-8.012728E-2,-2.2863647E-1,-4.608991E-2,1.5595141E-1,8.78765E-2,2.5783074E-1,4.0885592E-1,7.029393E-2,-2.307123E-1,-2.2029012E-2,-3.2813054E-1,-1.3446508E-1,8.328639E-2,-8.815169E-2,2.5877953E-1,-8.655433E-3,-0E0,1.273885E-1,-0E0,3.1117654E-1,4.80888E-1,1.7402276E-1,-2.4625376E-2,-5.9592957E-3,-6.889952E-3,7.6992046E-3,-4.6960413E-2,-1.9234268E-2,-6.5739523E-3,-5.453251E-2,-3.143392E-3,1.4421053E-2,-7.1887625E-3,1.2283001E-2,3.8943072E-3,2.6609395E-2,-1.113599E-2,7.7152634E-3,8.427735E-3,-1.5562522E-3,9.4589725E-4,1.1106761E-2,-1.1182365E-2,3.5533942E-3,-3.8902261E-3,2.2750247E-2,3.927622E-2,1.8566228E-2,-0E0,1.6513683E-2],"categories":[],"categories_nodes":[],"categories_segments":[],"categories_sizes":[],"default_left":[1,1,0,0,1,1,0,1,0,0,0,0,0,0,0,0,0,0,0,0,0,0,0,0,0,1,0,0,0,0,0,0,0,0,0,0,0,0,0,0,0,0,0,0,0,0,0,0,0,0,0,0,0,0,0,0,0],"id":29,"left_children":[1,3,5,7,9,11,13,15,17,19,21,23,25,27,-1,29,31,33,35,37,39,41,43,45,47,49,51,53,55,-1,-1,-1,-1,-1,-1,-1,-1,-1,-1,-1,-1,-1,-1,-1,-1,-1,-1,-1,-1,-1,-1,-1,-1,-1,-1,-1,-1],"loss_changes":[7.647412E1,1.3325251E1,1.8450027E1,6.915104E0,5.8255553E0,4.830702E0,8.873409E0,5.102256E0,6.081585E0,2.999466E0,3.6082778E0,1.5246406E0,4.857418E0,2.0923061E0,0E0,2.6200066E0,5.13838E0,3.5268707E0,7.9033E0,2.456286E0,2.2048728E0,2.8352108E0,1.45055E0,3.4317726E-1,1.069109E0,6.1956626E-1,3.52977E0,1.6412544E0,5.2474356E-1,0E0,0E0,0E0,0E0,0E0,0E0,0E0,0E0,0E0,0E0,0E0,0E0,0E0,0E0,0E0,0E0,0E0,0E0,0E0,0E0,0E0,0E0,0E0,0E0,0E0,0E0,0E0,0E0],"parents":[2147483647,0,0,1,1,2,2,3,3,4,4,5,5,6,6,7,7,8,8,9,9,10,10,11,11,12,12,13,13,15,15,16,16,17,17,18,18,19,19,20,20,21,21,22,22,23,23,24,24,25,25,26,26,27,27,28,28],"right_children":[2,4,6,8,10,12,14,16,18,20,22,24,26,28,-1,30,32,34,36,38,40,42,44,46,48,50,52,54,56,-1,-1,-1,-1,-1,-1,-1,-1,-1,-1,-1,-1,-1,-1,-1,-1,-1,-1,-1,-1,-1,-1,